#include <math.h>
#include <stdint.h>
#include <limits>
#include <algorithm>
#include <string>
#include "freertos/FreeRTOS.h"
#include "freertos/task.h"
#include "freertos/semphr.h"
namespace FAST_INFERENCE
{

  static constexpr double layer_1_weight[8][784] = {{-0.051822252571582794, 0.016389494761824608, -0.03100079484283924, -0.044250547885894775, -0.06029198691248894, -0.02459309808909893, 0.014519983902573586, -0.08262844383716583, -0.1498996466398239, -0.16877403855323792, -0.12242516875267029, -0.16569781303405762, -0.1454322785139084, 0.06993449479341507, 0.19480644166469574, 0.06970727443695068, -0.09320450574159622, -0.06327563524246216, -0.030785443261265755, 0.05095486715435982, 0.016459157690405846, 0.0887223333120346, 0.11155395954847336, 0.008371653966605663, 0.04987573251128197, 0.022691760212183, -0.028970880433917046, -0.019236350432038307, -0.004649553447961807, 0.025985416024923325, -0.027128268033266068, -0.03645610064268112, -0.04487953335046768, 0.03118813782930374, 0.017029574140906334, -0.0723627582192421, -0.15748782455921173, -0.10608004033565521, -0.11988682299852371, -0.08442018926143646, -0.09387558698654175, -0.06805229932069778, -0.14413796365261078, -0.01463454868644476, -0.02522764354944229, -0.016926560550928116, -0.016820741817355156, 0.013484056107699871, 0.016883984208106995, 0.05948629975318909, 0.08107772469520569, 0.10549834370613098, 0.034991826862096786, 0.09178322553634644, 0.010970767587423325, -0.02445914037525654, -0.03557246923446655, 0.01840902492403984, -0.030668430030345917, 0.012346950359642506, 0.004228469915688038, -0.011830835603177547, -0.04218261316418648, -0.044849880039691925, -0.1279539316892624, -0.15467986464500427, -0.0631381943821907, -0.021948374807834625, -0.04960887134075165, -0.09194504469633102, -0.17862428724765778, -0.06041770428419113, 0.010163969360291958, 0.006919096224009991, -0.025121554732322693, 0.02005728706717491, -0.002995511284098029, 0.02110258676111698, 0.032997772097587585, 0.045039091259241104, 0.08350320905447006, 0.042774785310029984, -0.00858896691352129, -0.040697261691093445, 0.023836882784962654, -0.0008487942977808416, 0.00015443109441548586, 0.0059759896248579025, 0.0010748249478638172, -0.04401858523488045, -0.02050352282822132, -0.11271369457244873, -0.13030430674552917, -0.09210322052240372, -0.02455136366188526, -0.025846341624855995, -0.010934035293757915, -0.06438995152711868, -0.0779823437333107, -0.03452858701348305, -0.004096507094800472, -0.027435485273599625, 0.0133465975522995, -0.046007245779037476, -0.052528440952301025, 0.039997220039367676, 0.03444927558302879, -0.014051049947738647, 0.03968040645122528, 0.08588914573192596, 0.043690040707588196, 0.018241681158542633, 0.00768003286793828, 0.01132848858833313, 0.038515012711286545, -0.00043573605944402516, -0.031206006184220314, -0.0004961303202435374, -0.014528229832649231, -0.06786976754665375, -0.05203533545136452, -0.049783919006586075, -0.03305039927363396, -0.05089304596185684, -0.021084900945425034, -0.044991385191679, -0.09502546489238739, -0.02336142025887966, 0.006716922856867313, -0.03564140200614929, -0.0019275794038549066, 0.0028162735980004072, -0.02393524907529354, -0.011374207213521004, 0.0318048894405365, 0.021717628464102745, 0.030164802446961403, 0.05127094313502312, 0.038956958800554276, 0.012006337754428387, 0.016642630100250244, 0.002935156924650073, 0.006792609114199877, -0.0079210065305233, 0.008003554306924343, 0.0027534852270036936, -0.06249825656414032, -0.06920512020587921, -0.026965107768774033, -0.04688571020960808, -0.02436608076095581, 0.003741394728422165, 0.03410480543971062, -0.028059665113687515, -0.03699404373764992, 0.007607642561197281, 0.014301699586212635, 0.0016191459726542234, -0.025722471997141838, -0.05008644983172417, -0.025646870955824852, 0.003373433370143175, -0.0027938205748796463, 0.06720692664384842, 0.029298851266503334, 0.021778523921966553, 0.0711357593536377, 0.12146236002445221, 0.016519645228981972, -0.05668192729353905, -0.05531929060816765, 0.015305713750422001, 0.03484742343425751, -0.006947861053049564, -0.07448522001504898, -0.017793772742152214, -0.032234735786914825, -0.044230904430150986, 0.007452697493135929, -0.0028063959907740355, 0.03206975758075714, -0.0010713273659348488, -0.04297653213143349, -0.0022914984729140997, 0.021947959437966347, -0.016259659081697464, -0.05947935953736305, -0.015627186745405197, 0.023167382925748825, -0.005306224338710308, 0.011012030765414238, 0.02464989759027958, 0.060133226215839386, 0.09422954171895981, 0.07760640233755112, 0.14302697777748108, -0.006648926995694637, -0.058569129556417465, -0.007593659684062004, 0.0008292119018733501, -0.0007930084830150008, -0.025591595098376274, -0.0770888701081276, -0.06569370627403259, -0.03960491716861725, -0.003266718238592148, -0.020083144307136536, -0.027048001065850258, -0.005186373833566904, 0.010035929270088673, -0.04849931597709656, -0.056977272033691406, 0.014941650442779064, -0.02404356375336647, -0.022780369967222214, -0.0563458651304245, -0.020118052139878273, 0.018403256312012672, 0.0002629252558108419, 0.06014549732208252, 0.04294794052839279, 0.07281312346458435, 0.08826612681150436, 0.13088876008987427, 0.024558499455451965, -0.04133356735110283, -0.042529020458459854, -0.034640517085790634, 0.014138447120785713, -0.025806350633502007, -0.04981253668665886, -0.08822929859161377, -0.019944895058870316, -0.013769245706498623, -0.03115660510957241, 0.009897898882627487, 0.006587080657482147, -0.017283504828810692, 0.0035436705220490694, 0.010451390407979488, -0.0007582624675706029, 0.0036857067607343197, -0.011527635157108307, -0.01279541291296482, -0.011066158302128315, -0.008119235746562481, 0.015503411181271076, 0.052658043801784515, 0.06699473410844803, 0.05825728923082352, 0.06277821958065033, 0.04527426138520241, 0.057483889162540436, 0.00787790585309267, -0.03196161985397339, 0.006039014086127281, -0.012020789086818695, -0.008950421586632729, -0.06046444550156593, -0.04729413986206055, -0.05307681858539581, -0.006423853803426027, -0.035309839993715286, 0.03812228888273239, -0.01893833465874195, 0.019396718591451645, -0.012774284929037094, -0.02042335644364357, -0.04309522733092308, -0.045128535479307175, -0.012247586622834206, 0.0010763844475150108, 0.023883428424596786, 0.00960749015212059, 0.01390155591070652, 0.014100919477641582, 0.05953900143504143, 0.059499241411685944, 0.059136763215065, 0.06464919447898865, 0.08522097766399384, 0.023256953805685043, -0.0006723856786265969, 0.040160536766052246, 0.025594020262360573, -0.020124070346355438, -0.0008475140784867108, -0.025386055931448936, -0.040410347282886505, -0.02911548689007759, 0.005974058993160725, 0.02999141626060009, -0.027942493557929993, 0.022724999114871025, 0.0018141733016818762, -0.02180633693933487, -0.025884641334414482, -0.05626558139920235, 0.021419290453195572, 0.019483141601085663, -0.004955480340868235, 0.04711791127920151, 0.021943973377346992, 0.031043272465467453, 0.04770347848534584, 0.02414216659963131, 0.041168197989463806, 0.06504932045936584, 0.0940137729048729, 0.04830256104469299, -0.00879625603556633, 0.03639640659093857, 0.029384795576334, 0.0032503698021173477, 0.0009985428769141436, -0.027554182335734367, -0.005810380447655916, 0.019114257767796516, -0.015246309340000153, -0.009993894957005978, 0.026601502671837807, -0.008000042289495468, 0.0003962156770285219, 0.014523426070809364, -0.05124187469482422, -0.003337404690682888, 0.01870562881231308, -0.0006855471292510629, -0.019749809056520462, 0.007201856002211571, -0.004764455370604992, 0.02841598354279995, 0.045468881726264954, 0.01546076126396656, 0.02590901032090187, 0.06926906853914261, 0.10549809783697128, 0.06623273342847824, 0.03367749601602554, -0.002083228901028633, 0.027419505640864372, -0.010797247290611267, -0.015983060002326965, 0.005389499478042126, 0.01100668404251337, -0.03168410435318947, -0.019188562408089638, 0.046791646629571915, 0.044052671641111374, 0.009559107944369316, 0.03915039449930191, -0.03459105268120766, -0.009610453620553017, -0.0029600628186017275, 0.0003339513496030122, 0.002111191628500819, 0.014575017616152763, -0.001781822182238102, 0.03754166141152382, 0.001364953233860433, 0.025233374908566475, 0.03184794262051582, -0.005368814337998629, 0.04538945481181145, 0.14048680663108826, 0.07740906625986099, -0.010985308326780796, 0.033151738345623016, 0.023828698322176933, -0.002525939140468836, 0.0025583964306861162, 0.0018865742022171617, -0.07720007747411728, -0.05561262369155884, 0.00015331806207541376, 0.03992031142115593, 0.010252921842038631, 0.007672064006328583, 0.02156018652021885, -0.01056545041501522, 0.021238747984170914, 0.0426788367331028, -0.0004123671678826213, 0.039736345410346985, -0.004737605806440115, 0.009842430241405964, -0.0001406181836500764, 0.011126773431897163, -0.011698121204972267, 0.02908049151301384, -0.007910084910690784, 0.058201972395181656, 0.1357899308204651, 0.03906181454658508, 0.012478080578148365, -0.023042066022753716, -0.0059611559845507145, 0.026765989139676094, 0.0021991964895278215, -0.02849319577217102, -0.03598950058221817, -0.007348507642745972, 0.012467321939766407, 0.021058328449726105, 0.021718066185712814, 0.024692874401807785, 0.006086321081966162, -0.01321154274046421, 0.007801874540746212, 0.02244548872113228, 0.04100358858704567, 0.03835856914520264, 0.03232836350798607, 0.007194355130195618, -0.018618512898683548, -0.001747917733155191, -0.03024771809577942, 0.0008514323271811008, -0.03684176132082939, 0.04820052906870842, 0.08999575674533844, 0.0641748383641243, 0.007828173227608204, 0.018682783469557762, 0.007793350610882044, 0.011390848085284233, 0.028010619804263115, -0.024616431444883347, -0.0005248475936241448, -0.042266927659511566, -0.011341074481606483, 0.0026224374305456877, 0.008229764178395271, 0.01812567561864853, 0.027534907683730125, 0.01260988600552082, 0.012392513453960419, 0.03886748105287552, 0.0015842170687392354, 0.06918326765298843, 0.026889538392424583, -0.012180293910205364, -0.010809067636728287, 0.019948208704590797, -0.006538746412843466, 0.02585858479142189, 0.017229050397872925, 0.06843286752700806, 0.04296496510505676, 0.0189119391143322, 0.07227440923452377, 0.03721650317311287, 0.02918841317296028, 0.03061729483306408, 0.009680968709290028, 0.0026032060850411654, -0.03940150886774063, -0.02287319488823414, -0.007244066335260868, 0.001245363149791956, 0.010906006209552288, 0.002474819775670767, 0.029536619782447815, -0.007901362143456936, -0.010452319867908955, -0.014838949777185917, 0.028939489275217056, 0.04096466675400734, 0.049393605440855026, 0.01414631400257349, -0.012965399771928787, 0.024470197036862373, 0.006758017931133509, -0.014944696798920631, 0.005282509606331587, 0.0786152258515358, 0.014242896810173988, 0.03823790326714516, 0.0670284852385521, 0.04142921790480614, 0.026789676398038864, -0.011144612915813923, -0.0023093747440725565, -0.0003051855892408639, -0.01818227395415306, -0.020643923431634903, -0.0313393771648407, -0.031146131455898285, 0.026948804035782814, 0.00883033312857151, 0.060494061559438705, -0.02159614861011505, -0.009290311485528946, 0.0027590927202254534, 0.03208032250404358, 0.02184491604566574, 0.031935494393110275, 0.0780843049287796, 0.005296137183904648, 0.0014409730210900307, 0.03577297553420067, 0.03594910725951195, 0.021132254973053932, 0.022855021059513092, 0.03420891985297203, 0.06663478910923004, 0.06853745132684708, 0.019797472283244133, -0.0248002540320158, -0.028435632586479187, -0.04091738536953926, -0.029841894283890724, -0.034419722855091095, 0.0008013074402697384, -0.018889104947447777, 0.0298580564558506, -0.004413036163896322, 0.033288031816482544, 0.02212722785770893, -0.01493377611041069, 0.0015243180096149445, 0.02570902183651924, 0.03343234583735466, 0.008107736706733704, 0.04762431979179382, 0.004557396750897169, -0.01296495832502842, 0.011537814512848854, 0.007936245761811733, 0.026073893532156944, -0.00870758667588234, -0.04919270798563957, 0.02330087125301361, 0.04479929059743881, 0.016101865097880363, 0.02709059603512287, 0.0013787661446258426, 0.02331077679991722, 0.006839664652943611, -0.04568196460604668, -0.012608090415596962, 0.02088182605803013, 0.037586409598588943, 0.0012731484603136778, 0.026681246235966682, 0.013385748490691185, 0.024395249783992767, -0.005820514168590307, 0.030139360576868057, 0.02406582050025463, -0.01914243772625923, -0.00600464828312397, 0.04796866700053215, 0.0031585132237523794, 0.043586183339357376, -0.00409260718151927, 0.00544565636664629, 0.04637688770890236, -0.01785203441977501, -0.027420951053500175, 0.024817628785967827, 0.02672874554991722, 0.03438911586999893, 0.031000226736068726, -0.039200086146593094, 0.003374163992702961, 0.011639854870736599, -0.03948332741856575, -0.04041238874197006, -0.02207990735769272, 0.03242400288581848, 0.048121269792318344, 0.05342063680291176, 0.019582193344831467, 0.03774714469909668, 0.017050018534064293, -0.017473062500357628, 0.014224119484424591, -0.003937502391636372, 0.0019485041266307235, 0.054526302963495255, 0.01739494316279888, 0.021409187465906143, 0.04934632405638695, 0.03576800599694252, 0.014424514956772327, 0.01977270096540451, -0.0065748668275773525, 0.01958683878183365, -0.012872661463916302, -0.028513822704553604, 0.007195223588496447, -0.006173240952193737, -0.016215479001402855, -0.041902363300323486, -0.0060818069614470005, -0.03874954208731651, -0.023063261061906815, 0.04944423586130142, 0.009286226704716682, 0.04740607365965843, 0.02053815871477127, 0.009511837735772133, 0.005217611789703369, -0.0241834819316864, -0.047152359038591385, -0.020231619477272034, -0.004088585264980793, 0.035030826926231384, 0.003462492022663355, 0.0679418072104454, 0.052879448980093, 0.05467480048537254, 0.02170689031481743, 0.012340240180492401, 0.03334291651844978, 0.036677733063697815, 0.0062535894103348255, -0.0010781806195154786, -0.003406131872907281, -0.004235963337123394, -0.008196293376386166, -0.026106419041752815, -0.030908530578017235, 0.014454014599323273, 0.04754119738936424, 0.04086609184741974, -0.00200248952023685, 0.008942222222685814, 0.05265553295612335, -0.01566275767982006, 0.032840803265571594, -0.026080859825015068, -0.039652250707149506, -0.054435987025499344, -0.03533490374684334, 0.0004846252268180251, -0.0020799858029931784, -0.0025110645219683647, 0.04250858351588249, 0.038942739367485046, 0.0047413259744644165, -0.005187919829040766, 0.025156978517770767, 0.015450955368578434, -0.029034528881311417, -0.012079481966793537, 0.012896823696792126, 0.00991037953644991, 0.02228527143597603, -0.0031032292172312737, -0.00040409748908132315, -0.015525087714195251, 0.04294838011264801, 0.032466355711221695, 0.031974803656339645, -0.0020071594044566154, 0.02458932250738144, 0.012614027597010136, 0.02597341127693653, -0.006902908440679312, -0.05377809703350067, -0.041806090623140335, 0.025850865989923477, 0.02296438254415989, -0.028690045699477196, -0.001998122315853834, 0.03722026199102402, 0.02150123566389084, 0.018465232104063034, -0.0034211541060358286, 0.0021799576934427023, -0.05655670911073685, -0.052493058145046234, -0.0030162110924720764, -0.005432857200503349, 0.050158534198999405, 0.029495319351553917, -0.021543940529227257, 0.020068353042006493, -0.006190563552081585, 0.04712790623307228, 0.0091971131041646, -0.023299532011151314, -0.0033915932290256023, 0.0033964389003813267, 0.04854857549071312, 0.04631480202078819, -0.03131524845957756, -0.026515096426010132, -0.012493815273046494, -0.004105665255337954, -0.021481040865182877, 0.0009835247183218598, 0.010258885100483894, 0.0016763670137152076, -0.01165502518415451, -0.0023421505466103554, -0.031761106103658676, -0.012687747366726398, -0.046948567032814026, -6.0033868066966534e-05, 0.00465044192969799, 0.047603268176317215, 0.028413357213139534, 0.05736704543232918, -0.005245228763669729, 0.04712731018662453, 0.02047710493206978, 0.015079427510499954, 0.009789945557713509, 0.006006267853081226, -0.018670862540602684, 0.013781379908323288, 0.059987783432006836, 0.045258648693561554, 0.017282074317336082, -0.045008957386016846, -0.007855338975787163, 0.003784060012549162, 0.027357520535588264, 0.020231114700436592, -0.028401600196957588, -0.006957709789276123, -0.0036524045281112194, -0.008922730572521687, 0.008445204235613346, -0.045086584985256195, -0.06986891478300095, -0.012479697354137897, -0.04059142991900444, -0.004094285890460014, 0.002789431484416127, -0.02062900736927986, 0.012648958712816238, 0.04698289930820465, 0.09705252200365067, 0.03517777845263481, 0.0496896468102932, 0.01016578171402216, 0.05796750634908676, 0.06898108869791031, 0.026889191940426826, 0.025705434381961823, -0.041615717113018036, -0.05087849870324135, -0.0442945696413517, -0.0036455823574215174, 0.05246717110276222, -0.05542195588350296, -0.05026371777057648, -0.03600986674427986, -0.03648696839809418, -0.03299625962972641, -0.034309763461351395, -0.01626693457365036, -0.08928391337394714, -0.0602196604013443, -0.008569593541324139, -0.026488251984119415, -0.02523397095501423, -0.05310483276844025, 0.0033604251220822334, 0.09712983667850494, 0.15120939910411835, 0.1531720757484436, 0.1322154700756073, 0.07201678305864334, 0.034847378730773926, 0.014171326532959938, -0.027855897322297096, -0.0574738048017025, -0.09572599083185196, -0.04869595542550087, -0.01996508240699768, 0.02196267992258072, 0.09918686002492905, 0.010376906022429466, -0.03376690298318863, -0.03255030885338783, -0.07481278479099274, -0.03401937708258629, -0.0630616620182991, -0.009759077802300453}, {-0.04296877235174179, 0.021707188338041306, 0.03070559911429882, -0.0028796643018722534, 0.007554716430604458, 0.007727333344519138, 0.061247289180755615, 0.13290707767009735, 0.11346546560525894, 0.09503556787967682, 0.05163991451263428, 0.06241346895694733, 0.04597971588373184, -0.01617150381207466, -0.05791439116001129, -0.006293308921158314, 0.056683335453271866, 0.07228059321641922, 0.0008102683932520449, 0.09595794230699539, 0.08687012642621994, 0.07632315903902054, 0.055343907326459885, 0.028780270367860794, 0.011268241330981255, 0.033177606761455536, 0.02393961139023304, -0.023288097232580185, -0.003773649223148823, 0.04040002077817917, 0.0308365598320961, 0.03686751052737236, 0.0071814642287790775, -0.026420189067721367, -0.0386846698820591, 0.02046980708837509, 0.01851995661854744, 0.06518670171499252, 0.05739400535821915, 0.04486461728811264, -0.006962341722100973, -0.060248102992773056, -0.060807906091213226, -0.06694461405277252, -0.014829370193183422, -0.03096647746860981, -0.00507572153583169, 0.037374190986156464, -0.04950945824384689, -0.014772205613553524, 0.04834525287151337, 0.023008760064840317, 0.024647193029522896, 0.04613637924194336, -0.007385519798845053, -0.022804779931902885, 0.012288841418921947, 0.048607561737298965, 0.024958865717053413, 0.0009219757048413157, -0.0450960211455822, -0.11704812198877335, -0.09988067299127579, -0.016799375414848328, 0.057165686041116714, 0.016996771097183228, 0.012455342337489128, 0.03785553574562073, -0.037340808659791946, -0.05039779096841812, -0.09375815838575363, -0.07414987683296204, -0.017040902748703957, 0.03239937871694565, 0.04560772702097893, 0.05172945559024811, 0.03593378886580467, -0.018880488350987434, -0.022149255499243736, 0.019996995106339455, 0.016717126592993736, -0.022064657881855965, 0.053716521710157394, -0.03662697970867157, -0.038651034235954285, -0.05826427415013313, -0.014283779077231884, -0.032699164003133774, -0.13295413553714752, -0.0830162763595581, -0.0038671973161399364, 0.013561302796006203, 0.02039135992527008, 0.009141189977526665, 0.01919873058795929, 0.04823559895157814, 0.0050838966853916645, -0.0449095256626606, -0.010746151208877563, -0.007346384692937136, 0.008749683387577534, 0.04540891572833061, 0.03146301209926605, 0.011164480820298195, 0.009403509087860584, 0.029152557253837585, 0.02020391635596752, 0.014742773026227951, -0.034131038933992386, 0.014592962339520454, -0.0013342911843210459, 0.045724380761384964, -0.015240726061165333, -0.019832048565149307, 0.010937952436506748, -0.051094550639390945, -0.0930870771408081, -0.06448806822299957, -0.05235752463340759, 0.022875964641571045, 0.03494373336434364, 0.005739526357501745, 0.03508749604225159, 0.059305813163518906, 0.007057851646095514, -0.009680586867034435, -0.02572823129594326, -0.011703486554324627, 0.013015964068472385, 0.06237279996275902, -0.003409360768273473, -0.001615632325410843, 0.013968188315629959, 0.00354685727506876, 0.007532800547778606, 0.019540872424840927, -0.028135916218161583, -0.011256436817348003, 0.03896382078528404, 0.011089473031461239, 0.0027098061982542276, 0.008466915227472782, -0.023962296545505524, -0.03644011542201042, -0.13466525077819824, -0.08949542790651321, -0.04765859991312027, 0.013892626389861107, -0.011386145837605, 0.03021981194615364, 0.006601043976843357, 0.02123863808810711, 0.03956145420670509, 0.022815493866801262, -0.008925353176891804, 0.011913555674254894, 0.0011609020875766873, 0.02179783582687378, 0.033074330538511276, -0.011859862133860588, 0.040159888565540314, -0.005978216417133808, -0.024616552516818047, 0.013591601513326168, 0.0049195243045687675, 0.02175965905189514, -0.002153734676539898, -0.022031456232070923, 0.023611929267644882, 0.0008981832070276141, -0.06459920108318329, -0.0685289278626442, -0.10733435302972794, -0.10780272632837296, -0.058863792568445206, -0.00992217194288969, -0.039100807160139084, 0.011572162620723248, 0.035574957728385925, -0.0015560173196718097, 0.02212165668606758, -0.008077293634414673, -0.026729879900813103, 0.026964349672198296, -0.008570652455091476, -0.031107552349567413, 0.04259412735700607, -0.01317854318767786, -0.0023877902422100306, 0.00668379757553339, 0.013829902745783329, 0.025866301730275154, 0.04826910421252251, -0.03265030309557915, -0.030978810042142868, -0.05014539882540703, 0.0069311088882386684, -0.060632601380348206, -0.02897069975733757, -0.08984211832284927, -0.1017354279756546, -0.08590256422758102, -0.08270163089036942, -0.059044256806373596, -0.06365654617547989, -0.004910650663077831, -0.002480112947523594, -0.008961795829236507, 0.006446333602070808, 0.013069267384707928, 0.0506737045943737, 0.015630023553967476, 0.0005752549041062593, 0.01141839474439621, -0.0012568185338750482, -0.02225821278989315, 0.02913801372051239, -0.017407361418008804, -0.006496449466794729, 0.01869339309632778, 0.04438670724630356, -0.025952685624361038, -1.0273834050167352e-06, -0.009926925413310528, -0.028744148090481758, -0.10118799656629562, -0.07613015919923782, -0.06755898892879486, -0.1218450665473938, -0.09337129443883896, -0.11001782864332199, -0.0904511883854866, -0.0969165787100792, -0.05742552503943443, -0.0005796661716885865, -0.019238300621509552, 0.008858940564095974, 0.05428767576813698, 0.04464862123131752, 0.03724232316017151, 0.007142154965549707, -0.017559442669153214, -0.0411650612950325, 0.030539745464920998, -0.008275351487100124, -0.0040497626177966595, 0.0078851617872715, -0.03548581153154373, 0.001855760347098112, -0.016774626448750496, -0.00831785798072815, 0.08366835117340088, -0.03143735229969025, -0.11781881004571915, -0.07271737605333328, -0.11125876754522324, -0.17089812457561493, -0.12841016054153442, -0.08960437774658203, -0.12658992409706116, -0.07443848252296448, -0.0913999080657959, -0.041201602667570114, 0.003788330592215061, 0.04008668661117554, 0.047341279685497284, 0.05403929948806763, 0.01498353760689497, 0.004395612981170416, -0.03487084433436394, -0.0540105476975441, 0.011880168691277504, 0.029160968959331512, -0.0036881917621940374, 0.009209783747792244, -0.011370901949703693, -0.03966552019119263, -0.02177889458835125, 0.02625707909464836, 0.07943642884492874, -0.05687659606337547, -0.1087270975112915, -0.11046914756298065, -0.11215948313474655, -0.1416553258895874, -0.14956256747245789, -0.10862956196069717, -0.09452087432146072, -0.07923624664545059, -0.08035580068826675, -0.0033453693613409996, 0.05830198898911476, 0.022313112393021584, 0.034439824521541595, -0.023972177878022194, 0.0009603299549780786, -0.0013460792833939195, -0.0022197600919753313, -0.037042513489723206, -0.029769351705908775, 0.008845265954732895, 0.0020192356314510107, -0.021123608574271202, -0.021414989605545998, -0.03266001492738724, -0.021357588469982147, -0.03795547038316727, 0.07836073637008667, -0.07730710506439209, -0.11902891099452972, -0.06976969540119171, -0.08401013165712357, -0.10917533934116364, -0.07803444564342499, -0.05677148699760437, -0.008238106966018677, -0.06316367536783218, -0.06635767221450806, -0.0018284203251823783, 0.02867327444255352, -0.007898705080151558, -0.026335960254073143, 0.006441180594265461, -0.00984862819314003, 0.026862304657697678, 0.04404154047369957, -0.058478303253650665, -0.027706198394298553, 0.022337788715958595, 0.010946253314614296, -0.0010623865528032184, 0.014419449493288994, 0.038280609995126724, -0.0016050399281084538, 0.015714790672063828, 0.09138982743024826, -0.08458909392356873, -0.05161209776997566, -0.04236339032649994, -0.05941265448927879, -0.05570245534181595, -0.047697994858026505, -0.015332849696278572, 0.04617205262184143, -0.03712109103798866, -0.013972175307571888, 0.029339125379920006, 0.024004759266972542, 0.009355672635138035, -0.0264056995511055, -0.028535526245832443, -0.000571643584407866, 0.026209134608507156, -0.017231091856956482, -0.06831655651330948, -0.04380372166633606, -0.00890884455293417, -0.037726715207099915, -0.014308646321296692, 0.0013673349749296904, 0.015449641272425652, -0.011496241204440594, -0.00022219651145860553, 0.05963248386979103, -0.017838848754763603, -0.002991823246702552, 0.005197915714234114, -0.06004917249083519, -0.009418085217475891, 0.05485004931688309, 0.05015057325363159, 0.024007001891732216, 0.023694178089499474, -0.015267943032085896, 0.015659740194678307, -0.011196138337254524, -0.033225324004888535, -0.015442085452377796, -0.03424539789557457, -0.016018357127904892, 0.014755970798432827, -0.02420917898416519, -0.03012458048760891, -0.01436921302229166, -0.0064214966259896755, -0.05605212599039078, -0.013147078454494476, -0.01418531034141779, -0.013451625593006611, 0.012132353149354458, -0.00902599934488535, -0.0781221017241478, 0.04622897133231163, 0.016607079654932022, -0.011363373138010502, -0.044793032109737396, 0.016358666121959686, 0.0822564959526062, 0.032890304923057556, 0.0250384584069252, 0.01396309956908226, -0.011913811787962914, -0.03833289071917534, -0.018048277124762535, 0.021132230758666992, -0.005880520213395357, -0.042954761534929276, -0.018874000757932663, -0.003253952832892537, 0.01540055125951767, 0.015720831230282784, 0.008033981546759605, -0.00600682757794857, -0.014162851497530937, 0.005417326465249062, 0.01241481862962246, 0.008994308300316334, -0.041989270597696304, -0.024417584761977196, -0.08013471215963364, 0.07497961819171906, 0.0309231486171484, -0.08441581577062607, -0.05498669296503067, -0.010773098096251488, 0.09580205380916595, 0.03168280050158501, 0.03419190272688866, 0.039827607572078705, 0.0013482475187629461, 0.0029547426383942366, 0.0005277859163470566, -0.0031403456814587116, 0.010164104402065277, -0.0740426704287529, -0.014765915460884571, 0.014355300925672054, 0.029069699347019196, 0.007766778580844402, -0.011951456777751446, 0.007624896243214607, 0.01878729835152626, 0.021309969946742058, -0.013281373307108879, 0.004353940021246672, 0.00678119994699955, -0.028583405539393425, -0.05476032570004463, 0.009174215607345104, 0.011483336798846722, -0.054482802748680115, -0.062260087579488754, 0.02367871068418026, 0.03642060607671738, 0.07920496165752411, 0.03834334388375282, 0.01205531321465969, 0.007605841848999262, -0.02451235242187977, 0.002151201479136944, 0.0003690908779390156, -0.01713409647345543, -0.06206320971250534, 0.016586005687713623, 0.03114825114607811, 0.02457035891711712, 0.013266460038721561, 0.02068939432501793, 0.0013876600423827767, 0.00391310965642333, 0.004139756318181753, 0.018923351541161537, 0.02253761887550354, 0.033911965787410736, -0.024861805140972137, -0.09069330245256424, 0.08064071834087372, -0.024433618411421776, -0.05656985193490982, -0.06362056732177734, 0.01003275252878666, 0.07174724340438843, 0.05328911915421486, 0.03655831888318062, 0.004778638947755098, -0.017323553562164307, -0.01963074691593647, 0.016371270641684532, 0.022745007649064064, -0.07604681700468063, -0.0660363957285881, 0.012994004413485527, 0.059208985418081284, 0.010004756972193718, 0.021416079252958298, 0.006046589929610491, 0.018848378211259842, -0.028172709047794342, 0.04414430260658264, 0.04169486463069916, 0.0026512895710766315, 0.03041067160665989, 0.024663716554641724, -0.008055477403104305, 0.03594311326742172, -0.006639777682721615, -0.07478587329387665, -0.06547313183546066, 0.01201468426734209, 0.05926593020558357, 0.05702398717403412, 0.028648924082517624, -0.008966371417045593, -0.017217513173818588, -0.0028819807339459658, 0.02975548803806305, -0.015501880086958408, -0.04125675559043884, -0.08323638886213303, 0.03441188856959343, 0.020102238282561302, 0.013569311238825321, 0.014095409773290157, -0.023677164688706398, -0.028088143095374107, 0.011419055983424187, 0.01816941425204277, 0.016294358298182487, 0.0509783960878849, 0.061836060136556625, 0.009980122558772564, 0.003713035024702549, 0.022825682535767555, -0.0004973114700987935, -0.07413134723901749, -0.03534507378935814, 0.04808908328413963, 0.05516486242413521, 0.041632279753685, 0.009627504274249077, -0.025386933237314224, -0.021977655589580536, -0.014435005374252796, 0.02009645290672779, -0.016948005184531212, -0.06106296554207802, -0.06017370522022247, 0.009254951030015945, 0.01920197904109955, 0.030113136395812035, -0.015601168386638165, -0.012093435972929, -0.007670332212001085, -0.011359774507582188, 0.02089945413172245, -0.028632262721657753, 0.02824396826326847, 0.006799519993364811, 0.006485578138381243, -0.0168722253292799, 0.00977147277444601, -0.0019151621963828802, -0.038814809173345566, 0.001443726010620594, -0.012943098321557045, 0.03221584111452103, 0.008463981561362743, 0.02048235572874546, -0.015238738618791103, -0.009782077744603157, -0.031387824565172195, 0.003973016515374184, 0.025283293798565865, -0.04058372974395752, -0.04522111639380455, -0.009205696173012257, 0.015584736131131649, 0.02011273242533207, -0.037165917456150055, -0.03375564515590668, -0.05595073103904724, -0.01753685064613819, -0.030063560232520103, 0.0011003285180777311, 0.0030677372124046087, 0.056524619460105896, -0.0385083369910717, -0.006319508422166109, 0.01844233088195324, 0.011196017265319824, -0.028577910736203194, -0.03387833386659622, -0.0017617265693843365, 0.039397627115249634, 0.006906426977366209, -0.020272953435778618, -0.002115277573466301, -0.02074112743139267, 0.019363554194569588, 0.028967903926968575, -0.016888409852981567, 0.004731930326670408, -0.050366416573524475, 0.008335508406162262, 0.044719260185956955, 0.0032039780635386705, -0.00711093470454216, 0.01580684632062912, -0.06748560816049576, -0.053303953260183334, -0.01679523102939129, -0.020857220515608788, -0.025427740067243576, -0.010401282459497452, 0.0011612888192757964, -0.03618146479129791, -0.04201013594865799, -0.010781990364193916, -0.0208825021982193, -0.037965841591358185, -0.018224330618977547, 0.038949720561504364, 0.0033617110457271338, -0.017511418089270592, -0.03145993873476982, -0.00473007233813405, -0.03615674376487732, 0.041147712618112564, 0.002707337960600853, -0.017419613897800446, -0.07185716181993484, -0.02607601135969162, 0.029241329059004784, -0.0022999229840934277, -0.018749279901385307, -0.02525145560503006, -0.06824351102113724, 0.018998246639966965, 0.005469928961247206, -0.03433385118842125, -0.0052977055311203, 0.02614540420472622, 0.007283214945346117, -0.11185823380947113, 0.02955186553299427, 0.04510369524359703, -0.010875238105654716, 0.005632839165627956, -0.025421425700187683, -0.022191928699612617, -0.01075681857764721, -0.03676321357488632, -0.010731765069067478, 0.029802456498146057, -0.007792107295244932, 0.0017630454385653138, 0.028193838894367218, -0.004997789394110441, -0.08050166070461273, -0.0017695482820272446, -0.007133150938898325, -0.0058880881406366825, 0.013948184438049793, 0.010710060596466064, -0.016161303967237473, -0.03205493092536926, -0.03848762437701225, -0.04443494230508804, 0.004640768747776747, 0.02025904692709446, -0.01037046778947115, -0.11675675958395004, -0.03695939853787422, 0.019159095361828804, -0.017746396362781525, 0.04041827470064163, 0.0272411797195673, -0.04226825013756752, -0.07557700574398041, -0.07454840838909149, 0.006150307599455118, 0.0006429316708818078, 0.02851993776857853, -0.006688879802823067, -0.001707768882624805, 0.0167057104408741, -0.08080947399139404, -0.008410993032157421, -0.022809406742453575, -0.022829435765743256, 0.022121189162135124, 0.007714609615504742, -0.062336407601833344, -0.01774134486913681, 0.004780912306159735, -0.0037362107541412115, 0.03799927979707718, 0.02790725603699684, 0.005662648472934961, -0.04004233330488205, 0.07893873006105423, 0.03714308142662048, 0.02355991117656231, 0.0190154816955328, -0.02298293448984623, -0.0019458149326965213, -0.03672569990158081, -0.014196550473570824, -0.008586550131440163, -0.01775325834751129, 0.0250695813447237, 0.047910336405038834, 0.032070644199848175, -0.0008425675332546234, -0.03159891813993454, -0.02698286809027195, 0.00505781639367342, -0.016002031043171883, 0.005452136509120464, -0.009461011737585068, -0.04410269483923912, -0.041612911969423294, 0.0053057181648910046, -0.04907803237438202, 0.002184160053730011, 0.040849264711141586, -0.008889065124094486, -0.03971957787871361, 0.03628003969788551, 0.01847577653825283, 0.08153826743364334, 0.08401768654584885, 0.018183449283242226, -0.04147321730852127, -0.039071280509233475, -0.030949046835303307, -0.023364663124084473, 0.022312602028250694, 0.009486213326454163, -0.001931150909513235, 0.05115361884236336, -0.0066855791956186295, -0.04975859075784683, 0.009301384910941124, -0.0052418895065784454, 0.010092956945300102, -0.027810029685497284, -0.026360349729657173, 0.018654974177479744, 0.0004513799794949591, -0.05082697048783302, 0.000775235123001039, -0.009946135804057121, 0.05771195515990257, -0.011961104348301888, -0.05969322845339775, 0.022727634757757187, 0.029575733467936516, 0.04530486837029457, 0.02596697211265564, -0.08962039649486542, -0.12678396701812744, -0.08809559792280197, -0.057226795703172684, -0.0028722931165248156, 0.07741858065128326, 0.05524161830544472, -0.0014655932318419218, -0.003243617480620742, -0.07994849979877472, -0.1507648229598999, -0.039964459836483, 0.0036079108249396086, 0.06642448157072067, 0.06305716931819916, 0.030088823288679123, 0.0031214875634759665, -0.05694063380360603, -0.035338129848241806, -0.017554402351379395, 0.028371762484312057, 0.02133842185139656, -0.003665806259959936, 0.00662129046395421}, {0.03406384959816933, -0.008466124534606934, 0.0646125003695488, -0.03351115807890892, 0.0011520821135491133, 0.006433635484427214, 0.10314695537090302, 0.003559628501534462, -0.059522006660699844, 0.018082017078995705, 0.03451155126094818, -0.028280941769480705, 0.013401779346168041, -0.10808179527521133, -0.18164381384849548, -0.040367621928453445, 0.03738446161150932, 0.039861857891082764, -0.039306268095970154, -0.10224474966526031, -0.05840715765953064, 0.025662682950496674, -0.04188220575451851, -0.0034461780451238155, -0.006284772884100676, 0.0025160880759358406, 0.003525501349940896, -0.04646877199411392, 0.025658663362264633, -0.03240865468978882, 0.04126563295722008, 0.0071108085103333, -0.03308712691068649, 0.048435963690280914, 0.021454691886901855, 0.01912735402584076, 0.038256775587797165, 0.04577343910932541, -0.026068227365612984, -0.060729946941137314, 0.016435721889138222, -0.002513498766347766, -0.009431643411517143, 0.015325309708714485, -0.03508159890770912, -0.0850415751338005, -0.0033219342585653067, 0.042966920882463455, 0.004314945545047522, 0.03750282898545265, 0.04825618490576744, -0.0158961433917284, -0.0034624419640749693, -0.05777771770954132, 0.013135465793311596, 0.008902028203010559, -0.0346604660153389, -0.006105406209826469, -0.010537981055676937, 0.015775689855217934, -0.03477930650115013, -0.019664354622364044, -0.04615356773138046, 0.0025150789879262447, 0.05101177468895912, 0.028135089203715324, -0.0014986359747126698, 0.025187863036990166, -0.0584038607776165, -0.0026062217075377703, 0.0065612150356173515, -0.06934337317943573, -0.05720970034599304, -0.0001673894585110247, -0.025201644748449326, 0.023083165287971497, -0.010259129106998444, -0.009609812870621681, -0.03468642011284828, 0.0372675359249115, 0.022776050493121147, -0.00018430600175634027, -0.026074225082993507, -0.022470789030194283, 0.0360669381916523, 0.06370581686496735, 0.014815544709563255, -0.0173750352114439, -0.007481505628675222, -0.040725260972976685, -0.05446630343794823, 0.0518907867372036, 0.10185708850622177, 0.009283238090574741, -0.029841627925634384, 0.0029277135618031025, -0.00902795884758234, 0.009661714546382427, -0.010945649817585945, -0.002177886199206114, 0.0043777464888989925, 0.021426932886242867, 0.016999676823616028, 0.04835992678999901, 0.0763198509812355, 0.01287662424147129, -0.010582729242742062, 0.03132794797420502, 0.007724878843873739, 0.041774384677410126, 0.027177898213267326, 0.01629147306084633, 0.02470126748085022, 0.013748648576438427, 0.01422329805791378, 0.010077392682433128, -0.007116471882909536, -0.027855876833200455, -0.02163849212229252, 0.05819346383213997, 0.05816441774368286, 0.00027099711587652564, 0.007699071895331144, 0.0044111995957791805, -0.029827728867530823, -0.023129433393478394, -0.02384036034345627, 0.02232811041176319, -0.008219455368816853, 0.024442432448267937, -0.007353241555392742, -0.004817202687263489, 0.039140667766332626, 0.053394511342048645, 0.007022276986390352, -0.010648437775671482, 0.05245909467339516, 0.06178629770874977, 0.03276156634092331, 0.02141132578253746, 0.05511622130870819, 0.015276351012289524, -0.027795638889074326, 0.0023617970291525126, -0.0038872293662279844, -0.05066473037004471, 0.009564373642206192, 0.0013567617861554027, 0.001038486254401505, 0.0023331595584750175, 0.03923170641064644, 0.021348753944039345, -0.03505413234233856, -0.04073907062411308, -0.022559214383363724, -0.017390282824635506, -0.011452659964561462, -0.010804794728755951, 0.017452090978622437, -0.0015572268748655915, 0.05212637409567833, 0.009301457554101944, -0.01812230423092842, 0.04182760789990425, 0.04895516484975815, 0.02687457762658596, 0.03896722570061684, -0.013727504760026932, 0.01725129596889019, 0.025230644270777702, 0.031023332849144936, -0.008716517128050327, -0.002554280450567603, -0.03324245288968086, -0.0015292849857360125, 0.0011820066720247269, 0.0017317187739536166, 0.048561353236436844, 0.06300913542509079, 0.003190916031599045, 0.01644321158528328, -0.0436645932495594, -0.05724524334073067, -0.014584020711481571, 0.010724072344601154, 0.003636278212070465, 0.028410950675606728, 0.012046481482684612, 0.010393887758255005, 0.034805238246917725, 0.022530540823936462, 0.019592024385929108, 0.07285972684621811, 0.008535769768059254, -0.021585410460829735, -0.011145423166453838, 0.02037297934293747, 0.05152198299765587, -0.0030073148664087057, 0.05143279209733009, 0.0206618495285511, -0.062115274369716644, -0.022818205878138542, -0.04437313228845596, 0.0016850917600095272, 0.013270340859889984, -0.027016479521989822, 0.03903110697865486, 0.01701918989419937, -0.02419857122004032, -0.013879979029297829, 0.0056614745408296585, -0.010042345151305199, -0.022787043824791908, 0.005373880732804537, 0.00712736276909709, 0.01893613301217556, -0.0024752968456596136, -0.027887258678674698, -0.06400614231824875, 0.0024790121242403984, -0.00018959626322612166, -0.005793189629912376, 0.004636072553694248, -0.028497137129306793, 0.04386984929442406, 0.041098855435848236, 0.02405092865228653, 0.001927810488268733, -0.018649708479642868, 0.009927887469530106, -0.039072487503290176, -0.028876502066850662, -0.009157620370388031, -0.01289503276348114, 0.022253505885601044, 0.02042120136320591, 0.008443052880465984, 0.019299067556858063, 0.001434346311725676, -0.029320310801267624, -0.04313096031546593, -0.0627724751830101, 0.0062604304403066635, 0.004734039306640625, 0.01932482421398163, 0.006839720997959375, -0.023024506866931915, -0.022665007039904594, 0.016776947304606438, 0.0015305980341508985, 0.009890178218483925, -0.040149010717868805, -0.0220120120793581, 0.026700148358941078, 0.020955786108970642, -0.04205125570297241, -0.020397325977683067, -0.04278048872947693, -0.010201719589531422, -0.038457512855529785, -0.011686475947499275, -0.0627022385597229, 0.011634116061031818, 0.02984870783984661, 0.03253147751092911, 0.024471670389175415, -0.04177648574113846, -0.028287677094340324, -0.09942897409200668, -0.08200979232788086, 0.0004156043869443238, 0.008720981888473034, 0.047352828085422516, 0.020746685564517975, -0.016386009752750397, 0.015363691374659538, -0.05432623624801636, 0.0014099790714681149, -0.030193867161870003, -0.014267015270888805, -0.00989815779030323, 0.03250477463006973, 0.039635855704545975, 0.002796702552586794, -0.027235444635152817, -0.018819205462932587, -0.014742212370038033, 0.00135885551571846, -0.08118841052055359, -0.04426358640193939, 0.056648049503564835, 0.02870669588446617, -0.007558066863566637, 0.02257387340068817, -0.007005242630839348, 0.011510881595313549, -0.04599907994270325, -0.09503878653049469, -0.021391041576862335, 0.06418750435113907, 0.04007710516452789, 0.04764936491847038, -0.030237356200814247, -0.016979387030005455, -0.022223956882953644, -0.06179187074303627, -0.01678600162267685, 0.01431893277913332, -0.017356878146529198, 0.04216594621539116, 0.058655913919210434, 0.019668735563755035, -0.010425086133182049, -0.011494853533804417, 0.006387421395629644, -0.030765604227781296, -0.05424404889345169, 0.005722101777791977, 0.07618989795446396, 0.008092518895864487, 0.016966404393315315, 0.038417715579271317, -0.011889801360666752, -0.0012934367405250669, -0.023381102830171585, -0.08442302793264389, -0.04472178965806961, -0.010476813651621342, 0.026720087975263596, 0.005265173967927694, 0.013370255939662457, -0.017980903387069702, -0.0572318471968174, -0.0875682681798935, 0.03211039677262306, -0.008632016368210316, 0.020984098315238953, 0.01763632521033287, 0.03958055004477501, 0.015679121017456055, 0.046645939350128174, -0.029389172792434692, 0.006809366401284933, -0.047999829053878784, -0.045411452651023865, -0.005239285994321108, 0.042619381099939346, 0.0342801995575428, -0.004929165355861187, 0.06755804270505905, -0.0005266640800982714, -0.02093546837568283, 0.004621968604624271, -0.020711323246359825, -0.05678537115454674, 0.017375778406858444, -0.002874001394957304, 0.007277654483914375, -0.03486189618706703, -0.04139278084039688, -0.02793034166097641, -0.07045470923185349, -0.031237604096531868, -0.029673684388399124, -0.022721443325281143, -0.007079843897372484, 0.005975155625492334, -0.01353029441088438, 0.028737828135490417, 0.033427584916353226, 0.013385058380663395, -0.06101285293698311, -0.04154013469815254, 0.004091589245945215, 0.006480952259153128, -0.03179240971803665, 0.023233335465192795, 0.01741672120988369, -0.005032290704548359, -0.04458562284708023, -0.015632497146725655, -0.01855611614882946, -0.03774036839604378, -0.028452415019273758, -0.003280087374150753, -0.0016677528619766235, -0.05361518636345863, -0.025171766057610512, -0.099278025329113, -0.07733197510242462, -0.1100948229432106, 0.010509328916668892, -0.06129397451877594, -0.12454815208911896, -0.04209263250231743, -0.01810164377093315, 0.040548909455537796, 0.011189039796590805, -0.005560992285609245, -0.03503234311938286, -0.0027222062926739454, 0.015610303729772568, -0.027293052524328232, -0.004288840107619762, 0.046051207929849625, 0.07814426720142365, -0.055994972586631775, -0.019764360040426254, 0.026378434151411057, 0.001870896085165441, -0.013296081684529781, 0.007890935987234116, -0.02370411530137062, -0.04006051644682884, -0.045263923704624176, -0.07647110521793365, -0.05647808313369751, -0.08413921296596527, -0.09995610266923904, -0.06965728849172592, -0.10075336694717407, -0.061971306800842285, -0.029173031449317932, -0.0028082202188670635, 0.027252409607172012, 0.011053275316953659, -0.02847430296242237, -0.02818034216761589, -0.013221777975559235, -0.009418133646249771, 0.015268179588019848, -0.006543486379086971, 0.029548518359661102, 0.024109410122036934, -0.039307236671447754, 0.010616418905556202, 0.011841606348752975, 0.03609157353639603, 0.02939966507256031, 0.010062240064144135, -0.034234266728162766, -0.04765769839286804, -0.05735744908452034, -0.024612007662653923, -0.01891169510781765, -0.04829376935958862, -0.05482977628707886, -0.09123873710632324, -0.05913952738046646, -0.026357019320130348, -0.006380973383784294, 0.002617413876578212, 0.06438680738210678, -0.01215667836368084, 0.0020233187824487686, 0.024878166615962982, 0.030090371146798134, -0.0007248080801218748, -0.0231038648635149, 0.002429479267448187, 0.04228528216481209, 0.025593649595975876, -0.044690538197755814, -0.012295986525714397, -0.008100893348455429, 0.05113237351179123, 0.030219202861189842, 0.0047787753865122795, -0.010048216208815575, -0.0024912338703870773, -0.006813686341047287, -0.006354078650474548, -0.00541942473500967, -0.0006435316754505038, -0.04963473603129387, -0.05548033118247986, -0.08289875090122223, -0.04119318723678589, -0.04514852911233902, -0.011872021481394768, 0.006544726900756359, -0.021006688475608826, 0.029245885089039803, -0.028591832146048546, 0.015571222640573978, 0.00561016658321023, 0.007589771877974272, -0.010143485851585865, 0.027412600815296173, 0.09072245657444, -0.008269666694104671, -0.021357469260692596, -0.005405259784311056, 0.0366184264421463, -0.01384336780756712, -0.015671545639634132, 0.001600545714609325, -0.04680132120847702, -0.009585179388523102, -0.01902877166867256, -0.02160418964922428, 0.020462261512875557, -0.0035229534842073917, 0.012389792129397392, -0.04228629916906357, -0.05559205636382103, -0.07285428792238235, 0.006880518980324268, -0.02516286075115204, -0.010353044606745243, 0.029384123161435127, -0.0033800420351326466, 0.028842950239777565, -0.01513656321913004, -0.009557191282510757, -0.0519418939948082, 0.05089441314339638, 0.1022348552942276, -0.017750175669789314, -0.0014513572677969933, 0.014162932522594929, 0.051134753972291946, 0.026615791022777557, -0.05278506129980087, 0.0029635552782565355, -0.02334395796060562, -0.031247442588210106, -0.008497796021401882, 0.044114165008068085, -0.028931017965078354, -0.08185180276632309, -0.012709291651844978, -0.021682659164071083, 0.011231178417801857, -0.042939282953739166, 0.017949797213077545, -0.015175090171396732, -0.012826136313378811, -0.004944085143506527, -0.020523447543382645, 0.010494975373148918, 0.009193590842187405, 0.010782914236187935, -0.03005499392747879, 0.05503541976213455, 0.09713061898946762, -0.02174067124724388, -0.0351458340883255, -0.008380357176065445, -0.030116945505142212, -0.016345718875527382, -0.010498883202672005, -0.024503109976649284, -0.04393768683075905, 0.0010015479056164622, -0.020282454788684845, -0.011251194402575493, -0.015109885483980179, -0.08988086134195328, -0.033904992043972015, -0.018765250220894814, -0.025026530027389526, 0.0012632821453735232, -0.009235797449946404, -0.029094234108924866, -0.04251430556178093, 0.0054659051820635796, -0.006752956658601761, -0.01627361960709095, 0.009858673438429832, -0.006400649901479483, -0.021812016144394875, -0.0043818713165819645, 0.047057170420885086, -0.003602473996579647, -0.02227356843650341, -0.03698987513780594, -0.039672449231147766, -0.014128847047686577, -0.04280366003513336, -0.05606996640563011, -0.011856140568852425, -0.04833173751831055, -0.015237485989928246, -0.015300722792744637, -0.02146516926586628, -0.07597057521343231, 0.005896758753806353, -0.031126677989959717, -0.06421376019716263, -0.04270370677113533, -0.044770628213882446, -0.05832991376519203, -0.058158401399850845, -0.05308179929852486, -0.0185534730553627, 0.021800333634018898, 0.0015238758642226458, -0.004263701848685741, -0.019298944622278214, 0.018287643790245056, 0.08382730931043625, -0.03345176950097084, -0.007517964579164982, -0.003708514617756009, -0.02622983232140541, -0.009226437658071518, -0.06628718972206116, -0.06328753381967545, -0.04528149589896202, 0.001433111960068345, 0.006859451532363892, -0.020997481420636177, -0.054675254970788956, -0.056052517145872116, -0.06191951781511307, -0.06336883455514908, -0.030496859923005104, -0.02108798176050186, -0.012857959605753422, -0.028757959604263306, -0.002056235447525978, -0.06463802605867386, -0.019158950075507164, 0.05756319686770439, -0.004503149539232254, 0.0047396095469594, -0.058518994599580765, 0.06008346751332283, 0.08690333366394043, 0.013754269108176231, -0.004669605754315853, -0.0031643202528357506, 0.02616078406572342, 0.018297338858246803, -0.01836119033396244, -0.06018081307411194, -0.051399171352386475, -0.06071310490369797, -0.02665693499147892, -0.03783489391207695, -0.008261535316705704, -0.07626760005950928, -0.06310969591140747, -0.07823476940393448, -0.0763913244009018, -0.08380775898694992, -0.021137364208698273, -0.03502617031335831, -0.020321382209658623, -0.040177952498197556, 0.02437244914472103, 0.04511731117963791, 0.026517601683735847, 0.02317994087934494, -0.04605933651328087, 0.059037402272224426, 0.07925921678543091, 0.020946864038705826, -0.049441419541835785, -0.00521890027448535, 0.0026004603132605553, 0.04547080397605896, -0.010141794569790363, -0.012637163512408733, -0.019828220829367638, 0.011115468107163906, -0.03418205678462982, -0.032878343015909195, -0.03719928860664368, -0.018009090796113014, -0.00616883672773838, -0.05572777986526489, -0.03194110468029976, -0.028126392513513565, -0.0343346931040287, 0.00788998045027256, 0.026164956390857697, 0.016397111117839813, 0.005535205826163292, 0.02471281588077545, 0.025040294975042343, -0.0037816253025084734, -0.01259501650929451, 0.03800526261329651, 0.08000266551971436, -0.04773798584938049, -0.03106478974223137, 0.010141091421246529, 0.004285087343305349, -0.006154510658234358, 0.018796978518366814, -0.03496846184134483, 0.048151250928640366, 0.005266078282147646, 0.031265828758478165, 0.03190585970878601, -0.0452728308737278, -0.041852355003356934, 0.014274382963776588, -0.04437455162405968, -0.005825075786560774, -0.030654191970825195, 0.004210003186017275, 0.010400560684502125, 0.012524613179266453, 0.02359214425086975, -0.014454850926995277, -0.013444386422634125, 0.059190671890974045, 0.0054095168597996235, -0.0008090375922620296, 0.05644001439213753, 0.11593589931726456, -0.039344944059848785, -0.028740305453538895, -0.001981081673875451, 0.02896912395954132, 0.03464876860380173, 0.004809055011719465, 0.027976147830486298, 0.02931179851293564, -0.0005440409295260906, 0.04130787029862404, -0.012790907174348831, -0.010257788002490997, -0.059126876294612885, 0.0364752821624279, 0.03314875438809395, 0.01499670185148716, 0.0006032137316651642, 0.04453280195593834, -0.027184316888451576, 0.004089677706360817, 0.026919329538941383, 0.03177730739116669, -0.04770233482122421, 0.06016167253255844, 0.03354723006486893, 0.006704411003738642, 0.04896178096532822, 0.07704664021730423, -0.020312927663326263, -0.01426064781844616, 0.018765386193990707, 0.010171412490308285, -0.004868201911449432, 0.02554982528090477, 0.06360910087823868, 0.048447683453559875, -0.020115740597248077, 0.03184692561626434, 0.0171173345297575, -0.036300286650657654, -0.006591713987290859, -0.003474794328212738, -0.0627208799123764, -0.04542466998100281, -0.10355623811483383, -0.07204938679933548, -0.08165881782770157, -0.07867305725812912, -0.0245797298848629, -0.0005448200390674174, -0.01761035807430744, 0.009881294332444668, -0.0317707359790802, -0.09588540345430374, 0.09217977523803711, 0.13061189651489258, -0.02063298411667347, -0.025522805750370026, -0.005235798191279173, -0.030410729348659515, -0.018653390929102898, 0.001911355066113174, -0.06439094990491867, -0.12547582387924194, -0.08017724007368088, -0.06463798135519028, -0.0639183521270752, 0.009588614106178284, -0.015386375598609447}, {0.034927405416965485, 0.01733287423849106, -0.11227916181087494, -0.039533890783786774, -0.008533922955393791, 0.029693037271499634, 0.08866020292043686, 0.09369317442178726, -0.024451876059174538, -0.07834693789482117, 0.09106013923883438, 0.12241706252098083, -0.09059731662273407, 0.02021322213113308, -0.012740097008645535, -0.03497022017836571, 0.08269190788269043, 0.1629653126001358, 0.04518849030137062, 0.03762183338403702, -0.02539808861911297, 0.10715055465698242, 0.015273012220859528, -0.07143361866474152, -0.12586353719234467, -0.06148568540811539, -0.006072531454265118, -0.009948077611625195, -0.04168936610221863, -0.016344720497727394, -0.05445937067270279, -0.08242698758840561, -0.008714566938579082, -0.0354592464864254, -0.08120878785848618, -0.082806795835495, -0.050998348742723465, 0.11188740283250809, 0.1599702388048172, 0.06190931424498558, -0.02528872899711132, 0.04602058604359627, 0.04996411129832268, -0.0130739351734519, 0.06758450716733932, 0.19929200410842896, 0.140187069773674, 0.09794987738132477, -0.09388431161642075, -0.06473268568515778, -0.006603071000427008, -0.07340852171182632, -0.06435983628034592, -0.032963816076517105, -0.021772639825940132, -0.004558345302939415, 0.02065284177660942, -0.04064542427659035, -0.07010756433010101, -0.059952590614557266, -0.021747956052422523, -0.03563155233860016, -0.0026506746653467417, 0.04601825773715973, 0.008887707255780697, 0.01984277367591858, -0.06302005052566528, -0.06309385597705841, -0.05655526742339134, -0.05291718617081642, -0.08938565105199814, -0.064225934445858, -0.007464021444320679, -0.045060500502586365, -0.03070889599621296, 0.011455107480287552, 0.02959498018026352, 0.03324900567531586, 0.015962179750204086, 0.00697597349062562, -0.09338051080703735, -0.03253698721528053, -0.08507362753152847, -0.038039375096559525, 0.0018028049962595105, -0.013370752334594727, -0.024449137970805168, -0.0886818915605545, 0.0190696120262146, 0.05223777890205383, 0.036070890724658966, -0.07729621976613998, -0.0846676453948021, -0.06909186393022537, 0.024805594235658646, 0.06554065644741058, -0.006005781702697277, -0.03321576118469238, -0.00599407684057951, -0.05660124123096466, -0.029130663722753525, 0.031086964532732964, -0.029397008940577507, -0.09878282248973846, -0.09078694134950638, -0.003994203172624111, 0.04972440004348755, -0.019414255395531654, -0.024995705112814903, -0.05461389943957329, -0.08878888934850693, -0.09494136273860931, -0.05950336158275604, 0.010980012826621532, -0.0013069406850263476, -0.004272310994565487, 0.039442695677280426, 0.0019184666452929378, -0.06260163336992264, -0.04314003512263298, 0.007765764836221933, 0.015272476710379124, 0.05591356381773949, 0.03432845696806908, 0.004148663487285376, -0.061360809952020645, -0.016278166323900223, -0.07663306593894958, -0.009085857309401035, 0.0018102407921105623, -0.0065545979887247086, -0.035192325711250305, -0.009267652407288551, -0.056691523641347885, -0.048989467322826385, 0.07646050304174423, 0.00670279236510396, -0.08941736817359924, -0.052439406514167786, -0.015553348697721958, 0.0010500112548470497, -0.034963399171829224, -0.043806519359350204, 0.00851114746183157, 0.0375148244202137, -0.015533648431301117, -0.022687595337629318, 0.04358108341693878, 0.004205605015158653, -0.012966562062501907, 0.029831023886799812, 0.06350669264793396, 0.05263419821858406, -0.003739372594282031, -0.04578028619289398, -0.01771780289709568, 0.024677013978362083, 0.014578708447515965, -0.010872422717511654, 0.015592139214277267, 0.024179605767130852, -0.018609916791319847, -0.028658024966716766, 0.032618727535009384, 0.026569101959466934, -0.09588414430618286, -0.05884033441543579, -0.04729604348540306, -0.016843482851982117, 0.01470987405627966, -0.03786235675215721, 0.008356205187737942, 0.046623338013887405, 0.02240910567343235, -0.013539377599954605, 0.03417093679308891, -0.014889468438923359, -0.0005394333857111633, -0.005267761647701263, -0.013499769382178783, 0.017973650246858597, -0.018979627639055252, -0.03678424283862114, -0.0390046164393425, -0.005457982886582613, -0.05026969686150551, -0.018960006535053253, -0.03400972858071327, 0.02198336459696293, -0.035828568041324615, 0.004649605136364698, 0.041001372039318085, 0.02628769539296627, -0.08305255323648453, -0.07586011290550232, -0.026948926970362663, 0.03105154260993004, -0.03835732862353325, -0.06777634471654892, -0.0340975746512413, 0.0457083098590374, -0.023010844364762306, -0.006585394497960806, -0.0196293406188488, -0.003428336000069976, 0.04308720678091049, 0.027527883648872375, 0.022413428872823715, 0.037274930626153946, -0.034553948789834976, 0.009163320995867252, -0.005141954403370619, 0.008169673383235931, -0.03821718692779541, -0.0052872514352202415, -0.05956201255321503, 0.00923700537532568, -0.009047799743711948, 0.0022933196742087603, 0.0018139240564778447, -0.0027098862919956446, -0.09322406351566315, -0.07955252379179001, -0.023730233311653137, -0.016307540237903595, -0.03784584254026413, -0.0365091972053051, -0.0037446049973368645, -0.00880743283778429, -0.05624055862426758, -0.003539764555171132, -0.02951846271753311, -0.015412752516567707, 0.004402460530400276, 0.02782902866601944, 0.07224248349666595, 0.044366057962179184, 0.01108019519597292, 0.04366571828722954, 0.013423183001577854, 0.012818792834877968, -0.017518676817417145, -0.037096425890922546, -0.04491771012544632, -0.05496080592274666, -0.04557987302541733, -0.011144150048494339, 0.01692112721502781, 0.007049042731523514, -0.078336700797081, -0.09547614306211472, 0.0019206716679036617, -0.011032995767891407, -0.011112647131085396, -0.05458648502826691, 0.008266379125416279, -0.020336749032139778, 0.009272003546357155, 0.018685055896639824, -0.03343459591269493, -0.05819449946284294, -0.014923698268830776, -0.004187086597084999, 0.07554294168949127, 0.02087393030524254, -0.020942850038409233, -0.03291092813014984, -0.07207765430212021, 0.001113582868129015, 0.031087469309568405, -0.054089587181806564, -0.05061963200569153, -0.07425708323717117, -0.023284604772925377, -0.03372923284769058, -0.011282911524176598, -0.004117897246032953, -0.08062083274126053, -0.05616539344191551, -0.07222805917263031, 0.0275801382958889, -0.022053023800253868, 0.016885053366422653, 0.018739478662610054, 0.008688450790941715, -0.005107294302433729, 0.06940792500972748, -0.033085767179727554, 0.004754247143864632, -0.02955036796629429, 0.02730495110154152, 0.04086926206946373, 0.0061446307227015495, 0.025028038769960403, 0.026820002123713493, -0.044945403933525085, 0.0065738544799387455, -0.03783008083701134, -0.08346130698919296, -0.04755602777004242, -0.038272153586149216, -0.02468472719192505, -0.0019122054800391197, -0.0563795305788517, -0.0019315588288009167, -0.043271299451589584, -0.053081221878528595, -0.03003656305372715, 0.003380831563845277, 0.025952588766813278, 0.023809604346752167, 0.04697765037417412, 0.019447296857833862, -0.012719525955617428, 0.052565570920705795, 0.03274167701601982, -0.014175829477608204, -0.008608861826360226, -0.022298352792859077, 0.05034148693084717, -0.00740984920412302, -0.016773708164691925, 0.007681470829993486, -0.05005422979593277, 0.009039344266057014, -0.010914260521531105, -0.046379607170820236, -0.031058015301823616, -0.0509406253695488, -0.005498991813510656, -0.033042728900909424, -0.04496388137340546, 0.004666335880756378, -0.09660369902849197, -0.04497739300131798, -0.013667067512869835, 0.06929594278335571, -0.011872287839651108, 0.0666152685880661, 0.06207922846078873, 0.06027475371956825, 0.028389805927872658, 0.045394983142614365, -0.01312693115323782, -0.022730045020580292, -0.07613831758499146, -0.03854221850633621, 0.04096650332212448, -0.013923216611146927, -0.01937021128833294, -0.00883049238473177, -0.022992786020040512, -0.028124429285526276, 0.002520822687074542, -0.041823625564575195, -0.0751187652349472, -0.02511504292488098, 0.003685761708766222, 0.030448509380221367, -0.03683186322450638, -0.002006175694987178, -0.0242250207811594, -0.041121359914541245, -0.01909583806991577, -0.025897977873682976, 0.0327901653945446, 0.02258114702999592, 0.08599485456943512, 0.026021873578429222, -0.000224286166485399, 0.05992981791496277, 0.03997768834233284, -0.005706741474568844, -0.0329052172601223, 0.010247983038425446, 0.053013626486063004, -0.02619919180870056, 0.01237468421459198, -0.022414948791265488, -0.04951130226254463, -0.0026996713131666183, -0.005898870062083006, -0.08203797787427902, -0.04658922180533409, -0.039412517100572586, 0.07487974315881729, 0.010076228529214859, -0.04304047301411629, 0.009579507634043694, -0.01836412213742733, -0.06151273474097252, -0.04063886031508446, -0.06575236469507217, -0.027255382388830185, 0.056147024035453796, 0.08035549521446228, 0.040095582604408264, -0.010176440700888634, 0.05352184176445007, 0.001132985926233232, 0.008387412875890732, -0.007171474397182465, 0.05044497177004814, 0.04232236370444298, 0.04368177801370621, -0.00524586858227849, -0.009262718260288239, -0.018168965354561806, -0.03715130314230919, -0.007418976165354252, -0.0518241748213768, -0.004179901909083128, -0.00978044793009758, 0.005704887211322784, 0.05385039374232292, -0.0364973321557045, 0.001517054159194231, 0.000523264636285603, -0.029512709006667137, -0.04635845497250557, -0.1231914684176445, -0.12868595123291016, -0.05145285278558731, 0.03337391838431358, -0.021035820245742798, -0.03002827614545822, 0.037095945328474045, -0.007219039369374514, 0.034573208540678024, -0.015472054481506348, 0.01629902981221676, 0.010501249693334103, 0.027582064270973206, 0.018245622515678406, 0.0040977708995342255, -0.0007452192949131131, -0.033976174890995026, -0.05732065811753273, -0.0554560162127018, -0.02530026249587536, -0.05580544471740723, -0.01653684303164482, 0.023517489433288574, -0.05283885821700096, -0.00908540841192007, 0.007243794854730368, -0.049444880336523056, -0.1455436795949936, -0.10439198464155197, -0.0722959041595459, -0.013093180023133755, 0.008681315928697586, -0.04875035583972931, 0.01914047822356224, 0.004823773633688688, -0.028201621025800705, 0.026055889204144478, -0.0016091435682028532, 0.010751713067293167, 0.007211359683424234, -0.012256083078682423, -0.007977144792675972, 0.01085434015840292, 0.0017635526601225138, 0.01236103568226099, -0.05360337346792221, -0.0737413614988327, -0.02235032618045807, -0.048712242394685745, -0.010832754895091057, 0.02987346239387989, -0.04346127435564995, -0.0020264964550733566, -0.004197418689727783, -0.10003108531236649, -0.12657740712165833, -0.11894038319587708, -0.06367585808038712, -0.050026167184114456, -0.03367066755890846, 0.0018106428906321526, 0.03474007546901703, 0.01233979593962431, -0.006951202638447285, 0.020683659240603447, -0.02383076585829258, 0.005150110460817814, 0.03911379724740982, 0.038971614092588425, -0.021087631583213806, -0.00669508334249258, -0.00912078283727169, 0.004564863163977861, -0.01342499814927578, -0.05397353321313858, -0.07166958600282669, 0.013463961891829967, 0.004622174426913261, 0.03592511638998985, -0.03232306241989136, -0.025194669142365456, -0.036172300577163696, -0.05360173061490059, -0.13875630497932434, -0.09161145240068436, -0.05449721962213516, -0.06351698935031891, -0.05492463335394859, -0.049404580146074295, 0.015110624022781849, -0.0065425387583673, 0.001482715830206871, 0.023309949785470963, 0.03382788226008415, 0.017424963414669037, 0.05546315386891365, 0.03207935392856598, 0.032034166157245636, 0.026696132495999336, -0.014972415752708912, 0.04107698053121567, -0.019811121746897697, 0.011809885501861572, -0.04478925094008446, 0.03269573673605919, -0.023207347840070724, 0.040623754262924194, -0.006311015225946903, -0.0784711167216301, -0.041317813098430634, -0.029601117596030235, -0.1180681586265564, 0.018387364223599434, 0.028670618310570717, -0.07767433673143387, -0.03618478775024414, -0.022667568176984787, 0.028793444857001305, 0.010348302312195301, 0.04534048214554787, -0.025663195177912712, 0.009446936659514904, 0.06044846400618553, 0.015753543004393578, 0.02260144241154194, -0.00645337114110589, 0.008627965115010738, 0.01984119415283203, 0.03571728989481926, -0.009985119104385376, 0.02166847139596939, -0.01991635002195835, -0.028141366317868233, 0.0015587842790409923, 0.03531591594219208, 0.0259708184748888, -0.06653497368097305, -0.030860507860779762, -0.0468260683119297, -0.028487736359238625, 0.04800194129347801, -0.0027789678424596786, -0.0303245410323143, -0.0006150547997094691, -0.05790717899799347, 0.05591109022498131, -0.04091307893395424, -0.05329388752579689, -0.039761584252119064, 0.0007244809530675411, 0.017803136259317398, 0.008447786793112755, 0.04530690982937813, 0.021059894934296608, 0.01021176390349865, 0.0006088157533667982, 0.007807990536093712, 0.020710298791527748, 0.023334858939051628, -0.035073213279247284, -0.02648579701781273, -0.039194218814373016, 0.020403722301125526, 0.03294079750776291, -0.027380960062146187, -0.031166577711701393, -0.029920749366283417, 0.029191413894295692, -0.01965348795056343, 0.022977439686655998, -0.0040661669336259365, -0.03485419601202011, 0.011595873162150383, -0.007032895926386118, -0.029881952330470085, -0.08686375617980957, -0.03144916892051697, 0.007278530392795801, 0.019192541018128395, 0.06590191274881363, 0.006550691556185484, 0.029426448047161102, 0.03958816081285477, 0.017838720232248306, 0.03058730624616146, 0.05412006378173828, 0.049703918397426605, 0.00017028397996909916, -0.04121825471520424, -0.06461720913648605, 0.006449710577726364, -0.0033474185038357973, -0.04132392257452011, 0.00028214388294145465, 0.03294159844517708, 0.07061474770307541, 0.0009450188954360783, -0.0005837624194100499, -0.035004597157239914, 0.0037893294356763363, -0.008802991360425949, 0.025963615626096725, -0.02682095766067505, -0.08895525336265564, -0.08448898792266846, 0.0033585575874894857, 0.021453818306326866, 0.03109624795615673, 0.04323917254805565, 0.02199004963040352, 0.023224320262670517, 0.02530588209629059, 0.0057684751227498055, 0.024530800059437752, 0.014145985245704651, -0.009392082691192627, -0.04190658777952194, -0.014946619980037212, 0.01869036629796028, 0.010833694599568844, -0.007685696240514517, 0.009993420913815498, 0.04318908601999283, 0.049872446805238724, -0.07164759933948517, -0.041792597621679306, 0.008047258481383324, 0.022099614143371582, 0.0011708016972988844, -0.020204324275255203, -0.06071862950921059, -0.10659849643707275, -0.0909537598490715, -0.00015468988567590714, 0.007904947735369205, 0.005144548136740923, 0.036155808717012405, 0.0019311730284243822, 0.00935228168964386, 0.02517523802816868, 0.03377491608262062, 0.039418455213308334, 0.055231139063835144, -0.038523998111486435, -0.07598136365413666, -0.04670734703540802, -0.0064954133704304695, -0.01937801018357277, 0.041776154190301895, 0.0029739083256572485, 0.04014771431684494, 0.03299109265208244, -0.011172839440405369, -0.0076294997707009315, -0.013951071538031101, 0.031009452417492867, 0.023595238104462624, 0.014227360486984253, -0.030824659392237663, -0.05688269063830376, -0.09194707125425339, 0.043748658150434494, -0.004639594815671444, 0.007168089505285025, 0.020716754719614983, 0.02202961966395378, 0.015944547951221466, 0.015016826801002026, -0.007856551557779312, 0.010607968084514141, 0.013181214220821857, -0.0016880373004823923, -0.07583314925432205, 0.015560035593807697, -0.0020532747730612755, 0.025265365839004517, 0.015816079452633858, 0.02629934251308441, 0.04710261896252632, -0.010221773758530617, 0.030816882848739624, -0.02838299237191677, -0.029882824048399925, -0.04719112440943718, -0.03265318274497986, 0.008669405244290829, -0.003469879273325205, -0.02675746940076351, -0.000838468549773097, 0.028254760429263115, 0.03858686983585358, 0.0160513948649168, 0.0187411867082119, -0.03570270910859108, 0.005821523256599903, 0.00859127938747406, -0.0010128605645149946, 0.027479298412799835, 0.05083170533180237, 0.0014555980451405048, 0.022320125252008438, -0.014563511125743389, -0.015145735815167427, 0.0029307992663234472, -0.01805284433066845, 0.022986888885498047, 0.009049764834344387, 0.017180318012833595, -0.0331193171441555, -0.018707381561398506, -0.06807923316955566, -0.05624091252684593, -0.07223561406135559, 0.018512912094593048, -0.006991585250943899, 0.017272207885980606, 0.07792221754789352, 0.060803454369306564, -0.03119884803891182, -0.026477713137865067, -0.04438550025224686, -0.055487729609012604, -0.0591462142765522, -0.006811616010963917, -0.025009499862790108, -0.016215164214372635, -0.01894111931324005, 0.04109739884734154, 0.07959996908903122, 0.057569537311792374, 0.03520774841308594, 0.022623717784881592, -0.023116646334528923, -0.009557935409247875, -0.01576688326895237, -0.04909239336848259, 0.008615241385996342, 0.00866472627967596, 0.05145736038684845, 0.08262468874454498, 0.04105613753199577, 0.041194867342710495, 0.09217875450849533, 0.02616913989186287, 0.036308132112026215, 0.10531686246395111, 0.04609629884362221, -0.046958617866039276, -0.09646757692098618, -0.0871611088514328, -0.10627184808254242, -0.048317328095436096, -0.007716324180364609, 0.023898469284176826, 0.1161302998661995, 0.09173284471035004, 0.0706709623336792, 0.08257637917995453, 0.027015920728445053, 0.04314250126481056, 0.06450305134057999, 0.0939551591873169, 0.08621302992105484, -0.009907233528792858}, {0.005712998565286398, 0.04076843336224556, -0.006990694906562567, -0.008519353345036507, -0.0248851478099823, -0.06833452731370926, -0.026295647025108337, 0.02943698689341545, 0.01253543607890606, 0.008560635149478912, 0.03797628730535507, 0.1336493343114853, -0.008716377429664135, -0.1032315343618393, -0.10248692333698273, -0.11697668582201004, 0.08398430049419403, 0.12239935994148254, -0.0020631575025618076, 0.09911840409040451, 0.10952841490507126, 0.0606602318584919, 0.009895305149257183, -0.053429096937179565, 0.03853759914636612, -0.0003690645971801132, -0.04716994985938072, -0.06643307954072952, 0.033667005598545074, 0.04201291874051094, -0.02362127974629402, -0.05126810073852539, -0.10812484472990036, -0.10576636344194412, -0.0925661101937294, -0.07318317890167236, -0.0578562393784523, 0.02220050059258938, 0.014390962198376656, 0.032440971583127975, 0.007318020798265934, -0.018159139901399612, 0.011342386715114117, -0.011955894529819489, 0.04008638858795166, 0.08329150080680847, 0.06416986137628555, 0.055173490196466446, 0.017019297927618027, 0.007493943907320499, 0.02769079990684986, -0.007571481633931398, 0.013126309961080551, -0.020312773063778877, -0.034053973853588104, 0.0061547900550067425, 0.016062283888459206, 0.038056209683418274, 0.0057410625740885735, 0.047444943338632584, -0.032639920711517334, -0.05020853504538536, -0.05450062453746796, 0.017898250371217728, 0.04395292326807976, -0.02119336649775505, -0.02913459949195385, -0.01115018967539072, -0.04050275683403015, -0.06385532021522522, -0.05077916011214256, -0.016885792836546898, -0.020631413906812668, 0.01394653134047985, -0.021647190675139427, 0.039044372737407684, 0.07132300734519958, 0.04147743806242943, 0.03290914371609688, 0.018239183351397514, 0.05904662236571312, 0.026414919644594193, -0.03171928972005844, -0.05356426537036896, -0.012459248304367065, 0.02874329686164856, 0.015973875299096107, 0.04238900914788246, 0.010745596140623093, 0.005268532782793045, 0.04607440158724785, -0.014960665255784988, -0.0036482790019363165, 0.020349016413092613, 0.013267124071717262, 0.027631329372525215, -0.0175772774964571, -0.024898964911699295, -0.03151706978678703, 0.006943345535546541, -0.02651023119688034, -0.023563329130411148, -0.0046193902380764484, 0.015540546737611294, 0.012644227594137192, 0.03043031506240368, 0.10083521902561188, 0.07618634402751923, 0.033653631806373596, 0.043851424008607864, -0.050886161625385284, -0.06025690585374832, 0.02363506332039833, -0.01595960557460785, 0.004634300246834755, 0.05950142815709114, 0.0009348748717457056, 0.06890154629945755, -0.01881101168692112, -0.06724391877651215, -0.007598808500915766, 0.0004426950472407043, 0.016341980546712875, 0.0007043822552077472, 0.004761447664350271, -0.011959576047956944, -0.008520545437932014, -0.0360025055706501, -0.005911281798034906, -0.011982271447777748, -0.015052744187414646, -0.021637525409460068, -0.022980855777859688, 0.055320512503385544, 0.09401167184114456, 0.08350298553705215, 0.060772284865379333, 0.04614780843257904, -0.02608400397002697, -0.03275720402598381, 0.003879583440721035, 0.012069746851921082, 0.01218077726662159, 0.06608974188566208, 0.08187375217676163, 0.04995688050985336, -0.015495614148676395, -0.03357645869255066, 0.02279444970190525, -0.0004915487952530384, 0.016838379204273224, 0.003670866135507822, -0.040474675595760345, 0.035299353301525116, -0.029708603397011757, -0.03155578300356865, -0.04851078987121582, -0.014149247668683529, -0.024127598851919174, 0.009116705507040024, -0.014066432602703571, -0.0464363619685173, 0.03192577138543129, 0.0540132150053978, 0.06567442417144775, -0.03501197323203087, -0.03719162940979004, -0.06820843368768692, -0.0014416063204407692, 0.029430756345391273, 0.05713924765586853, 0.04642201215028763, 0.11484900861978531, 0.05706183239817619, 0.01110842078924179, -0.038245245814323425, 0.0012837052345275879, 0.03216910734772682, 0.019119011238217354, -0.026041792705655098, -0.03934893012046814, -0.00402857456356287, 0.006402323488146067, -0.012607038021087646, 0.010076092556118965, 0.028426973149180412, 0.0657036229968071, 0.045893341302871704, -0.04494819790124893, -0.05662427470088005, -0.02762896940112114, 0.07210850715637207, 0.012195191346108913, -0.030771475285291672, -0.07394211739301682, -0.10915543138980865, 0.0005504178698174655, 0.013960703276097775, 0.023449528962373734, 0.10349487513303757, 0.08901830017566681, 0.044262249022722244, 0.06505931913852692, -0.02433006651699543, 0.015248860232532024, -0.035909321159124374, -0.032476842403411865, 0.0024046464823186398, 0.0064598871394991875, -0.011759198270738125, -0.04454094544053078, -0.051037199795246124, -0.005729998461902142, 0.022179700434207916, 0.0857192650437355, 0.05814746022224426, -0.023926734924316406, -0.07145839184522629, 0.016456348821520805, -0.0026196190156042576, -0.010851758532226086, -0.0567152313888073, -0.07638902962207794, -0.0922679752111435, -0.01689562015235424, -0.026616118848323822, 0.08273317664861679, 0.07714913785457611, 0.08956550806760788, 0.05582328513264656, 0.040913451462984085, 0.04278717562556267, 0.06256616860628128, 0.015301068313419819, -0.04466849938035011, 0.002884755376726389, -0.0023569457698613405, -0.01111519429832697, -0.0103171207010746, -0.009592550806701183, -0.013314742594957352, 0.05399704724550247, 0.04133574664592743, 0.049668651074171066, -0.013946394436061382, -0.0016746115870773792, -8.835976768750697e-05, 0.020698226988315582, 0.0004924575332552195, -0.06081313267350197, -0.06495119631290436, -0.06508257985115051, -0.08818455040454865, -0.027801213786005974, -0.002074669813737273, 0.024911783635616302, 0.12555578351020813, 0.07308533042669296, 0.07394801080226898, -0.011531563475728035, 0.031357090920209885, -0.000189703336218372, -0.058205194771289825, -0.018223116174340248, -0.0007957812049426138, 0.029708199203014374, -0.020010359585285187, -0.016015933826565742, 0.043477822095155716, 0.031220078468322754, 0.009842215105891228, -0.02589370496571064, -0.0757707729935646, -0.046808261424303055, -0.003976893145591021, 0.005594946444034576, 0.028483236208558083, -0.00039563921745866537, -0.021533820778131485, -0.037620216608047485, -0.06673382222652435, -0.07407008856534958, -0.03740410506725311, -0.039843373000621796, 0.041983071714639664, 0.051186494529247284, 0.01923844777047634, 0.013158917427062988, -0.029025863856077194, 0.02124066837131977, 0.003854763461276889, 0.05119546502828598, 0.03644326701760292, -0.02732345275580883, -0.01389986090362072, 0.014955501072108746, 0.03686784952878952, 0.02787875384092331, 0.016027003526687622, 0.0037150527350604534, -0.039557479321956635, -0.005376411136239767, 0.025794794782996178, 0.04826340824365616, 0.010827428661286831, -0.005460627842694521, -0.012066314928233624, -0.11150597780942917, -0.0982290580868721, -0.07424022257328033, -0.03436202183365822, -0.07335089147090912, -0.05039169639348984, -0.00677522225305438, -0.025414055213332176, -0.06586063653230667, -0.023135600611567497, 2.8760328859789297e-05, -0.005257987882941961, 0.04490521177649498, 0.05447597801685333, -0.027584973722696304, 0.019672108814120293, -0.0014601042494177818, 0.0189890805631876, 0.012803236953914165, -0.009131714701652527, -0.024234717711806297, -0.04829841107130051, -0.03623779118061066, 0.010659327730536461, 0.009084616787731647, -0.009830618277192116, 0.03468084707856178, 0.009398071095347404, -0.06111133471131325, -0.06513287872076035, -0.0645749568939209, -0.07268033176660538, -0.05771232396364212, -0.048790160566568375, -0.03452571481466293, -0.0389162115752697, -0.062202855944633484, 0.0028131387662142515, 0.05767180398106575, 0.047710392624139786, 0.0077630141749978065, 0.002822732785716653, 0.021781735122203827, 0.04069855064153671, 0.015586309134960175, 0.027831697836518288, 0.013264062814414501, -0.021483249962329865, -0.014234410598874092, -0.053480684757232666, 0.002258679596707225, 0.015220407396554947, 0.033152416348457336, -0.025810355320572853, 0.00710963923484087, 0.04928978160023689, 0.03146149590611458, -0.09636376053094864, -0.02100546658039093, 0.0019800367299467325, -0.029786670580506325, -0.019731814041733742, -0.06363331526517868, -0.0007354315603151917, -0.004962799604982138, -0.001907323719933629, 0.05643477290868759, 0.01697666384279728, 0.006006598938256502, -0.003984988667070866, 0.013496332801878452, 0.01249073538929224, -0.001600082847289741, -0.012457769364118576, 0.017663761973381042, -0.005187449511140585, -0.0023753431160002947, -0.016621634364128113, -0.013441353105008602, -0.0030450988560914993, 0.018571952357888222, -0.0009624776430428028, 0.029879186302423477, 0.05928933992981911, -0.006540375296026468, -0.002589185955002904, 0.032827433198690414, 0.035627853125333786, -0.02245214767754078, -0.006001280155032873, -0.06680124253034592, -0.03507833927869797, -0.03223305940628052, 0.00419557886198163, 0.03831121698021889, 0.019649816676974297, 0.030262157320976257, 0.02177499793469906, 0.026912102475762367, 0.018619878217577934, 0.026071161031723022, 0.014067474752664566, -0.02276226319372654, -0.02842698246240616, -0.02842358499765396, -0.0760653018951416, -0.01978396438062191, -0.04956590011715889, -0.01838049292564392, 0.047849297523498535, 0.05982884019613266, 0.03177481144666672, -0.021659325808286667, 0.04422500357031822, 0.04814673587679863, 0.06468935310840607, 0.022586317732930183, -0.010327806696295738, -0.06741243600845337, -0.03283711522817612, -0.06926430761814117, 0.004579412285238504, 0.012414123862981796, 0.0054081096313893795, 0.004303259309381247, 0.029871288686990738, 0.016692664474248886, 0.0043602208606898785, -0.004748516716063023, 0.01493653655052185, 0.034346383064985275, -0.027989845722913742, -0.057906195521354675, -0.06763051450252533, -0.0417967289686203, -0.027884718030691147, 0.006119431462138891, 0.025925112888216972, 0.06873560696840286, 0.07050777971744537, -0.05657273158431053, 0.089177705347538, 0.05266622081398964, 0.019819529727101326, -0.022150158882141113, 0.011870319955050945, -0.055289942771196365, -0.056879401206970215, -0.05343625694513321, -0.03379763290286064, 0.007654834538698196, 0.010621105320751667, 0.016755566000938416, 0.001709593110717833, -0.012957340106368065, -0.03362026810646057, 0.020688820630311966, 0.022497136145830154, -0.004787462763488293, -0.006636859383434057, -0.032316822558641434, -0.025584235787391663, -0.05866243690252304, -0.024962879717350006, -0.0021968611981719732, 0.018905818462371826, -0.012039893306791782, 0.026307975873351097, -0.03355821594595909, 0.07719453424215317, 0.06129121035337448, 0.013502892106771469, 0.006027174647897482, 8.489241008646786e-05, -0.020472383126616478, -0.012340117245912552, -0.07525634765625, 0.020130695775151253, -0.01998097263276577, 0.05859297513961792, 0.038291387259960175, 0.010969484224915504, 0.010870941914618015, -0.005830007139593363, -0.023519985377788544, -0.00950788613408804, 0.015921318903565407, -0.023441310971975327, -0.021848706528544426, -0.05415675416588783, -0.03857985511422157, 0.008958128280937672, -0.04259053245186806, -0.06064380705356598, -0.004322831053286791, 0.031439028680324554, 0.029370594769716263, 0.07272521406412125, -0.012499777600169182, -0.004818774294108152, 0.02010645903646946, 0.011178999207913876, -0.02434714138507843, -0.0010263380827382207, -0.05786192789673805, 0.007745977956801653, 0.020614096894860268, -0.01852441392838955, 0.021889198571443558, 0.004730023443698883, 0.005548287648707628, -0.036917805671691895, -0.002100315410643816, 0.025333620607852936, 0.0012511821696534753, -0.024510085582733154, -0.011617994867265224, -0.03486868366599083, -0.016312813386321068, 0.009125210344791412, -0.04089341685175896, -0.05305818095803261, -0.03804734721779823, 0.031418025493621826, 0.07610549032688141, 0.04984643682837486, 0.013187997043132782, 0.022704754024744034, -0.04801768809556961, -0.019995706155896187, -0.060977354645729065, -0.031192781403660774, -0.012154868803918362, -0.0031730870250612497, -0.03995153680443764, -0.011970167979598045, -0.010855449363589287, -0.0035018431954085827, -0.03036380186676979, -0.03314252570271492, -0.038147516548633575, -0.02512386627495289, 0.047648247331380844, 0.002934805816039443, 0.021676329895853996, 0.010634582489728928, -0.024901481345295906, -0.025789987295866013, -0.008957648649811745, -0.017036691308021545, -0.06403219699859619, 0.023321760818362236, 0.09138903021812439, 0.023203741759061813, -0.021236002445220947, 0.005769548937678337, 0.002754374872893095, -0.02500775270164013, -0.00011550993076525629, -0.020331384614109993, -0.04950540140271187, 0.03415795415639877, 0.005171086639165878, -0.03078220970928669, 0.014202164486050606, -0.02649727836251259, -0.030822422355413437, -0.03399030119180679, 0.02859901823103428, 0.018955467268824577, 0.058816272765398026, 0.03031732141971588, 0.06579118967056274, -0.039546020328998566, -0.04854593425989151, -0.011080343276262283, -0.033429477363824844, -0.059108808636665344, -0.05034734308719635, -0.020388446748256683, 0.09756464511156082, -0.0027270016726106405, -0.02710636705160141, 0.0024090316146612167, 0.024253031238913536, -0.010158509016036987, -0.0062823183834552765, -0.027445582672953606, 0.008601299487054348, 0.01763742044568062, -0.019837459549307823, -0.02091960236430168, -0.04743311554193497, -0.021168071776628494, -0.01943126507103443, -0.06800195574760437, 0.005714379716664553, 0.03400789201259613, 0.0327276773750782, 0.09215287864208221, 0.04340185597538948, -0.018590688705444336, -0.03501802682876587, -0.05181314796209335, -0.05841399356722832, -0.07046247273683548, -0.03125381842255592, -0.028638966381549835, 0.03488551825284958, -0.05329558625817299, -0.059080157428979874, 0.012771748937666416, -0.05538038909435272, -0.05362396314740181, -0.020579934120178223, -0.017959393560886383, 0.005063064396381378, 0.02722698450088501, 0.033383116126060486, -0.018081163987517357, -0.021803997457027435, 0.011125191114842892, -0.005501212552189827, -0.025408867746591568, 0.01800624094903469, -0.0006226847181096673, 0.05539276450872421, 0.010661541484296322, 0.05727982148528099, -0.01101567130535841, -0.043702561408281326, -0.01801418885588646, -0.03311837092041969, -0.0037949965335428715, -0.029347309842705727, -0.05042223259806633, 0.0032880830112844706, -0.014200656674802303, -0.062104400247335434, -0.016904260963201523, -0.07190415263175964, -0.09131120890378952, -0.08493830263614655, -0.04019768536090851, -0.023874426260590553, 0.05957159027457237, -0.035484857857227325, 0.025524025782942772, -0.00642450200393796, -0.03452416509389877, -0.041465725749731064, -0.05574420467019081, -0.0007899531628936529, -0.05340183153748512, -0.030197804793715477, 0.021898070350289345, -0.03130529820919037, -0.010785157792270184, -0.07372362166643143, -0.09660283476114273, -0.0835031270980835, -0.11358469724655151, -0.04499875009059906, -0.0281086266040802, -0.022435085847973824, 0.009497558698058128, -0.03612937778234482, -0.042282357811927795, -0.08375720679759979, -0.11960557848215103, -0.021770481020212173, 0.00818298477679491, 0.005536552518606186, 0.05263321474194527, 0.004613108932971954, -0.011921633966267109, 0.012415730394423008, -0.004761676304042339, -0.014773976057767868, -0.015686964616179466, -0.008606811054050922, -0.029362332075834274, -0.03564781695604324, -0.033250026404857635, -0.022212117910385132, 0.008867273107171059, -0.023376626893877983, -0.06855303049087524, -0.10524426400661469, -0.11891540884971619, -0.06435758620500565, -0.037372224032878876, -0.023517955094575882, -0.003814785974100232, -0.012991984374821186, 6.996582669671625e-05, -0.07368960976600647, -0.09837329387664795, -0.051937930285930634, -0.013098713010549545, -0.03574590012431145, 0.011116227135062218, 0.0005377466441132128, -0.017714127898216248, 0.011533737182617188, -0.026043202728033066, -0.006944072432816029, -0.02564741112291813, -0.020047251135110855, -0.007572799921035767, -0.02654416300356388, -0.020674221217632294, 0.0024335274938493967, 0.03795124590396881, -0.03172699734568596, -0.021360205486416817, -0.08229532837867737, -0.07909920066595078, -0.08767998218536377, -0.10329969227313995, -0.026270728558301926, 0.01000208780169487, -0.07481466233730316, -0.09378509968519211, -0.10217499732971191, -0.10855820775032043, 0.01161838136613369, 0.020160721614956856, 0.09012549370527267, 0.1011790856719017, 0.006632991600781679, -0.012227218598127365, 0.0030028491746634245, -0.02342819795012474, 0.03602942079305649, 0.020164616405963898, 0.022217927500605583, -0.034812044352293015, -0.0033035425003618, 0.004995542578399181, 0.013834208250045776, 0.07877689599990845, -0.022361144423484802, -0.005378597415983677, -0.06849660724401474, -0.17081883549690247, -0.08340265601873398, -0.054445743560791016, 0.008934260345995426, 0.0009857119293883443, -0.05158058926463127, -0.05982980877161026, -0.09992586076259613, -0.11759612709283829, -0.03656323626637459, 0.009644958190619946, 0.12395622581243515, 0.15947982668876648, 0.08748234808444977, 0.029685186222195625, -0.015000676736235619, 0.0004830751568078995, -0.03820763900876045, -0.06917186081409454, 0.0481431819498539, -0.0005084988661110401, 0.029249168932437897, 0.04260750487446785, 0.12264430522918701, 0.1286870688199997, 0.00977458618581295, 0.00901801511645317, -0.08762263506650925, -0.14899533987045288, -0.06718137115240097, -0.03525104001164436, -0.040796443819999695}, {0.013198153115808964, 0.02031962387263775, -0.02127816155552864, -0.013551292009651661, 0.028371062129735947, 0.027125824242830276, 0.05600660294294357, -0.0405578687787056, -0.06635928899049759, -0.15047356486320496, -0.23253676295280457, -0.10164861381053925, 0.020593294873833656, 0.1760246902704239, 0.21407534182071686, 0.13077475130558014, -0.03337648883461952, -0.20772357285022736, -0.18733617663383484, -0.12967853248119354, -0.10824623703956604, 0.014656834304332733, 0.03226937726140022, 0.07818534225225449, 0.10188454389572144, 0.06242699921131134, -0.011745943687856197, 0.01563878543674946, -0.06620511412620544, 0.0002450519532430917, -0.012577518820762634, 0.017208488658070564, 0.08424565196037292, 0.10927818715572357, 0.03273869305849075, -0.10187781602144241, -0.11234092712402344, -0.11254274845123291, -0.01713734306395054, 0.02630518563091755, -0.0031884873751550913, 0.034547459334135056, -0.02701297402381897, 0.015595817007124424, -0.007690878119319677, -0.02706518955528736, -0.10728499293327332, -0.15686921775341034, -0.10660064965486526, -0.01020159013569355, 0.11642984300851822, 0.14062879979610443, 0.10633832961320877, 0.0963687002658844, 0.034400127828121185, -0.008247748017311096, 0.015637915581464767, 0.04779418185353279, 0.019163953140378, 0.0068849376402795315, 0.017870282754302025, -0.0030181233305484056, -0.06660714745521545, -0.08723486214876175, -0.02532760053873062, 0.0009030998917296529, -0.04138476029038429, -0.01756797358393669, -0.01431894488632679, 0.03096468187868595, -0.030936075374484062, 0.007310292683541775, 0.001500629005022347, -0.0350925549864769, 0.054065242409706116, -0.02617110311985016, -0.08076675236225128, -0.10748948156833649, 0.019039306789636612, 0.05463172867894173, 0.06547190248966217, 0.13600562512874603, 0.05418350547552109, -0.030839532613754272, 0.08353624492883682, 0.007776561658829451, 0.023338235914707184, 0.045783866196870804, 0.004825373645871878, -0.030028749257326126, -0.0815112292766571, -0.036225996911525726, -0.022342346608638763, -0.05425648391246796, -0.05017714947462082, -0.006730859633535147, 0.008189485408365726, 0.013843229040503502, 0.0145855862647295, 0.021828901022672653, -0.01613413728773594, -0.05646977946162224, -0.05692700296640396, 0.0298629030585289, -0.02870349772274494, -0.07434255629777908, -0.011856431141495705, 0.030631639063358307, 0.06626281142234802, 0.11684293299913406, 0.07545683532953262, 0.06217922270298004, 0.10356281697750092, 0.04234173893928528, 0.05655970051884651, 0.0027051910292357206, -0.04804079979658127, -0.01084911823272705, -0.02696380205452442, -0.06066647917032242, -0.007245991379022598, -0.03691105544567108, -0.03123266063630581, 0.021904539316892624, 0.017598537728190422, 0.0012157860910519958, -0.00021642005594912916, 0.020266713574528694, 0.06311864405870438, -0.03140838444232941, -0.009589402936398983, -0.027230195701122284, -0.02023482695221901, -0.022197067737579346, -0.0625891238451004, -0.02936880849301815, 0.02978295087814331, 0.09646723419427872, 0.08166363835334778, 0.027648616582155228, 0.08689136058092117, 0.04853573441505432, 0.009667015634477139, -0.03852185234427452, -0.047983504831790924, -0.04097727686166763, -0.07736019045114517, -0.027198197320103645, 0.020075399428606033, -0.014969700016081333, -0.004506135359406471, 0.011413331143558025, 0.05242644250392914, 0.034613557159900665, -0.019847556948661804, -0.05097188800573349, 0.013766313903033733, -0.05327029153704643, -0.0520741306245327, -0.03799423575401306, -0.04514915123581886, -0.05246058478951454, -0.02284294180572033, -0.019069179892539978, 0.012387639842927456, 0.05198926851153374, 0.07643112540245056, 0.06718526780605316, 0.056192170828580856, 0.046192292124032974, -0.004275043494999409, 0.025853581726551056, -0.030232718214392662, -0.0336323156952858, -0.057189229875802994, -0.04919082298874855, 0.030155278742313385, 0.04474324360489845, -0.016634613275527954, 0.0742514431476593, 0.04378384351730347, -0.005353066138923168, 0.01588134467601776, -0.03278983384370804, 0.010348771698772907, 0.0036629915703088045, -0.04622701182961464, -0.029039669781923294, -0.027443774044513702, -0.015659000724554062, -0.042177870869636536, 0.001638474757783115, 0.02005104161798954, 0.029056180268526077, 0.04362538456916809, 0.047663379460573196, 0.004614503122866154, -0.001180787105113268, -0.02800634503364563, 0.04587816447019577, 0.027684928849339485, 0.024984512478113174, -0.031182095408439636, -0.01824028044939041, 0.007761832792311907, 0.012941572815179825, 0.028513828292489052, 0.0817132368683815, 0.034163158386945724, 0.02126573957502842, -0.026246478781104088, -0.023097189143300056, -0.02658557891845703, -0.02531505562365055, -0.02219824120402336, 0.0056606498546898365, -0.030466003343462944, -0.06384728103876114, -0.03729235380887985, 0.004556785337626934, -0.009410864673554897, 0.030888814479112625, 0.001250309171155095, 0.05300408601760864, 0.09562984853982925, -0.018861932680010796, -0.023810749873518944, 0.010713967494666576, 0.01180659607052803, 0.02296171523630619, -0.03665576130151749, -0.023330900818109512, -0.012514970265328884, 0.04328979179263115, 0.035295482724905014, 0.07512839883565903, 0.024111522361636162, -0.004639888647943735, -0.015315636061131954, -0.06896958500146866, -0.027895750477910042, -0.05654057115316391, -0.01646692119538784, -0.02478083036839962, -0.08030559867620468, -0.014119161292910576, -0.009348719380795956, -0.011212947778403759, -0.01076804380863905, -0.02337542548775673, 0.047055236995220184, 0.06686196476221085, 0.1143287941813469, 0.07528350502252579, 0.052196092903614044, -0.001528012566268444, 0.011180690489709377, 0.04635438695549965, -0.03835837170481682, -0.009787915274500847, -0.020715409889817238, 0.022686729207634926, 0.0251460038125515, 0.03385085240006447, -0.019516322761774063, -0.03369137644767761, 0.011955060064792633, -0.06346021592617035, -0.10187803208827972, -0.0934661403298378, -0.011149226687848568, 0.02522139437496662, -0.022194962948560715, -0.043539173901081085, -0.02822246216237545, 0.01015848945826292, -0.013347321189939976, 0.00844461191445589, 0.06183670088648796, 0.08254195749759674, 0.10119058936834335, 0.06677602231502533, 0.07018891721963882, 0.039779242128133774, 0.018297025933861732, -0.004311483819037676, -0.005425490904599428, 0.03423061966896057, -0.004056745208799839, 0.05709931626915932, 0.04893193021416664, 0.05558164417743683, -0.009308920241892338, -0.03926561772823334, -0.02787315659224987, -0.11837191879749298, -0.07716739922761917, -0.05492652580142021, 0.022480743005871773, -0.007441677153110504, 0.0003438183921389282, -0.019221371039748192, -0.007939311675727367, -0.010666819289326668, 0.014633928425610065, 0.014530559070408344, 0.059826191514730453, 0.1294543594121933, 0.12318547070026398, 0.05362234637141228, 0.06920024007558823, 0.02766762487590313, 0.015156286768615246, 0.03398656100034714, 0.03828144446015358, 0.07198994606733322, 0.027607932686805725, 0.10287519544363022, 0.011517798528075218, 0.03272483870387077, -0.028732892125844955, -0.06837839633226395, -0.030584875494241714, -0.06607258319854736, -0.035613901913166046, -0.017688710242509842, 0.0236087404191494, 0.019600611180067062, -0.03404565155506134, -0.04682645946741104, -0.009176725521683693, 0.03695880249142647, 0.020055348053574562, 0.01535468827933073, 0.07298140227794647, 0.10753388702869415, 0.13320395350456238, 0.11156343668699265, 0.03421763703227043, 0.032463666051626205, 0.021109584718942642, 0.021222850307822227, 0.00928561482578516, 0.02863200567662716, 0.03384385257959366, 0.059885188937187195, 0.011250320822000504, 0.00999419391155243, -0.005992380902171135, -0.01364060677587986, -0.004028299357742071, -0.059927746653556824, -0.026307230815291405, -0.029702624306082726, 0.04492713138461113, 0.010614398866891861, -0.024418571963906288, -0.03337303549051285, -0.01183523889631033, -0.024701878428459167, 0.009928894229233265, 0.018126247450709343, 0.02795426733791828, 0.11269649118185043, 0.14382869005203247, 0.07034988701343536, 0.021640699356794357, 0.03706294298171997, 0.07013066112995148, 0.02294859103858471, 0.04227294772863388, 0.054722338914871216, 0.04236006736755371, 0.05751236155629158, 0.018457192927598953, 0.01367837656289339, -0.005346369463950396, -0.031523704528808594, -0.014947976917028427, -0.022579533979296684, -0.04431314393877983, -0.023543251678347588, -0.009144976735115051, -0.0005211933748796582, -0.0011802052613347769, -0.009006381966173649, -0.04681326821446419, -0.0076698316261172295, 0.020946724340319633, 0.03639931231737137, -0.022360755130648613, 0.028581418097019196, 0.06697205454111099, 0.05783669278025627, 0.006581730674952269, -0.013314292766153812, -0.007090867962688208, 0.05685761198401451, 0.044032804667949677, 0.07476736605167389, 0.035259686410427094, 0.07752672582864761, 0.020397447049617767, 0.010473106987774372, -0.03202579915523529, -0.021505890414118767, -0.010584044270217419, -0.021217968314886093, -0.00246336217969656, -0.02817336656153202, 0.024500267580151558, 0.013909042812883854, 0.05137205496430397, -0.02744126506149769, -0.016209574416279793, -0.018935685977339745, 0.0009096564608626068, -0.021917171776294708, 0.01184631884098053, -0.01849525421857834, 0.01877186819911003, 0.011849637143313885, -0.009037313982844353, 0.011085327714681625, 0.024804888293147087, 0.04471302032470703, 0.05534578487277031, 0.073092520236969, 0.05036357417702675, 0.022083552554249763, 0.018021393567323685, -0.005378141067922115, 0.003462442196905613, 0.0036980626173317432, 0.02361910603940487, -0.04033106938004494, -0.02166631817817688, -0.035226669162511826, 0.03252195194363594, 0.04058763012290001, 0.019143126904964447, 0.03319681063294411, 0.007847248576581478, 0.027511583641171455, 0.003922598902136087, 0.0018314176704734564, 0.012117451056838036, 0.012444623745977879, 0.011777373030781746, 0.010575912892818451, -0.025415776297450066, -0.020793816074728966, -0.005242521874606609, 0.05551786720752716, 0.07134062051773071, 0.09332147985696793, 0.07135111838579178, 0.033325403928756714, -0.022231897339224815, -0.03320067375898361, -0.03608906269073486, -0.026080649346113205, 0.021021457388997078, -0.06367184966802597, -0.04940387234091759, 0.004139866214245558, -0.0016878558089956641, 0.0534110926091671, 0.006902331952005625, 0.028243491426110268, -0.005451293662190437, 0.00201426912099123, 0.018890380859375, 0.006583624519407749, -0.020508509129285812, -0.010691821575164795, 0.015094374306499958, 0.013822945766150951, -0.026559380814433098, -0.0467178039252758, -0.025104006752371788, 0.004930610302835703, 0.041545603424310684, 0.05532465875148773, 0.056612562388181686, 0.06690060347318649, -0.013278107158839703, -0.02657655067741871, -0.02715703845024109, 0.021572353318333626, 0.03275304287672043, -0.004689475521445274, -0.06465108692646027, -0.027110332623124123, 0.0001876343012554571, 0.08805648237466812, 0.02579711563885212, 0.01194497849792242, -0.020008577033877373, 0.024796703830361366, 0.054380252957344055, 0.07726477831602097, 0.008929072879254818, 0.0336732342839241, 0.051706086844205856, -0.011924106627702713, -0.026602977886795998, -0.05135480687022209, -0.06188926100730896, 0.015878181904554367, 0.026589592918753624, 0.01891339384019375, 0.03985771909356117, 0.049980033189058304, -0.034388668835163116, -0.011596743948757648, 0.030966753140091896, 0.03465169668197632, 0.04948984831571579, -0.04119075462222099, -0.00815756618976593, -0.013558185659348965, 0.017228037118911743, 0.08093762397766113, 0.010493732988834381, 0.029484575614333153, -0.0016331530641764402, -0.014393031597137451, 0.014977637678384781, 0.04920344799757004, -0.005308524705469608, -0.027003219351172447, 0.0431852862238884, -0.03777889534831047, -0.03152592107653618, -0.056622568517923355, -0.038978029042482376, 0.018894251435995102, 0.036343447864055634, -0.0037400464061647654, 0.0603395514190197, -0.034585513174533844, -0.03182070702314377, -0.012956514954566956, 0.018723273649811745, -0.010849455371499062, 0.05552278086543083, 0.008823134005069733, 0.0049449079670012, 0.009888461790978909, 0.02711971290409565, 0.03827750310301781, 0.0018889425555244088, -0.00012902080197818577, -0.021459480747580528, -0.014094406738877296, -0.026344140991568565, -0.004560923669487238, -0.03641156107187271, 0.0055741071701049805, 0.018537601456046104, -0.011252602562308311, -0.0025132368318736553, 0.017118234187364578, 0.020613841712474823, 0.007868620567023754, 0.009063403122127056, 0.04881621152162552, 0.03342694789171219, 0.013530123978853226, -0.05082862824201584, -0.05038051679730415, -0.021058041602373123, -0.00032215999090112746, 0.046980153769254684, 0.01609671488404274, 0.014181669801473618, 0.009729248471558094, 0.02681008167564869, 0.030352560803294182, -0.008582636713981628, 0.017682071775197983, 0.031701501458883286, 0.017894331365823746, -0.007125450298190117, -0.023660270497202873, -0.01195483934134245, 0.01082409918308258, 0.004083455540239811, -0.01265905424952507, 0.006832091603428125, -0.028575114905834198, 