#include <math.h>
#include <stdint.h>
#include <limits>
#include <algorithm>

namespace FAST_INFERENCE {

static constexpr double layer_2_weight[3][3][1][32] = {{{{-0.29283809661865234, 0.11065665632486343, -0.2183089405298233, -0.002641235012561083, -0.024179542437195778, 0.2121008336544037, -0.2033715397119522, -0.33562764525413513, -0.10089054703712463, -0.15205150842666626, -0.07783350348472595, -0.26308825612068176, 0.12957534193992615, 0.2516064941883087, 0.22234971821308136, 0.31286969780921936, -0.12802228331565857, -0.07359057664871216, -0.08661065250635147, 0.04410499706864357, 0.03287935629487038, 0.22875122725963593, -0.0012699312064796686, -0.2176106721162796, 0.027270596474409103, 0.2477216273546219, -0.20676575601100922, 0.15481823682785034, 0.08546002954244614, 0.1520545333623886, -0.40890955924987793, 0.2670862674713135}}, {{0.19204917550086975, 0.1712140589952469, 0.18795445561408997, 0.16475610435009003, -0.18631283938884735, 0.012583576142787933, 0.04795828089118004, 0.24755781888961792, 0.29449406266212463, -0.20078812539577484, -0.16285058856010437, -0.16784009337425232, -0.00874980166554451, -0.13502249121665955, 0.36400094628334045, 0.2237791121006012, -0.19880561530590057, 0.24653476476669312, -0.1902998834848404, 0.2988644242286682, -0.31508323550224304, 0.2809391915798187, 0.25605088472366333, 0.2228984534740448, -0.2248118668794632, 0.14564885199069977, 0.12219087034463882, -0.255336195230484, -0.016193030402064323, -0.15606054663658142, -0.28785640001296997, -0.1004798486828804}}, {{0.21784082055091858, -0.3243769407272339, -0.039217494428157806, -0.00013618858065456152, 0.04894071817398071, 0.08781564235687256, -0.15929774940013885, 0.19966834783554077, -0.22068946063518524, -0.17348991334438324, 0.29292115569114685, 0.007097406312823296, 0.2542705535888672, 0.11255235224962234, -0.04040136933326721, -0.2155899852514267, 0.17735446989536285, 0.0346854105591774, 0.025378169491887093, -0.3467884063720703, 0.007027965039014816, 0.07093412429094315, -0.21082285046577454, 0.0874161496758461, 0.23958496749401093, 0.029261736199259758, 0.0051177991554141045, -0.2603871822357178, -0.32362616062164307, -0.14685717225074768, 0.19581595063209534, -0.23622740805149078}}}, {{{0.0723218321800232, 0.2330809086561203, 0.0020083647686988115, -0.26344063878059387, 0.2958597242832184, -0.29219284653663635, -0.22265338897705078, 0.009863062761723995, 0.1801416277885437, -0.04525480791926384, 0.12056288123130798, 0.01818617433309555, 0.34915396571159363, 0.1397266536951065, -0.058368247002363205, 0.1438073366880417, -0.13169725239276886, 0.21211406588554382, -0.2141249030828476, -0.10193896293640137, -0.25722017884254456, 0.32673609256744385, 0.07451485842466354, 0.1834729015827179, 0.34658825397491455, 0.09911997616291046, 0.19637207686901093, -0.15790607035160065, -0.18390293419361115, 0.07618694752454758, 0.0845469981431961, 0.2773454189300537}}, {{-0.27770137786865234, -0.27196452021598816, -0.049971479922533035, 0.08731719851493835, -0.2282586395740509, -0.3379015624523163, -0.17174391448497772, -0.20758067071437836, -0.12190256267786026, 0.0765654668211937, 0.11489111930131912, -0.3278442919254303, -0.028792820870876312, -0.34832432866096497, -0.008094440214335918, 0.14322221279144287, -0.24428735673427582, -0.03171383962035179, -0.20079849660396576, 0.23035967350006104, -0.07936342060565948, -0.08196087181568146, 0.22727622091770172, -0.09239155054092407, -0.035773783922195435, -0.043653544038534164, -0.2651764750480652, -0.3965688943862915, -0.31574511528015137, 0.07963494956493378, 0.25550997257232666, 0.09202554076910019}}, {{-0.35112717747688293, 0.1561836451292038, -0.08639416098594666, -0.13574568927288055, -0.03890342265367508, -0.22147412598133087, 0.054249558597803116, -0.14375251531600952, -0.030067460611462593, -0.2995721697807312, 0.24286070466041565, 0.25251010060310364, 0.2772139608860016, 0.017314022406935692, 0.3153267800807953, -0.10121414065361023, 0.26076582074165344, -0.27958860993385315, -0.14170365035533905, -0.2646022439002991, -0.20149336755275726, 0.03818114101886749, 0.006186113227158785, 0.05699119344353676, -0.31381359696388245, -0.008255216293036938, -0.1489783376455307, -0.11520848423242569, -0.33186429738998413, -0.13494040071964264, -0.2889990508556366, -0.2834649384021759}}}, {{{0.2811432480812073, -0.19541838765144348, -0.1764998733997345, 0.25521624088287354, 0.18977683782577515, -0.1580996960401535, 0.2243124395608902, -0.21664583683013916, -0.2590492367744446, 0.3233284056186676, 0.16359639167785645, -0.08334701508283615, 0.2479938268661499, -0.021266089752316475, -0.24255546927452087, 0.3549296259880066, 0.24889308214187622, -0.00902589038014412, -0.1252882480621338, 0.18363629281520844, 0.3033033609390259, 0.05070546641945839, 0.09496660530567169, 0.0725703090429306, -0.2714496850967407, -0.24108590185642242, -0.1638980358839035, -0.1572171002626419, -0.15851446986198425, 0.1887744963169098, 0.3170055150985718, 0.03799565136432648}}, {{-0.11943984776735306, -0.06310512870550156, 0.14649689197540283, -0.1751336306333542, -0.08936505019664764, 0.28020361065864563, -0.34617185592651367, -0.047058794647455215, -0.08445039391517639, 0.14151614904403687, -0.3557698130607605, 0.07564790546894073, 0.27006295323371887, 0.1413162648677826, 0.0685771256685257, -0.21579793095588684, -0.27400803565979004, -0.002932791132479906, -0.19014796614646912, 0.050061799585819244, 0.18195758759975433, 0.13566634058952332, -0.22180987894535065, -0.0788823589682579, 0.1398981362581253, -0.16153660416603088, -0.20807142555713654, -0.09721425175666809, -0.2581034004688263, -0.04554441571235657, -0.31425997614860535, 0.16847819089889526}}, {{0.2781673073768616, 0.22743463516235352, 0.24878345429897308, 0.24906793236732483, -0.24687448143959045, -0.07570348680019379, -0.32870736718177795, 0.022328125312924385, 0.3231877088546753, 0.11730503290891647, -0.3108897805213928, -0.28085923194885254, 0.2272137701511383, -0.15056312084197998, 0.06107119843363762, 0.2696804702281952, 0.28612107038497925, -0.07301799952983856, -0.05281028896570206, -0.07181498408317566, 0.28609827160835266, -0.13484875857830048, -0.29942768812179565, 0.17190828919410706, 0.09008266031742096, -0.15937833487987518, -0.39116713404655457, -0.0876319482922554, 0.178764209151268, -0.003485111752524972, -0.1025383248925209, 0.09922081232070923}}}};
static constexpr double layer_2_bias[32] = {-0.1507110446691513, -0.27191615104675293, 0.02721576765179634, 0.32370391488075256, 0.191443532705307, -0.008387086912989616, -0.18770664930343628, -0.23568454384803772, -0.16856513917446136, -0.11520920693874359, -0.31820017099380493, -0.0832764282822609, -0.0019164448603987694, 0.05863555893301964, -0.20135094225406647, 0.3051179349422455, -0.2515725791454315, -0.16414470970630646, -0.10668319463729858, 0.18430331349372864, -0.30882078409194946, 0.2564998269081116, -0.17436356842517853, 0.018833668902516365, 0.29578667879104614, -0.21773813664913177, 0.13417962193489075, 0.22916164994239807, 0.08625869452953339, 0.0028144048992544413, -0.1919107735157013, 0.25337398052215576};
static constexpr double layer_3_bias[32] = {0.12576372921466827, -0.09065412729978561, 0.027406036853790283, -0.7425180077552795, 0.6696774363517761, 0.8282088041305542, 0.7906447052955627, 0.7767742276191711, 0.23004984855651855, 0.47826075553894043, -0.0599738284945488, 0.8401689529418945, -0.9566596150398254, 0.027454879134893417, -0.8468906283378601, -0.9279167056083679, 0.16469790041446686, -0.007678095251321793, 0.8564078211784363, -0.04377560317516327, 0.04701652377843857, -0.8462690711021423, 0.23307332396507263, -0.9193457365036011, 0.07294194400310516, 0.30726298689842224, 0.8025470972061157, 0.8339996337890625, 0.8468286395072937, 0.027675822377204895, 0.8254477381706238, -0.5861078500747681};
static constexpr double layer_3_scale[32] = {0.04390294477343559, 0.06966004520654678, 0.04818335175514221, 0.04740745201706886, 0.029216138646006584, 0.02118123136460781, 0.010862821713089943, 0.022655298933386803, 0.06337378919124603, 0.02963298000395298, 0.039948124438524246, 0.015601681545376778, 0.005864511709660292, 0.04295285418629646, 0.013745501637458801, 0.010693677701056004, 0.028489496558904648, 0.049803681671619415, 0.010818065144121647, 0.031422656029462814, 0.03237010911107063, 0.010555785149335861, 0.03098549321293831, 0.024737747386097908, 0.07507020980119705, 0.03950013220310211, 0.011359797790646553, 0.009296184405684471, 0.009397928602993488, 0.041436292231082916, 0.0201928298920393, 0.0201719943434};
static constexpr double layer_6_weight[3][3][32][32] = {{{{0.0907297357916832, -0.005467654671519995, 0.01965213194489479, 0.015753336250782013, 0.010492919944226742, -0.004216297995299101, -0.009810970164835453, 0.024877866730093956, -0.040273044258356094, 0.03594685345888138, -0.059607382863759995, -0.1101556122303009, -4.733682726509869e-05, 0.0016043296782299876, 0.0025733651127666235, 0.016243696212768555, -0.04141790792346001, -0.005907675251364708, 0.0069253891706466675, 0.019104106351733208, 0.0631815567612648, 0.043267156928777695, 0.024891411885619164, -0.039784908294677734, -0.05602053552865982, 0.066348135471344, 0.06151195615530014, 0.04220273345708847, -0.004530800506472588, 0.06444703787565231, 0.016848454251885414, 0.025415370240807533}, {-0.02761937864124775, -0.022566616535186768, -0.049199581146240234, 0.01111320499330759, 0.003682617796584964, -0.10355477035045624, 0.028468312695622444, 0.08639691770076752, -0.019591577351093292, -0.0655081644654274, 0.039823390543460846, -0.07362791895866394, 0.004727379884570837, 0.027355467900633812, 0.0453568734228611, -0.021843159571290016, 0.0003373660729266703, -0.017983924597501755, 0.012783222831785679, -0.06027833744883537, -0.052252210676670074, -0.04193097725510597, -0.00981854647397995, -0.05288327485322952, -0.030780615285038948, 0.029296936467289925, 0.01728251576423645, -0.034270431846380234, 0.06818719208240509, -0.032230015844106674, -0.06979352980852127, -0.035270705819129944}, {-0.03993668407201767, -0.0026855242904275656, -0.038165006786584854, 0.024279804900288582, -0.015296325087547302, 0.09223559498786926, 0.06257697194814682, -0.063064344227314, 0.0032493150793015957, 0.05204875022172928, 0.023179644718766212, -0.1178194060921669, -0.03632589057087898, -0.050050556659698486, 0.040482595562934875, -0.02203425019979477, 0.08628316223621368, -0.04738951474428177, 0.0297876987606287, -0.016448548063635826, -0.018255384638905525, 0.12118680030107498, -0.03344554826617241, -0.08337155729532242, -0.01509535126388073, 0.01149336900562048, -0.007187063805758953, -0.0827396884560585, -0.06043552979826927, 0.0014809095300734043, 0.06719177961349487, 0.013419842347502708}, {0.005911360960453749, -0.043924182653427124, 0.015944942831993103, -0.050307922065258026, -0.0301668718457222, -0.07783038169145584, -0.02271522395312786, 0.03147650137543678, -0.04085584357380867, -0.00028711414779536426, -0.006980917416512966, 0.0038397456519305706, 0.03048490546643734, -0.011750152334570885, -0.08027433604001999, 0.03906714916229248, -0.025470973923802376, -0.0656067356467247, 0.05216272920370102, -0.0426337793469429, 0.001677955500781536, 0.0001216185701196082, 0.008909553289413452, 0.00045242387568578124, 0.03203175961971283, 0.051668938249349594, 0.008331847377121449, 0.03260897845029831, -0.0005563092418015003, 0.009525208733975887, -0.023319337517023087, 0.0672835037112236}, {0.04291801527142525, 0.07354383170604706, 0.09631375968456268, -0.06163693591952324, 0.02170398458838463, -0.07038863748311996, 0.011737590655684471, 0.06361891329288483, -0.06291627883911133, 0.021774297580122948, 0.055147625505924225, -0.04368172958493233, -0.05850733816623688, 0.014887720346450806, -0.06507837027311325, -0.03350110352039337, -0.00019598238577600569, 0.03634980693459511, -0.029192660003900528, -0.07794713973999023, -0.03296072408556938, 0.007782398257404566, -0.022061023861169815, 0.05465341731905937, -0.03168606013059616, 0.0459190271794796, -0.02343543991446495, 0.11913424730300903, 0.006166243460029364, 0.10439632833003998, -0.04369322955608368, -0.008251344785094261}, {-0.030836571007966995, 0.06452591717243195, 0.029165251180529594, 0.04041072353720665, -0.024651139974594116, -0.02368040941655636, -0.02073650248348713, -0.007852386683225632, 0.0045611076056957245, 0.02495516650378704, -0.005192121025174856, -0.04798183590173721, 0.015080547891557217, -0.0673079863190651, -0.10678250342607498, -0.03394851088523865, -0.08832161873579025, -0.0205179825425148, 0.012162755243480206, -0.023119090124964714, -0.07779871672391891, 0.062279559671878815, -0.025580549612641335, -0.005980317015200853, -0.052963756024837494, -0.05630246177315712, -0.03730251267552376, -0.043111201375722885, -0.05931442603468895, 0.02342941425740719, -0.06572390347719193, -0.02716910094022751}, {0.043464187532663345, -0.038214556872844696, 0.09275783598423004, 0.08218488097190857, 0.0754537358880043, 0.02430097758769989, 0.015528148040175438, 0.028592819347977638, -0.07184403389692307, 0.07080356031656265, 0.004037789069116116, 0.03096567839384079, -0.044868361204862595, -0.009398444555699825, -0.10086793452501297, 0.05601732060313225, -0.02910587564110756, 0.04237665981054306, -0.033588606864213943, 0.013740241527557373, 0.04948097839951515, -0.03193513676524162, -0.016048768535256386, 0.08920919895172119, -0.08383185416460037, -0.02844579704105854, -0.03620503842830658, 0.09553808718919754, -0.04446941986680031, 0.03439364582300186, -0.00341420597396791, 0.06662577390670776}, {0.020717980340123177, 0.09481565654277802, -0.003594521898776293, 0.00193140865303576, -0.06786667555570602, 0.04361233115196228, -0.051369648426771164, -0.07129143178462982, -0.062060657888650894, 0.025109929963946342, -0.08234518021345139, -0.022856364026665688, 0.036388639360666275, 0.044264230877161026, -0.023931412026286125, 0.004569807555526495, -0.03593467175960541, -0.04014802724123001, 0.04329153150320053, 0.030205264687538147, 0.03718912601470947, 0.10366971045732498, -0.062027644366025925, 0.0488191656768322, 0.027812616899609566, 0.033588238060474396, 0.015550246462225914, 0.006288281641900539, -0.08919025957584381, 0.06322410702705383, 0.059420473873615265, -0.07202555984258652}, {-0.05656110867857933, 0.026858631521463394, 0.022724943235516548, 0.0012873973464593291, 0.034480128437280655, -0.016686901450157166, -0.051872242242097855, 0.10571306198835373, 0.04217471182346344, -0.03531799465417862, -0.07000285387039185, -0.04181484505534172, -0.02764754742383957, 0.06300880759954453, -0.015184673480689526, 0.02357824146747589, -0.0047505926340818405, 0.027009831741452217, 0.028800582513213158, -0.09478385001420975, 0.031551193445920944, -0.007194750942289829, 0.0406879261136055, -0.00995645485818386, -0.0482296347618103, 0.0244362261146307, -0.012281712144613266, -0.024286797270178795, 0.0021253894083201885, 0.0668853223323822, -0.01983344741165638, -0.04045753926038742}, {-0.032592952251434326, -0.03156254440546036, 0.021522250026464462, -0.03479498252272606, 0.06576681137084961, 0.1086844801902771, 0.05612663924694061, 0.005575512535870075, 0.03376919403672218, 0.009302329272031784, -0.06806199997663498, 0.021949972957372665, 0.1424054056406021, 0.007393798790872097, -0.03272588551044464, -0.0070629301480948925, -0.010687515139579773, 0.06232310086488724, -0.023318341001868248, -0.02241646684706211, -0.07492143660783768, -0.0006190068670548499, 0.06883751600980759, -0.0015056543052196503, 0.03861850127577782, -0.08937516808509827, -0.01725989393889904, 0.08665548264980316, -0.04702259972691536, 0.0439038947224617, -0.018850097432732582, 0.051728006452322006}, {0.04188087210059166, -0.030528128147125244, -0.054596129804849625, -0.05774645507335663, -0.034500718116760254, 0.017287971451878548, -0.011098823510110378, 0.0459735207259655, 0.046305250376462936, -0.013528586365282536, 0.007605464663356543, -0.12049176543951035, 0.013375130482017994, 0.050450198352336884, 0.005837207660079002, 0.08283743262290955, -0.04590770974755287, 0.00937710702419281, 0.01336750853806734, -0.007187777664512396, -0.0037540155462920666, -0.01141987182199955, -0.08378743380308151, 0.017327530309557915, -0.054433949291706085, 0.04716949537396431, 0.05742751806974411, 0.04353243485093117, -0.10190621763467789, -0.041176386177539825, -0.017177565023303032, -0.016788896173238754}, {-0.016827000305056572, 0.07995983213186264, 0.0048361485823988914, 0.06192070618271828, 0.07144191861152649, 0.07194983959197998, 0.020911602303385735, 0.0838703140616417, -0.01310009229928255, 0.01906552165746689, -0.0650484710931778, 0.05878549441695213, -0.00837970431894064, 0.029210800305008888, -0.055607039481401443, 0.0429227389395237, 0.08265591412782669, 0.0755077600479126, 0.05277978256344795, 0.021061109378933907, 0.08798356354236603, 0.0006446655024774373, -0.013926568441092968, 0.07172435522079468, -0.0033085194882005453, -0.020188190042972565, -0.005540552083402872, 0.08950943499803543, -0.07986868172883987, 0.1256541609764099, 0.0432259738445282, 0.07374037057161331}, {-0.048777054995298386, 0.03708530217409134, -0.02190071903169155, 0.05144747346639633, 0.03879990428686142, -0.014187078922986984, 0.016006652265787125, -0.04081355780363083, -0.011382929049432278, -0.03547067940235138, -0.014324452728033066, -0.06039903312921524, -0.025007886812090874, -0.016067905351519585, 0.0024125755298882723, 0.05751894414424896, -0.022106127813458443, -0.038945939391851425, 0.005052078980952501, -0.052883557975292206, -0.05557415261864662, -0.035430800169706345, 0.014379588887095451, -0.003686049021780491, 0.02594590000808239, 0.046588681638240814, 0.05309201404452324, -0.025525903329253197, 0.0565151572227478, 0.03510298952460289, -0.03618655726313591, -0.0383015051484108}, {-0.045658282935619354, 0.09450976550579071, 0.005795770790427923, -0.023223359137773514, -0.09185120463371277, -0.12303697317838669, -0.010667895898222923, -0.012108969502151012, 0.003053906373679638, 0.003009579610079527, -0.0028719878755509853, -0.05575714260339737, -0.01499541848897934, -0.05213633552193642, 0.025383636355400085, -0.016713976860046387, 0.022112887352705002, -0.11754857003688812, 0.024725083261728287, 0.0054433466866612434, -0.005994389299303293, -0.0009667814592830837, -0.043566346168518066, -0.043943293392658234, -0.05006543546915054, 0.009658441878855228, -0.02258344180881977, 0.05371655151247978, -0.066243015229702, 0.053111545741558075, 0.0062676118686795235, -0.0177829060703516}, {-0.0001269177155336365, 0.04272622987627983, -0.020926035940647125, -0.032177165150642395, 0.030758552253246307, -0.06113319471478462, -0.03271216154098511, 0.008710646070539951, -0.038770951330661774, -0.04166357219219208, 0.00865221954882145, 0.0359039232134819, -0.06099432334303856, 0.06062125414609909, 0.022843560203909874, 0.009415846318006516, 0.02262754738330841, -0.0710010826587677, 0.10213948786258698, -0.05534468591213226, -0.0004231107304804027, 0.07105091214179993, 0.001966775394976139, 0.06255168467760086, 0.05041028931736946, 0.03513592109084129, 0.011019241996109486, 0.07011271268129349, 0.023035913705825806, -0.06338965892791748, -0.014862146228551865, -0.07443207502365112}, {0.004682442639023066, -0.0650336891412735, -0.013009069487452507, -0.008299198001623154, -0.06240683048963547, 0.003753626486286521, -0.06461481750011444, -0.07537323981523514, 0.0073377154767513275, -0.024734536185860634, -0.0228737723082304, -0.020722772926092148, -0.029339268803596497, 0.049233511090278625, 0.013543527573347092, -0.030873971059918404, 0.017486780881881714, -0.039009880274534225, -0.03972218185663223, 0.014737528748810291, -0.0717766284942627, 0.019531790167093277, -0.0312698595225811, -0.011635717935860157, -0.005349971354007721, -0.016805272549390793, 0.019709687680006027, 0.07395915687084198, 0.05831748619675636, -0.013322743587195873, -0.04345237463712692, -0.031280722469091415}, {-0.00315045565366745, 0.02377450466156006, -0.03314881771802902, 0.043958183377981186, -0.028580814599990845, 0.017884831875562668, 0.014057692140340805, 0.04787721484899521, -0.06242522969841957, -0.06380445510149002, -0.06493482738733292, -0.02955579198896885, -0.03142528608441353, 0.04363597556948662, -0.030499190092086792, -0.004828892648220062, 0.055330198258161545, -0.026043029502034187, 0.08764681965112686, -0.045459188520908356, 0.04617798700928688, 0.05961458757519722, 0.07533016800880432, 0.07579047977924347, -0.08851078152656555, -0.018959786742925644, 0.05327794700860977, -0.0018756355857476592, -0.10691589117050171, -0.008482465520501137, -0.014475292526185513, -0.017598891630768776}, {0.02110234834253788, 0.008910374715924263, -0.07462812215089798, -0.01871015504002571, -0.0646769255399704, -0.02917909249663353, 0.017362024635076523, 0.057104647159576416, -0.012663844972848892, 0.03452366590499878, 0.06777583807706833, -0.022947613149881363, 0.002066949615254998, 0.01417472306638956, 0.06842660158872604, -0.042348865419626236, -0.02242717519402504, -0.024165799841284752, -0.04662802070379257, 0.03745490312576294, -0.03425481542944908, -0.022807396948337555, 0.01669013313949108, 0.031563498079776764, -0.0827840268611908, 0.08920510858297348, -0.007398440968245268, -0.08886801451444626, -0.013988800346851349, 0.023239891976118088, -0.013735825195908546, -0.03538484498858452}, {-0.020877918228507042, 0.013973323628306389, 0.03131759911775589, 0.05076555535197258, 0.09032983332872391, 0.02979343943297863, -0.06778717041015625, -0.05026622116565704, 0.024919290095567703, 0.03519836813211441, -0.02873465232551098, 0.0465463250875473, 0.026705162599682808, -0.0622604601085186, 0.0013400462921708822, -0.04841272905468941, 0.050931137055158615, -0.03638934716582298, -0.013390856795012951, 0.05281253159046173, 0.0009872623486444354, -0.023677591234445572, -0.049631375819444656, -0.003536420874297619, -0.08847103267908096, -0.007886438630521297, -0.05217747390270233, 0.030628930777311325, -0.06497163325548172, 0.07873137295246124, -0.017405858263373375, -0.015877099707722664}, {-0.09023694694042206, -0.0019574188627302647, -0.017146974802017212, -0.03244742378592491, -0.022936509922146797, -0.11700999736785889, -0.03666874021291733, 0.016913704574108124, 0.01435023732483387, -0.04581788182258606, 0.05461261421442032, -0.14737455546855927, -0.13818520307540894, -0.01300796028226614, -0.002733140252530575, -0.07475902140140533, 0.09887349605560303, -0.04902267828583717, -0.06003266200423241, 0.05115080624818802, -0.07599879801273346, 0.01186397299170494, -0.003360348753631115, -0.05002716928720474, -0.057114169001579285, -0.015133433043956757, 0.036480456590652466, 0.03515186905860901, -0.013598429039120674, -0.05175062268972397, -0.02823769487440586, -0.03127165883779526}, {0.001269240048713982, -0.04407823458313942, -0.017808081582188606, -0.0007442435016855597, 0.030741069465875626, 0.0916055217385292, -0.01711137965321541, 0.03110884316265583, -0.02768033742904663, -0.03213762864470482, -0.05898422747850418, -0.03061961568892002, 0.04539692401885986, 0.06838832050561905, -0.0038155976217240095, 0.017908360809087753, 0.03315187618136406, 0.001506286789663136, -0.017582355067133904, -0.016770049929618835, 0.02611495554447174, 0.0516045019030571, 0.016762075945734978, -0.05190243199467659, 0.05711723491549492, -0.0649772509932518, -0.048226192593574524, 0.04137980565428734, 0.017312297597527504, -0.024232951924204826, -0.011853490024805069, 0.11272497475147247}, {0.00438162125647068, -0.03826954960823059, -0.007735747843980789, 0.016516003757715225, -0.047941163182258606, -0.05753278359770775, 0.011950751766562462, 0.03376850113272667, 0.025889847427606583, 0.0031729931943118572, -0.05938640609383583, -0.06149369105696678, -0.050529368221759796, 0.017574172466993332, 0.032954245805740356, -0.059560663998126984, -0.07926958054304123, -0.08528430759906769, 0.0077895838767290115, 0.0019195302156731486, -0.07317452132701874, 0.04517626017332077, -0.061459776014089584, -0.033329665660858154, 0.06005345657467842, 0.06638961285352707, 0.005086993332952261, -0.017613109201192856, 0.0795799046754837, -0.05633451044559479, -0.008964063599705696, -0.021688146516680717}, {0.017642060294747353, -0.03724934533238411, -0.08179610967636108, 0.02203291654586792, -0.009605424478650093, -0.058569956570863724, -0.0293428972363472, -0.021985027939081192, 0.015895100310444832, 0.05733712390065193, 0.08411280810832977, -0.03897442668676376, -0.004377946723252535, -0.04317976534366608, -0.025138547644019127, -0.07142508029937744, 0.0021910076029598713, 0.03980884328484535, 0.0033805049024522305, 0.025261418893933296, -0.03829001262784004, 0.04613292217254639, -0.027803584933280945, -0.01895674504339695, -0.013091014698147774, -0.005980994086712599, -0.04810791462659836, -0.038206666707992554, 0.0829693153500557, -0.06431786715984344, 0.004496689885854721, -0.08060146868228912}, {-0.026713216677308083, -0.009348466992378235, 0.018523208796977997, -0.04241102561354637, 0.01731959357857704, 0.007964667864143848, -0.008996601216495037, -0.0005779220955446362, 0.04238438606262207, 0.020190266892313957, -0.03316832706332207, -0.0449875108897686, -0.05729123204946518, 0.12003342062234879, -0.07669875025749207, 0.052353691309690475, -0.03202619031071663, -0.02669128216803074, 0.12855389714241028, -3.198074409738183e-06, -0.026246093213558197, -0.03394153341650963, 0.023238539695739746, -0.0027368769515305758, -0.033614493906497955, 0.016503142192959785, 0.0729566439986229, 0.037298090755939484, 0.008605395443737507, 0.009832050651311874, -0.05532786250114441, -0.042191844433546066}, {0.10076916962862015, 0.05628715455532074, -0.019411517307162285, -0.0732809454202652, 0.011344894766807556, -0.004391928669065237, 0.004626412410289049, 0.034542858600616455, -0.026130998507142067, -0.00596070010215044, -0.07642539590597153, -0.1620101034641266, -0.07182090729475021, 0.01828884705901146, -0.01858370564877987, 0.015113049186766148, 0.026749812066555023, 0.037434931844472885, -0.05109669268131256, -0.05046744644641876, 0.042184483259916306, -0.07408103346824646, -0.044819705188274384, -0.03903081640601158, 0.017420340329408646, 0.00939452275633812, 0.08977507054805756, 0.06379961222410202, -0.0327545665204525, 0.007378506474196911, -0.07603001594543457, 0.008699091151356697}, {0.047155123203992844, -0.047038011252880096, 0.014727823436260223, -0.010067574679851532, -0.094280906021595, -0.09503353387117386, -0.07497742772102356, -0.01628553308546543, 0.012392430566251278, 0.04413147643208504, 0.070378378033638, -0.03554103523492813, 0.0726480707526207, -0.014772533439099789, -0.043397292494773865, -0.0398833267390728, -0.10096509009599686, -0.04811833053827286, -0.020156318321824074, 0.001449592993594706, -0.0388566218316555, 0.03294438123703003, -0.019973939284682274, -0.05739836022257805, -0.032862208783626556, -0.020017491653561592, -0.0222492478787899, -0.10485130548477173, 0.03657754883170128, -0.07023719698190689, -0.0343577042222023, -0.04633218050003052}, {0.04876105859875679, 0.030470969155430794, 0.03681819513440132, 0.047582414001226425, 0.04738263785839081, -0.041123874485492706, -0.046755384653806686, 0.032198466360569, -0.037285853177309036, 0.011750013567507267, -0.012877343222498894, 0.03224113583564758, 0.016819071024656296, -0.06318087875843048, -0.03408820554614067, -0.05217898264527321, -0.059410322457551956, 0.006914979312568903, -0.015673549845814705, 0.010349092073738575, 0.025108609348535538, 0.008623328059911728, -0.042157214134931564, 0.06533859670162201, -0.0863138809800148, -0.07418040931224823, 0.03301980718970299, 0.11197154223918915, 0.010631343349814415, 0.0049257297068834305, -0.028876161202788353, -0.008772536180913448}, {-0.0009928146610036492, -0.024670694023370743, 0.10738623142242432, 0.04044966772198677, 0.11834043264389038, 0.015197266824543476, -0.023580512031912804, -0.04876973107457161, 0.002394305542111397, 0.034587837755680084, -0.022359950467944145, 0.05307343974709511, -0.0344114825129509, -0.06782784312963486, -0.05600551888346672, 0.0381302684545517, 0.024386698380112648, 0.012770497240126133, -0.061295557767152786, 0.005583754740655422, -0.054432399570941925, 0.040083885192871094, 0.007654489483684301, -0.02069448120892048, -0.0871504470705986, -0.07875090092420578, -0.04498446732759476, -0.036844272166490555, -0.005065124481916428, 0.006654217839241028, 0.03123781643807888, 0.07147666811943054}, {-0.07542235404253006, -0.06851070374250412, 0.1144440546631813, 0.025414999574422836, 0.046105969697237015, 0.03222057223320007, -0.0630190297961235, 0.008028683252632618, 0.0326320081949234, 0.05475930497050285, -0.0194549523293972, 0.012342160567641258, 0.010157523676753044, -0.020043984055519104, -0.06361213326454163, -0.0035591735504567623, -0.03141454607248306, 0.02637259103357792, 0.00899492297321558, -0.019193893298506737, 0.027681851759552956, 0.003164311870932579, -0.018863294273614883, 0.00669665914028883, 0.02271871641278267, -0.09708082675933838, -0.017571358010172844, 0.04581466317176819, -0.017726315185427666, 0.024582426995038986, -0.0395384356379509, 0.013312800787389278}, {-0.007479640655219555, 0.007889635860919952, 0.0267486535012722, 0.03260676935315132, -0.0078046596609056, -0.04131634905934334, 0.019512996077537537, 0.019656158983707428, -0.01541123352944851, -0.056794822216033936, 0.011548190377652645, -0.0012708009453490376, 0.014576457440853119, -0.07364663481712341, 0.06250504404306412, -0.12846550345420837, 0.10985705256462097, 0.05183260887861252, -0.10411873459815979, 0.01686250977218151, -0.0367913618683815, 0.0437333919107914, -0.04390023276209831, 0.007235406432300806, -0.002255975501611829, 0.027254298329353333, -0.024457398802042007, 0.08301933109760284, -0.006364045664668083, -0.009402730502188206, -0.03083336353302002, -0.023453082889318466}, {0.0061414241790771484, -0.029573073610663414, 0.06374766677618027, -0.01787295937538147, 0.07960738986730576, 0.03561469167470932, -0.008556337095797062, 0.1335262805223465, 0.05485804006457329, 0.0012916302075609565, -0.04225890338420868, 0.0673755556344986, 0.001953915925696492, 0.1050640419125557, -0.05701170489192009, 0.05088021233677864, 0.04692338407039642, 0.014077951200306416, 0.04338821768760681, -0.02445904165506363, -0.06667391955852509, 0.035934288054704666, -0.002347466303035617, 0.03514718636870384, 0.027312535792589188, -0.037138912826776505, 0.024022666737437248, 0.07154226303100586, -0.018459314480423927, 0.1091955229640007, -0.06864351779222488, 0.06068374589085579}, {0.05651075020432472, 0.03875499218702316, 0.03572792559862137, -0.006580740679055452, 0.021945511922240257, -0.052385058254003525, -0.07313970476388931, -0.023137081414461136, -0.0582507885992527, -0.02815422974526882, 0.01886395551264286, -0.05116845667362213, -0.04579830914735794, -0.041481878608465195, 0.03545629233121872, -0.06347282230854034, 0.025875726714730263, 0.027514120563864708, -0.04963134229183197, 0.049885038286447525, 0.0013648797757923603, -0.04977508261799812, -0.04714291915297508, -0.019700083881616592, -0.04329131171107292, 0.04484491050243378, -0.03576013073325157, 0.06536537408828735, 0.025131195783615112, 0.024334412068128586, 0.03718075901269913, -0.021433072164654732}}, {{0.037485271692276, -0.009182223118841648, -0.062462884932756424, 0.05902506038546562, 0.04523734003305435, -0.02654409408569336, -0.013519540429115295, 0.018788689747452736, -0.03543170541524887, 0.004801766015589237, 0.05254990607500076, -0.029808394610881805, -8.851745951687917e-05, -0.047278087586164474, -0.020203465595841408, 0.003247747663408518, 0.04621655121445656, -0.009876611642539501, -0.03640660271048546, -0.03873790428042412, -0.021867061033844948, 0.018537387251853943, -0.05052301287651062, 0.020775211974978447, -0.026493998244404793, -0.05500074103474617, -0.020586248487234116, 0.03674345090985298, 0.06636009365320206, 0.016179267317056656, 0.03551925718784332, 0.033227138221263885}, {-0.008332792669534683, -0.001871687127277255, -0.005442882422357798, 0.014651567675173283, -0.07623951882123947, -0.09375573694705963, 0.08544014394283295, 0.06573902070522308, -0.012361627072095871, 0.07032261788845062, -0.005433171987533569, -0.11287392675876617, -0.02877918630838394, 0.040561430156230927, 0.0185233186930418, -0.0944933071732521, 0.06588369607925415, -0.05285738781094551, 0.012576541863381863, -0.04846166446805, -0.01949043944478035, -0.04881846904754639, 0.10924657434225082, 0.023354561999440193, 0.004784143064171076, 0.0342189259827137, 0.00797906331717968, -0.10730690509080887, 0.027094857767224312, -0.0008732114802114666, -0.031140662729740143, -0.10374239087104797}, {-0.03393810987472534, -0.017829718068242073, -0.05716054141521454, 0.009468581527471542, -0.00298629654571414, 0.07308118045330048, 0.024344924837350845, -0.06780371814966202, 0.028247660025954247, -0.04577992111444473, -0.06534713506698608, -0.012640894390642643, 0.024567686021327972, -0.018165865913033485, 0.08497631549835205, 0.03804003819823265, 0.024129273369908333, 0.019392145797610283, -0.08657640963792801, -0.046051714569330215, -0.025615820661187172, -0.014952756464481354, 0.03866458684206009, 0.07252496480941772, 0.01996650919318199, 0.015810497105121613, 0.06697908788919449, 0.02667255699634552, -0.005880774464458227, -0.05031421780586243, 0.03211541101336479, 0.04029460251331329}, {-0.034844860434532166, -0.058335963636636734, 0.013129731640219688, 0.005890046712011099, -0.0031974250450730324, -0.07427404820919037, 0.04704596847295761, -0.0310334712266922, -0.044204261153936386, -0.05506107956171036, -0.025088274851441383, -0.02614828199148178, -0.021024147048592567, -0.00277574616484344, -0.08265803009271622, 0.02606857195496559, 0.01142319105565548, -0.017266755923628807, -0.0013329479843378067, 0.018207740038633347, 0.02540968358516693, -0.00933534000068903, 0.021277431398630142, -0.05720771104097366, -0.07969900220632553, -0.02563614957034588, -0.07583297789096832, 0.019827108830213547, -0.07158451527357101, -0.028012733906507492, -0.04148823395371437, 0.020151615142822266}, {-0.04503818601369858, -0.0766846090555191, 0.02592402696609497, -0.03267556428909302, 0.018268834799528122, -0.06216900423169136, -0.06349126249551773, 0.0302689541131258, 0.03550434112548828, 0.03866293281316757, 0.015104833990335464, 0.03881017863750458, 0.020907558500766754, 0.01900574192404747, 0.016519974917173386, 0.007458033040165901, -0.04310012236237526, 0.029792994260787964, 0.03585626184940338, -0.07673712819814682, -0.011563174426555634, 0.0008122035069391131, 0.015173004008829594, -0.08026068657636642, -0.08767290413379669, -0.023738613352179527, -0.0835777297616005, -0.01778796687722206, 0.021981999278068542, -0.02435319498181343, -0.04477658122777939, -0.016779590398073196}, {-0.0013054730370640755, -0.07822471857070923, -0.04418596997857094, -0.006894636433571577, -0.040802523493766785, -0.07526474446058273, 0.03043915145099163, 0.0482582226395607, -0.014073219150304794, 0.05413253605365753, -0.030141282826662064, -0.029746748507022858, 0.0676034465432167, -0.031955912709236145, -0.037598490715026855, -0.039377328008413315, -0.09544292092323303, 0.05035208538174629, 0.012968473136425018, 0.03000319004058838, -0.06476543843746185, 0.07310263067483902, -0.023863410577178, -0.09030534327030182, -0.056560415774583817, -0.04643746837973595, -0.04648761451244354, 0.06057901680469513, 0.06057329475879669, 0.060566965490579605, -0.0669802576303482, -0.027135467156767845}, {-0.003488970221951604, -0.06420595198869705, 0.1119895726442337, -0.06725552678108215, 0.09918063133955002, -0.06293576210737228, 0.009108912199735641, -0.04256265610456467, -0.030947091057896614, 0.04352034255862236, -0.04570794105529785, 0.05704640597105026, -0.051486436277627945, 0.012351453304290771, -0.01525423675775528, -0.009945151396095753, -0.008135063573718071, 0.02545369416475296, 0.03397383168339729, -0.07866966724395752, 0.011668970808386803, -0.03652568906545639, 0.015898481011390686, 0.01950717344880104, 0.03818265348672867, -0.09670237451791763, 0.039363231509923935, 0.06230752542614937, 0.01210779044777155, 0.01755763590335846, -0.05435147508978844, 0.08349605649709702}, {-0.05691162869334221, -0.02886868640780449, 0.021743813529610634, 0.003456952515989542, 0.015680456534028053, -0.06791986525058746, 0.0050013987347483635, 0.003021499142050743, 0.022299058735370636, 0.05505795031785965, -0.04444947838783264, 0.010500902310013771, 0.009810417890548706, -0.09330432116985321, -0.06021006405353546, 0.011061901226639748, -0.042181629687547684, 0.058696549385786057, -0.004413314629346132, -0.05418131500482559, -0.060642801225185394, 0.0021741436794400215, -0.11344996094703674, -0.04476267099380493, -0.062054045498371124, -0.03398672118782997, -0.031736619770526886, 0.010726768523454666, -0.06030531972646713, 0.021840881556272507, 0.04856308177113533, -0.05519907921552658}, {-0.06385474652051926, -0.05759993568062782, 0.03191506117582321, -0.030251357704401016, 0.045384570956230164, 0.10730818659067154, 0.06335319578647614, 0.030320966616272926, 0.035040926188230515, 0.09415093809366226, -0.030094968155026436, -0.038934025913476944, 0.051892101764678955, -0.013041290454566479, -0.007485526613891125, 0.008802712894976139, 0.03014630451798439, -0.037177201360464096, 0.040681615471839905, -0.007402515970170498, 0.02357092685997486, -0.01048649474978447, 0.04507793113589287, 0.020385345444083214, -0.056885942816734314, 0.02215006947517395, -0.006270346697419882, -0.0013984011020511389, -0.003581029362976551, 0.0699976459145546, -0.034171611070632935, -0.023941051214933395}, {0.0011486475123092532, -0.05928314849734306, 0.04049277678132057, -0.03595726937055588, 0.0380699522793293, 0.03604493290185928, 0.070215605199337, -0.0719420462846756, -0.005680105648934841, 0.007110664155334234, -0.007832566276192665, 0.02099451795220375, 0.09001319110393524, 0.05565963312983513, 0.029012445360422134, -0.031145015731453896, 0.07186175882816315, 0.0760883167386055, -0.03179477900266647, -0.023053474724292755, -0.020645668730139732, 0.02017640508711338, -0.0588495135307312, -0.055312640964984894, 0.06718958169221878, -0.005815845914185047, -0.030352341011166573, 0.07972076535224915, 0.06513401865959167, -0.027389133349061012, -0.10081996768712997, 0.09596067667007446}, {0.07642818242311478, -0.019168060272932053, -0.04704564809799194, -0.02994159236550331, -0.011622839607298374, 0.0904807597398758, 0.04753616824746132, -0.04879672825336456, 0.0515466034412384, -0.02240668050944805, 0.0647447258234024, -0.031099777668714523, 0.05751005560159683, -0.04323693737387657, -0.024685537442564964, -0.02482452057301998, 0.02420836128294468, -0.013528610579669476, -0.03339075669646263, -0.03413127362728119, 0.061204031109809875, 0.004985973238945007, -0.0749361515045166, -0.038977328687906265, -0.04369885101914406, 0.006701551843434572, 0.08246361464262009, -0.005607569590210915, -0.0679447278380394, 0.05029963701963425, -0.011909780092537403, 0.010894143022596836}, {-0.013155912049114704, -0.052790235728025436, 0.08021143078804016, 0.029195604845881462, 0.02695811353623867, -0.07422439008951187, -0.04545329138636589, -0.04049744829535484, 0.01786361262202263, 0.046441689133644104, -0.008693769574165344, -0.03204604610800743, 0.00378734664991498, -0.04393773898482323, 0.012423941865563393, -0.008928541094064713, 0.06856399029493332, 0.023607900366187096, 0.013131766580045223, -0.024078553542494774, -0.09514006972312927, 0.013422147370874882, -0.02185673452913761, 0.009555184282362461, -0.013241621665656567, -0.031479500234127045, -0.031168488785624504, 0.0936833918094635, -0.026366882026195526, -0.04757065698504448, -0.05082879588007927, 0.05990225449204445}, {-0.03550843894481659, 0.0271797813475132, -0.030919546261429787, -0.06139656528830528, 0.06487834453582764, 0.0013626269064843655, 0.0024714451283216476, 0.052226848900318146, 0.05459997430443764, -0.006178388837724924, -0.06430170685052872, 0.038496360182762146, 0.036667920649051666, -0.0062173944897949696, -0.04838116466999054, -0.031883273273706436, -0.03284451737999916, -0.07105297595262527, 0.08918324112892151, 0.02351035363972187, 0.01612127758562565, -0.03474077954888344, 0.06151749938726425, 0.030941246077418327, 0.0036876762751489878, -0.04247007891535759, -0.052193280309438705, -0.0071819014847278595, -0.04573451727628708, 0.008407464250922203, -0.04996337741613388, 0.02772560715675354}, {0.00732774380594492, 0.0253806971013546, 0.005845971871167421, -0.003184803295880556, 0.00557471439242363, 0.07095003873109818, -0.01617640256881714, -0.0007373261032626033, 0.0016062514623627067, 0.04943982511758804, 0.0013614990748465061, -0.021874040365219116, -0.08022109419107437, -0.03599845990538597, -0.06661777943372726, 0.026375064626336098, -0.005803659558296204, -0.006746561732143164, 0.05544743314385414, -0.008885715156793594, -0.006936035584658384, 0.0067472499795258045, -0.03442506119608879, -0.011333736591041088, -0.02344531938433647, 0.07931194454431534, -0.032900940626859665, -0.05723767355084419, -0.06451024115085602, 0.04330068081617355, 0.03089311346411705, -0.0396542027592659}, {-0.010987888090312481, 0.010798719711601734, 0.028066623955965042, 0.030237188562750816, 0.007476251106709242, -0.02232123352587223, 0.0738619789481163, 0.022413106635212898, 0.03961392492055893, 0.03363129869103432, -0.05837002396583557, 0.026364142075181007, 0.03598956763744354, -0.013397674076259136, -0.03366906940937042, -0.0023751924745738506, 0.05807984992861748, -0.04092348366975784, 0.01454684603959322, 0.008212223649024963, -0.03731909766793251, -0.0028511330019682646, -0.062426164746284485, 0.02170640602707863, 0.011522950604557991, -0.015588829293847084, -0.03841489553451538, 0.038630545139312744, 0.0077962507493793964, -0.007437973283231258, -0.03056187741458416, 0.03589075058698654}, {0.022933373227715492, 0.004718626383692026, 0.009186958894133568, -0.0651618093252182, -0.005735650192946196, 0.024562092497944832, -0.023232167586684227, -0.006531825289130211, 0.045000288635492325, -0.019441690295934677, 0.008465424180030823, -0.06445930898189545, 0.014552122913300991, 0.020620636641979218, 0.01624993607401848, 0.012879544869065285, -0.03216757997870445, -0.014350849203765392, 0.010976421646773815, -0.03084033541381359, 0.009288635104894638, -0.017138661816716194, -0.0382123626768589, -0.015615267679095268, -0.013791793957352638, -0.020774826407432556, 0.025222616270184517, 0.03691861033439636, 0.05755792185664177, -0.032653987407684326, -0.05885466933250427, -0.08638982474803925}, {-0.08084849268198013, -0.06935786455869675, 0.008642221800982952, 0.060476724058389664, 0.058521877974271774, 0.0787733793258667, -0.08864284306764603, -0.04371564835309982, 0.06748559325933456, -0.05005059391260147, 0.07581257075071335, -0.030975962057709694, -0.010244529694318771, -0.056014783680438995, -0.053830187767744064, -0.0070126112550497055, 0.04890855401754379, 0.05937664955854416, -0.011737731285393238, -0.10193292051553726, -0.0852573812007904, -0.004880001302808523, 0.01437611598521471, 0.01912737265229225, -0.049029894173145294, -0.036398034542798996, 0.004707635845988989, 0.011929386295378208, 0.04826918989419937, -0.06189215928316116, -0.09752123057842255, 0.03968741372227669}, {0.020349441096186638, -0.06679582595825195, 0.006591870449483395, 0.00698818638920784, -0.028645480051636696, -0.003527834080159664, 0.04905684292316437, 0.025134654715657234, 0.0338410809636116, 0.0072999377734959126, -0.0009094576234929264, -0.13473781943321228, -0.006920637097209692, -0.09114781022071838, -0.03271431848406792, -0.013341844081878662, -0.04745139181613922, -0.017893550917506218, 0.03163672983646393, -0.014553925953805447, 0.021839244291186333, -0.01356732752174139, -0.0036080442368984222, 0.028169872239232063, -0.03220251575112343, 0.050808582454919815, -0.057224929332733154, -0.08164357393980026, 0.03551798313856125, 0.07063063979148865, 0.0302793737500906, -0.00982794351875782}, {0.03636681288480759, -0.0255222599953413, 0.15003356337547302, 0.01783043146133423, 0.017626238986849785, -0.024355940520763397, -0.0441240631043911, -0.040998391807079315, 0.02046198770403862, 0.09704495966434479, -0.0004250206984579563, -0.003793340874835849, 0.0042481254786252975, 0.04462603107094765, -0.05999432131648064, -0.018377142027020454, 0.01205461286008358, 0.0727379322052002, -0.056114908307790756, -0.0017440924420952797, -0.05685070529580116, 0.00170235859695822, 0.003599065588787198, -0.04296998679637909, -0.06393749266862869, -0.042753662914037704, 0.024382729083299637, 0.09561893343925476, 0.07575239986181259, 0.05716179311275482, -0.05088817700743675, 0.08207834511995316}, {-0.050477467477321625, -0.03909551724791527, -0.02244308777153492, -0.001924666459672153, -0.01668337918817997, 0.03594402223825455, 0.019599827006459236, -0.07499873638153076, 0.06950628757476807, 0.05861468240618706, 0.07827963680028915, -0.04924692213535309, -0.015617500059306622, 0.005507706198841333, 0.023568691685795784, 0.0051409658044576645, -0.06557163596153259, -0.053020890802145004, 0.09424088150262833, -0.03830859065055847, -0.034529268741607666, -0.003138425527140498, -0.09245232492685318, -0.0042593651451170444, -0.09523387998342514, -0.018715238198637962, -0.09493131190538406, -0.08695750683546066, 0.008971856907010078, 0.01238960586488247, -0.047528769820928574, -0.08397290110588074}, {0.026561623439192772, -0.07856211811304092, -0.015724724158644676, 0.030720878392457962, 0.0658501610159874, 0.002991536632180214, -0.041453368961811066, -0.07279589772224426, 0.08317041397094727, 0.04546629264950752, 0.003945509437471628, -0.00813780166208744, 0.043353188782930374, -0.00649383757263422, 0.012501190416514874, 0.02181144617497921, 0.038245152682065964, 0.07447535544633865, -0.03556526079773903, 0.009244711138308048, -0.09881439059972763, 0.039424534887075424, 0.007876505143940449, 0.0006613148143514991, -0.04407837614417076, -0.007729925215244293, 0.04991092532873154, -0.0017429487779736519, 0.07712140679359436, -0.0060469540767371655, 0.004892643541097641, 0.053931888192892075}, {0.03445391356945038, -0.05574809014797211, -0.0017210145015269518, -0.00304047716781497, 0.017958281561732292, 0.005057969596236944, 0.017410296946763992, -0.012083605863153934, 0.052701979875564575, -0.021991150453686714, -0.0034093735739588737, -0.009857168421149254, -0.04831670969724655, 0.020497368648648262, -0.010088642127811909, 0.00036643509520217776, 0.021168921142816544, -0.039939090609550476, 0.081759512424469, -0.012050524353981018, 0.02050633914768696, 0.03233247995376587, -0.02855583280324936, -0.031107231974601746, -0.04437753185629845, -0.03153008967638016, 0.0535702183842659, -0.03433441370725632, -0.016557123512029648, 0.0038840214256197214, -0.049069054424762726, 0.005885476712137461}, {-0.001410162542015314, -0.025404950603842735, 0.023579351603984833, -0.0037181153893470764, -0.07040544599294662, 0.003392804879695177, 0.08206534385681152, -0.043563541024923325, 0.01588786207139492, 0.07670778781175613, -0.026522355154156685, -0.1220020055770874, 0.028421813622117043, 0.003698033280670643, 0.010888357646763325, 0.030973253771662712, -0.02413521148264408, 0.025183023884892464, 0.04256368800997734, 0.03631763160228729, -0.015932390466332436, 0.007321154233068228, -0.02709653228521347, -0.003356084693223238, -0.019958868622779846, -0.02612488344311714, -0.06097164750099182, -0.07370408624410629, 0.02797672152519226, 0.04282652959227562, 0.053169649094343185, -0.013715440407395363}, {0.008136088028550148, 0.05207160860300064, -0.008396153338253498, -0.05854868143796921, 0.04275813698768616, -0.029419558122754097, 0.021556656807661057, 0.054713547229766846, 0.04274618625640869, 0.017365479841828346, -0.003920877818018198, 0.06874235719442368, 0.03820955380797386, -0.07004819810390472, -0.018917473033070564, -0.04686659201979637, -0.01837991550564766, -0.04705752059817314, 0.011671748012304306, -0.01693892478942871, -0.03284236043691635, 0.01401381567120552, -0.04338929429650307, -0.02532428316771984, -0.04846823215484619, -0.03249407559633255, -0.009771119803190231, 0.048893705010414124, -0.0005047084996476769, 0.038307346403598785, 0.003247251035645604, -0.04009714350104332}, {0.10842233896255493, 0.012540929950773716, -0.04216078296303749, -0.058155179023742676, -0.014385833404958248, -0.005821999162435532, 0.0506470687687397, 0.005886386148631573, 0.07101631909608841, -0.03288776054978371, 0.025879552587866783, -0.05218068137764931, -0.04437827318906784, 0.01672491617500782, 0.017944244667887688, -0.018413852900266647, 0.015920041128993034, 0.0003978747990913689, 0.06841287016868591, -0.04729999601840973, -0.03243861347436905, -0.10293854773044586, -0.01212920993566513, -0.08718099445104599, -0.05308942124247551, 0.05359765142202377, 0.010068983770906925, 0.026466162875294685, 0.01339855045080185, -0.04256007820367813, -0.025771191343665123, -0.07461472600698471}, {0.04499761015176773, -0.07438122481107712, 0.0679137334227562, 0.04602200165390968, -0.06029539182782173, -0.02958598919212818, -0.015207442454993725, -0.029890291392803192, -0.04662041366100311, 0.10939451307058334, -0.06831628084182739, -0.05029355362057686, 0.11880525946617126, -0.008593421429395676, 0.006053573451936245, -0.07366225868463516, -0.0968361347913742, 0.0026781661435961723, 0.0174556877464056, -0.012434125877916813, 0.04798384755849838, -0.031882043927907944, 0.0007023098296485841, -0.11314716935157776, -0.031016826629638672, 0.014260170981287956, -0.04706261679530144, -0.10545488446950912, -0.02960198000073433, 0.025106055662035942, 0.015363262966275215, 0.015135493129491806}, {0.026969803497195244, 0.023623859509825706, 0.08943004906177521, -0.03966187313199043, 0.039310917258262634, 0.020443879067897797, -0.03671273961663246, 0.011765221133828163, 0.024247106164693832, 0.14685331284999847, 0.04149092733860016, 0.046399861574172974, -0.0032725888304412365, 0.01989918202161789, 0.006313798017799854, -0.01565721072256565, 0.03180544450879097, 0.022142983973026276, -0.010454035364091396, -0.010231018997728825, -0.010428219102323055, -0.011140403337776661, -0.059658683836460114, -0.07441960275173187, -0.017743999138474464, -0.014814605005085468, -0.05489039048552513, 0.09964585304260254, 0.018058311194181442, 0.005504306871443987, 0.03083673119544983, -0.007762259338051081}, {-0.0029912495519965887, -0.052275609225034714, 0.14589819312095642, -0.028474044054746628, 0.06189374625682831, -0.030079327523708344, 0.04623563215136528, 0.020553361624479294, 0.01717643067240715, 0.08869212865829468, -0.033258356153964996, -0.03279633820056915, 0.033102042973041534, 0.02763534151017666, -0.09157176315784454, 0.010049201548099518, 0.02880101278424263, 0.03527349978685379, 0.059762775897979736, 0.019339105114340782, -0.012969796545803547, 0.04726248234510422, 0.04128770902752876, -0.06257720291614532, -0.025654127821326256, -0.07752364128828049, -0.009327348321676254, 0.0986517146229744, 0.07132748514413834, 0.01838705874979496, -0.06115037202835083, 0.0849013701081276}, {-0.05066926032304764, -0.125269815325737, 0.0959499329328537, 0.030819423496723175, 0.034475177526474, 0.021410543471574783, 0.07219503074884415, -0.060934457927942276, 0.023935770615935326, 0.1013425812125206, 0.02294585295021534, 0.035450853407382965, 0.031155919656157494, 0.02618456445634365, 0.006300134584307671, -0.07265252619981766, -0.0417616181075573, 0.06061651185154915, -0.008924559690058231, -0.023589415475726128, -0.0391976498067379, 0.04097968339920044, 0.05836288630962372, 0.0413370244204998, -0.07228489965200424, 0.009291751310229301, 0.05492599681019783, 0.09022606909275055, 0.11546093970537186, -0.007987971417605877, -0.057788752019405365, -0.017979402095079422}, {-0.05189570412039757, 0.03165983036160469, -0.04029407352209091, -0.07726696878671646, -0.005400862079113722, -0.05942835658788681, 0.017208244651556015, -0.034195318818092346, -0.06821205466985703, -0.008799973875284195, 0.07780928164720535, -0.04982420429587364, 0.0007657586829736829, 0.04394505172967911, -0.04513806849718094, -0.03117738664150238, -0.010027467273175716, 0.08577942848205566, -0.00407175300642848, 0.061988528817892075, -0.11650176346302032, -0.0017315329750999808, -0.05213121697306633, -0.015112526714801788, -0.005689355544745922, 0.030571579933166504, -0.026222527027130127, -0.04046228155493736, 0.06397835165262222, -0.0799465924501419, -0.015610537491738796, -0.046746086329221725}, {-0.05293971672654152, -0.01624416932463646, 0.0984722301363945, 0.02326068840920925, 0.06748216599225998, 0.08125972002744675, -0.02627525106072426, 0.07115450501441956, 0.0370456725358963, 0.03658018633723259, 0.01646231673657894, 0.05417123809456825, -0.01892683655023575, 0.07042903453111649, 0.027350695803761482, -0.08352900296449661, 0.06652864068746567, 0.11067349463701248, -0.046130042523145676, -0.05893196165561676, -0.10478896647691727, 0.018813015893101692, 0.045508962124586105, -0.04487856104969978, 0.005643561948090792, -0.030946483835577965, 0.019760925322771072, 0.10122441500425339, -0.040366221219301224, 0.08599977940320969, -0.10775376856327057, 0.04439712315797806}, {-0.0108561422675848, 0.053419094532728195, 0.008324017748236656, -0.07924370467662811, -0.06238989531993866, -0.04379413276910782, -0.00045403922558762133, -0.06088315322995186, 0.07002416253089905, -0.04927673563361168, -0.05288168042898178, 0.024382950738072395, -0.03526671230792999, 0.031207120046019554, 0.02766098827123642, -0.006660277955234051, 0.011813540942966938, -0.03698132187128067, 0.05133700370788574, -0.02626226097345352, 0.02553391270339489, -0.03586326166987419, -0.09056597948074341, 0.01776539348065853, 0.006765812169760466, 0.05322269722819328, 0.02417120151221752, -0.017407724633812904, -0.035832516849040985, 0.02452063374221325, 0.04659862443804741, -0.0037751710042357445}}, {{-0.09580399096012115, 0.05225374177098274, -0.054685160517692566, 0.02934330701828003, -0.03146671876311302, -0.004284870345145464, -0.024229926988482475, -0.010258741676807404, 0.017794322222471237, -0.06290161609649658, -0.02814057096838951, -0.08203817158937454, -0.033676523715257645, 0.006254084873944521, -0.015520424582064152, -0.031012769788503647, 0.05484726279973984, -0.041386038064956665, 0.04974910616874695, 0.012369142845273018, 0.03586346656084061, 0.017979402095079422, -0.005067110061645508, -0.040324460715055466, 0.018144307658076286, -0.08995172381401062, 0.07658747583627701, -0.0049802944995462894, 0.024035543203353882, 0.045201465487480164, -0.02874574065208435, -0.029758280143141747}, {-0.11983814835548401, -0.02160879783332348, 0.053003985434770584, 0.05844352766871452, 0.0009422313305549324, -0.00650060037150979, 0.02689988911151886, 0.07051257789134979, 0.06696737557649612, 0.09432624280452728, -0.04363808035850525, -0.06947682052850723, 0.05347897857427597, 0.08708442747592926, 0.012224369682371616, -0.02545727975666523, 0.1439652144908905, -0.005345313809812069, 0.13205814361572266, 0.02360665425658226, 0.029586492106318474, -0.1705922931432724, 0.05805790796875954, -0.058221157640218735, -0.1436883956193924, 0.002841437701135874, 0.033389266580343246, -0.018493443727493286, -0.07658488303422928, -0.037766341120004654, 0.06915327161550522, -0.07973899692296982}, {-0.09005574136972427, -0.07241234928369522, -0.04035263881087303, 0.023881470784544945, 0.0019242997514083982, 0.016993878409266472, -0.0034315616358071566, -0.018291795626282692, -0.014473337680101395, -0.04977576434612274, -0.023709066212177277, 0.01970059424638748, 0.02998155727982521, -0.025894364342093468, -0.008593793958425522, -0.054785557091236115, -0.027696218341588974, 0.024762462824583054, 0.02785484492778778, -0.005066717509180307, -0.03945039585232735, 0.009033650159835815, -0.019263876602053642, 0.03521526977419853, -0.010003704577684402, -0.036287158727645874, -0.03606635704636574, 0.053591080009937286, 0.013281037099659443, -0.049358516931533813, -0.04533153027296066, -0.0007835332071408629}, {-0.05507060885429382, 0.009066209197044373, 0.04281458258628845, 0.04616788402199745, 0.03130898252129555, 0.018824363127350807, -0.030553655698895454, 0.005197553429752588, 0.029708871617913246, -0.05270345136523247, 0.05796383321285248, 0.01828833855688572, -0.006501571275293827, -0.06254250556230545, -0.050824835896492004, -0.018432151526212692, -0.04748913645744324, -0.02681916393339634, 0.00894834939390421, 0.005799913313239813, 0.04177219793200493, -0.03718896210193634, -0.046430207788944244, -0.017448490485548973, -0.021984314545989037, 0.06192857399582863, -0.026173604652285576, -0.04352143034338951, -0.025707488879561424, 0.03308110684156418, -0.016480520367622375, 0.02708689495921135}, {-0.052130330353975296, -0.09699844568967819, -0.06153479218482971, 0.000884616922121495, 0.027324726805090904, -0.06885838508605957, -0.001318937516771257, -0.04327797889709473, 0.052073873579502106, -0.007374129258096218, 0.01346286479383707, 0.012044157832860947, 0.03691723197698593, -0.011028584092855453, -0.020844731479883194, -0.02160506136715412, 0.06589717417955399, 0.002885153517127037, -0.0068711512722074986, -0.07211972028017044, 0.011304222047328949, -0.036770500242710114, 0.015134502202272415, -0.02508210390806198, 0.0005151934456080198, 0.003763582557439804, -0.11891674250364304, -0.044272419065237045, -0.009168364107608795, -0.008357281796634197, 0.03209110349416733, -0.07262657582759857}, {-0.016860658302903175, -0.0328177809715271, 0.1025412306189537, 0.0019354551332071424, -0.0012606028467416763, -0.10910740494728088, 0.05030064657330513, -0.07478368282318115, 0.023391693830490112, -0.003576084738597274, -0.09237805008888245, -0.03873409703373909, 0.05897827818989754, -0.028983956202864647, 0.0697675570845604, -0.0033577624708414078, -0.0011218589497730136, -0.01660921238362789, -0.04801950603723526, -0.005099029745906591, 0.002188533777371049, 0.0452147014439106, -0.04221273586153984, -0.04440750926733017, -0.053276944905519485, 0.02069132775068283, -0.03344593942165375, 0.08658413589000702, 0.06683864444494247, 0.018197694793343544, 0.01503109559416771, -0.0073762377724051476}, {0.02926136553287506, -0.11523377895355225, 0.06300092488527298, 0.022567247971892357, -0.06194973737001419, -0.07292420417070389, 0.05842560902237892, 0.011987714096903801, 0.000557621824555099, 0.008001751266419888, 0.020927205681800842, 0.004162303172051907, -0.04544709250330925, -0.023350397124886513, 0.04344220086932182, 0.07275321334600449, 0.02917369455099106, 0.020319953560829163, -0.06653305143117905, -0.014446479268372059, -0.02148309350013733, -0.014618045650422573, 0.02417336031794548, -0.013269588351249695, 0.06048625335097313, 0.03420685604214668, -0.10554098337888718, 0.09803764522075653, 0.0840647742152214, 0.04880222678184509, -0.02314203605055809, 0.05441088229417801}, {-0.0663561299443245, -0.09665156900882721, 0.021623216569423676, -0.07435590028762817, -0.024410784244537354, 0.030520183965563774, -0.08432187885046005, -0.045778967440128326, -0.004436932969838381, 0.0672573670744896, 0.035120222717523575, 0.03087502531707287, 0.01450098305940628, -0.0014271545223891735, -0.007909712381660938, -0.0058467392809689045, 0.014552867040038109, 0.0249188095331192, 0.0365813747048378, -0.08506137877702713, -0.03323625773191452, 0.003389078890904784, -0.057326290756464005, 0.007588463835418224, 0.03230230137705803, -0.04002651199698448, 0.008766000159084797, 0.03007373958826065, 0.06139873340725899, 0.0007040781783871353, -0.05619064345955849, -0.0437820740044117}, {-0.09758269041776657, -0.007271359674632549, -0.013957417570054531, -0.019462309777736664, -0.058667104691267014, 0.05486278235912323, -0.016411345452070236, 0.07949848473072052, -0.03170539066195488, 0.13697832822799683, -0.020688511431217194, 0.07935676723718643, 0.0574401393532753, 0.050692491233348846, -2.942818173323758e-05, -0.047207966446876526, 0.0893712043762207, 0.05262023210525513, 0.03065938502550125, 0.0620918869972229, 0.039422184228897095, -0.04259708523750305, 0.02374528907239437, -0.057899110019207, -0.03671323135495186, -0.010894926264882088, -0.014394253492355347, 0.07647984474897385, 0.06227812543511391, 0.04044681414961815, 0.03323566913604736, -0.05681334808468819}, {-0.02669215016067028, 0.04613493010401726, -0.03316790983080864, -0.08093533664941788, 0.023807939141988754, -0.1263040155172348, -0.011386001482605934, 0.055319394916296005, 0.06144202873110771, -0.08186104148626328, -0.00514612952247262, 0.028245525434613228, 0.0019896053709089756, 0.19435328245162964, -0.026000699028372765, 0.015421224758028984, 0.04189178720116615, 0.016154984012246132, -0.018772615119814873, 0.07283444702625275, -0.07436078786849976, -0.029253166168928146, -0.008022487163543701, -0.031746361404657364, 0.018525399267673492, -0.025623420253396034, 0.05460314825177193, -0.008676129393279552, 0.0840296819806099, 0.008418362587690353, 0.03808028995990753, 0.020279990509152412}, {0.04649750888347626, -0.03168691694736481, 0.04369388520717621, -0.002596682868897915, 0.045633330941200256, 0.04199327528476715, -0.038977593183517456, -0.0338515043258667, -0.12607234716415405, -0.016698403283953667, -0.06834735721349716, -0.0472901314496994, 0.009530737064778805, -0.11797963827848434, 0.06401382386684418, -0.0996769443154335, -0.07871993631124496, -0.008651372976601124, -0.07604176551103592, -0.040084440261125565, 0.012773781083524227, -0.009322794154286385, 0.03419681638479233, -0.0696827843785286, 0.08656451106071472, 0.03194627910852432, 0.03117436356842518, -0.023948712274432182, 0.008852243423461914, 0.0009006819454953074, -0.055846959352493286, -0.023580312728881836}, {-0.07010296732187271, -0.039369020611047745, 0.022291330620646477, -0.062473759055137634, -0.0007310179644264281, 0.0005020419484935701, -0.02421279065310955, -0.0003060978197026998, 0.06825712323188782, 0.13183718919754028, -0.011143608950078487, 0.008933745324611664, -0.0019949395209550858, 0.027802301570773125, 0.03633732721209526, 0.04080803692340851, 0.02634420432150364, 0.05728090554475784, 0.02174334228038788, -0.07005929201841354, -0.02184833027422428, -0.008343261666595936, -0.009999161586165428, -0.0024870308116078377, 0.06638313084840775, 0.003373163053765893, -0.048065125942230225, 0.026483409106731415, 0.10324076563119888, 0.008617780171334743, 0.013104917481541634, 0.0039716558530926704}, {-0.011262278072535992, 0.018865929916501045, -0.01388813741505146, 0.004918689373880625, 0.0350336879491806, 0.02548440545797348, -0.036401063203811646, -0.03180360794067383, -0.03866526857018471, 0.041065603494644165, -0.017169753089547157, 0.012971506454050541, -0.005852520931512117, -0.026520732790231705, -0.001677043503150344, 0.025730958208441734, 0.03079815022647381, -0.029197238385677338, 0.023526480421423912, -0.011107457801699638, 0.022694041952490807, 0.00034921980113722384, 0.02261754684150219, -0.0032104752026498318, 0.049349427223205566, -0.010435793548822403, 0.04232119396328926, 0.056085631251335144, -0.06923702359199524, 0.04428919404745102, -0.021875331178307533, -0.025487519800662994}, {-0.006527258548885584, -0.036376144737005234, 0.03994158282876015, 0.03579680994153023, -0.0008905037539079785, -0.008014557883143425, 0.014881397597491741, -0.040600650012493134, 0.020189419388771057, 0.027165265753865242, 0.008722351863980293, -0.010944184847176075, -0.012095196172595024, -0.03130095452070236, -0.03751375898718834, 0.01566876471042633, -0.012199578806757927, -0.0049291676841676235, 0.030452849343419075, -0.045791830867528915, -0.022437162697315216, 0.036992140114307404, -0.09070412069559097, -0.00039375643245875835, -0.054688625037670135, 0.016325825825333595, -0.06626477837562561, 0.019361887127161026, -0.071163110435009, -0.036683015525341034, 0.018583500757813454, -0.017357109114527702}, {-0.007941560819745064, -0.00160304456949234, 0.022839294746518135, 0.0007243060972541571, 0.012875663116574287, 0.03646806254982948, 0.007054715882986784, 0.05043989419937134, -0.03349607437849045, -0.015130428597331047, -0.029787316918373108, 0.03141434118151665, -0.0006946483626961708, -0.057197317481040955, 0.012095261365175247, -0.0599355548620224, -0.016704730689525604, 0.09988796710968018, 0.021066555753350258, -0.07704810053110123, -0.04208201915025711, -0.02980699948966503, -0.011850313283503056, -0.03492800518870354, 0.06403643637895584, 0.01001318171620369, -0.013721081428229809, -0.02575158141553402, 0.01863481104373932, 0.026300352066755295, 0.04709167033433914, -0.01727619767189026}, {-0.04263681545853615, -0.06094837933778763, -0.03360985219478607, -0.012164012528955936, 0.03761344030499458, 0.03886360675096512, -0.0607629269361496, 0.03315191715955734, -0.01323452778160572, -0.010433309711515903, -0.034407515078783035, 0.04004386067390442, 0.005064135883003473, 0.010888757184147835, 0.021108029410243034, 0.06590916216373444, 0.0009797734674066305, 0.05062876641750336, 0.0007359492592513561, -0.003096245927736163, -0.009383474476635456, 0.010461140424013138, 0.01804766245186329, 0.07652881741523743, -0.04350487142801285, 0.04869876801967621, -0.0687454491853714, 0.05937774106860161, -0.076984703540802, -0.037707921117544174, 0.01223489549010992, -0.0069464282132685184}, {-0.0873233750462532, -0.11216655373573303, -0.028823602944612503, -0.008905034512281418, -0.03974499553442001, 0.046804048120975494, -0.033092476427555084, -0.027928996831178665, -0.04235980659723282, 0.023076584562659264, -0.039931412786245346, -0.07130445539951324, -0.07523448020219803, -0.0362071730196476, -0.07270119339227676, -0.11042749881744385, 0.02441779524087906, 0.04334062710404396, 0.009020579978823662, -0.013036660850048065, 0.0035663980524986982, -0.021912455558776855, -0.0866534560918808, -0.10855277627706528, -0.04440184682607651, -0.06705328077077866, -0.02842898666858673, 0.007099660113453865, 0.0653453841805458, 0.0013191272737458348, 0.01506128441542387, 0.02970356121659279}, {0.045633215457201004, -0.038756001740694046, 0.05001215636730194, 0.05531732738018036, -0.021257586777210236, -0.02741779200732708, 0.00900296214967966, -0.08039666712284088, -0.025078611448407173, -0.07972710579633713, -0.056963566690683365, 0.01739114336669445, -0.01304243691265583, -0.03606684133410454, 0.08293356746435165, -0.03984496369957924, 0.023714222013950348, 0.011083043180406094, -0.020224006846547127, -0.09154687076807022, 0.03765978664159775, -0.07294762134552002, 0.058243609964847565, 0.05837810039520264, -0.06826965510845184, 0.06714237481355667, 0.09988271445035934, -0.03079194203019142, 0.003264131024479866, -0.053441666066646576, -0.04089929163455963, -0.03891640529036522}, {0.008693529292941093, -0.01708918809890747, 0.13768881559371948, -0.07366692274808884, 0.06499780714511871, 0.012989265844225883, 0.07948210090398788, -0.030431125313043594, -0.0012212893925607204, 0.11697252839803696, -0.013176352716982365, -0.010070259682834148, -0.05748063698410988, 0.10744384676218033, -0.03934791311621666, -0.02185766026377678, 0.058982789516448975, -0.007454304490238428, 0.051070187240839005, -0.04229336604475975, 0.03851313889026642, 0.04690778627991676, -0.05225740373134613, -0.1009581908583641, -0.0035608340986073017, -0.029977144673466682, -0.0962114930152893, 0.1188754215836525, 0.13013650476932526, -0.0074187773279845715, 0.04079149663448334, 0.08266784250736237}, {-0.05988818779587746, -0.0019086948595941067, -0.09668676555156708, -0.012506065890192986, 0.03839355707168579, -0.03281458839774132, -0.0817066952586174, 0.022867070510983467, 0.07189983129501343, -0.061743613332509995, -0.03071576915681362, -0.04218203201889992, -0.02148747444152832, 0.14975421130657196, 0.0644911676645279, 0.008730992674827576, -0.028057031333446503, 0.005235766060650349, 0.12407602369785309, 0.05667528510093689, 0.037558555603027344, -0.07911404967308044, 0.02041851356625557, -0.016296369954943657, -0.09058775752782822, 0.04732760414481163, -0.08227600157260895, -0.06717755645513535, -0.04979591816663742, 0.03227250650525093, -0.02461983822286129, -0.032111749053001404}, {-0.04252704977989197, -0.005527755711227655, -0.015265421010553837, 0.008791808970272541, -0.057645007967948914, -0.0682670846581459, 0.02622799202799797, 0.0323355607688427, 0.01429875660687685, -0.027065055444836617, 0.01149588543921709, 0.015568149276077747, 0.06842347979545593, 0.005101520102471113, -0.04950813949108124, -0.03147129714488983, -0.025368044152855873, 0.0510910265147686, 0.0258883498609066, 0.015126856975257397, -0.03522920235991478, 0.04964658245444298, 0.005751144140958786, -0.03175002336502075, 0.009404361248016357, -0.09100335091352463, 0.0515374056994915, 0.010014104656875134, 0.08992495387792587, -0.04170404374599457, 0.0007496997714042664, 0.0262763611972332}, {-0.019700782373547554, -0.01658388413488865, 0.05797785148024559, -0.023249898105859756, 0.05811842903494835, 0.04086131975054741, 0.03246716782450676, -0.030958808958530426, 0.017003685235977173, 0.0016075484454631805, -0.017070671543478966, 0.015374629758298397, 0.05282817780971527, -0.07254699617624283, -0.020683275535702705, -0.02962491475045681, -0.0009402217692695558, -0.005255687050521374, 0.015048228204250336, -0.032320257276296616, -0.008912606164813042, -0.04107764735817909, -0.05005258694291115, 0.07792606949806213, 0.053901754319667816, -0.02556537836790085, -0.016681218519806862, -0.014233370311558247, 0.029933420941233635, -0.034633275121450424, -0.03231346607208252, 0.020733360201120377}, {-0.04096243903040886, 0.004013711120933294, -0.0019861049950122833, 0.047970764338970184, -0.02930639497935772, 0.026004042476415634, -0.09190234541893005, 0.04393230751156807, -0.0261384267359972, -0.07784053683280945, -0.07285991311073303, -0.06603043526411057, 0.04794849455356598, 0.043755896389484406, 0.03303440660238266, 0.06538473814725876, -0.007825711742043495, -0.0023091298062354326, 0.02734716795384884, 0.012412027455866337, 0.02309684455394745, -0.04382465034723282, 0.016395842656493187, 0.0006756893126294017, 0.0014890477759763598, 0.045210108160972595, 0.05701664090156555, -0.07950462400913239, -0.03128330036997795, -0.02048848755657673, 0.060018543154001236, -0.039163727313280106}, {-0.04032103344798088, -0.038604456931352615, 0.014138429425656796, 0.016747450456023216, -0.014008745551109314, 0.008941845037043095, -0.01804807037115097, -0.0505312941968441, -0.003250185865908861, 0.04388679563999176, -0.04797712340950966, 0.04996301978826523, -0.02952580526471138, -0.04353954643011093, -0.006619857624173164, 0.01521370280534029, -0.04833650216460228, 0.08194968104362488, 0.033215735107660294, -0.026825442910194397, -0.01660745218396187, -0.05899608135223389, 0.043778009712696075, -0.05149533227086067, 0.0008419489022344351, -0.002056187018752098, 0.04827640950679779, 0.02567823976278305, -0.029513472691178322, -0.03552118316292763, 0.02838016487658024, -0.03593532368540764}, {-0.03416888788342476, -0.044912125915288925, -0.02460380643606186, -0.037041980773210526, 0.017085256054997444, -0.009125101380050182, 0.033883824944496155, -0.03501893952488899, 0.07325395196676254, -0.01680101826786995, 0.025658588856458664, -0.032808151096105576, -0.04804157465696335, 0.013218238949775696, 0.03587834909558296, -0.005003015976399183, -0.01441322173923254, 0.06577230244874954, -0.004547877702862024, -0.030624255537986755, 0.00428986269980669, -0.08337948471307755, -0.07043076306581497, -0.1350809931755066, -0.03395682945847511, -0.07645837962627411, 0.08355532586574554, -0.041824694722890854, 0.04322722926735878, 0.007883519865572453, 0.01712891459465027, -0.07180751115083694}, {0.033330705016851425, 0.05983416363596916, 0.0682855024933815, 0.02785199135541916, 0.03304380923509598, -0.06801269948482513, -0.04843989387154579, -0.005491247400641441, -0.09267944097518921, -0.007331302389502525, -0.08334402740001678, -0.03644081950187683, 0.08278403431177139, -0.07787153124809265, 0.017910121008753777, -0.08765798807144165, -0.039700523018836975, 0.07750140875577927, -0.07315270602703094, -0.0217866450548172, 0.011210614815354347, 0.003192882053554058, -0.03159543126821518, 0.05477854609489441, -0.01688537187874317, -0.0023538374807685614, 0.054296884685754776, 0.027759626507759094, -0.05884871631860733, 0.07207038253545761, 0.10278669744729996, 0.05353207886219025}, {0.008925579488277435, -0.10508407652378082, 0.10320305824279785, -0.017160799354314804, 0.004721104167401791, -0.023495662957429886, 0.03311184421181679, 0.009444220922887325, -0.004189202096313238, 0.030907059088349342, 0.012592703104019165, -0.005237282253801823, -0.0121047617867589, 0.05944933742284775, 0.01575293019413948, -0.0445212684571743, 0.012941827066242695, 0.03490627929568291, -0.011662723496556282, -0.08846684545278549, -0.035392120480537415, -0.021185969933867455, -0.004846606403589249, -0.078182153403759, -0.012926598079502583, 0.017082730308175087, -0.060550007969141006, 0.008528809063136578, 0.06879007071256638, 0.05277417600154877, -0.02202000468969345, -0.021222421899437904}, {-0.06493707001209259, -0.08849090337753296, 0.14404895901679993, -0.038442462682724, 0.06716179102659225, -0.08360888063907623, 0.07419124990701675, -0.03619029372930527, -0.0720076933503151, 0.024630161002278328, 0.04167577251791954, 0.02016323432326317, -0.005850660149008036, 0.13223575055599213, 0.012420844286680222, 0.026340866461396217, 0.12721672654151917, 0.06264645606279373, 0.049659211188554764, 0.04203948751091957, -0.011257795616984367, -0.016879508271813393, -0.10739696770906448, -0.03910255432128906, -0.000521179405041039, -0.027791207656264305, -0.07508083432912827, 0.08824719488620758, 0.12630781531333923, 0.05009680986404419, -0.037742115557193756, 0.07154085487127304}, {-0.015342913568019867, -0.08386091142892838, 0.1069103479385376, 0.01919802464544773, 0.010454846546053886, -0.013768036849796772, 0.07392928004264832, -0.03911197930574417, -0.0624740794301033, 0.09537007659673691, -0.014718473888933659, -0.011448166333138943, 0.025202587246894836, 0.08361467719078064, -0.04407670348882675, -0.04762261360883713, 0.08607844263315201, -0.0008246103534474969, -0.06028660386800766, -0.02722700498998165, -0.032860781997442245, 0.03734744340181351, -0.0987737774848938, -0.0016450679395347834, 0.0290847010910511, 0.01874561607837677, -0.09652797877788544, 0.08631037920713425, 0.10787755250930786, -0.017774222418665886, -0.03166767582297325, 0.017502041533589363}, {-0.07183904945850372, -0.024260269477963448, -0.057931721210479736, 0.02130354382097721, -0.020928753539919853, -0.09420081228017807, 0.052057452499866486, 0.044715359807014465, 0.08791357278823853, -0.04030684381723404, 0.04870883747935295, -0.0149673568084836, 0.04532185569405556, 0.052426569163799286, 0.03658713772892952, 0.06493710726499557, 0.07962338626384735, 0.028776368126273155, 0.044677890837192535, 0.007220964413136244, 0.06492754817008972, -0.029636304825544357, -0.06663336604833603, 0.015792671591043472, 0.007304470054805279, -0.01515229046344757, 0.0013120232615619898, -0.04075625166296959, 0.014945748262107372, -0.07333101332187653, 0.021878557279706, 0.016910361126065254}, {0.013884754851460457, -0.07535449415445328, 0.08436625450849533, 0.009580302983522415, -0.0151623310521245, -0.08153904974460602, 0.041855525225400925, 0.018884725868701935, -0.0868205577135086, 0.05172695592045784, -0.016791721805930138, 0.03772221878170967, 0.06012380123138428, 0.04122279956936836, 0.05682126060128212, -0.028446529060602188, 0.10213355720043182, 0.04417986050248146, -0.024091068655252457, -0.02827857993543148, -0.03615233674645424, 0.035258930176496506, 0.003967118449509144, -0.02168303169310093, 0.017236489802598953, 0.04732022061944008, -0.01594850793480873, 0.08105803281068802, 0.07950279116630554, -0.014605688862502575, -0.005578815937042236, 0.03917829692363739}, {-0.04141109436750412, -0.04212513193488121, -0.03910232335329056, -0.049350034445524216, 0.07591107487678528, 0.005414318293333054, -0.019722342491149902, 0.07920937240123749, 0.03174714744091034, -0.035608164966106415, 0.06580537557601929, -0.027403511106967926, -0.028428519144654274, 0.054846107959747314, -0.05715562775731087, 0.0363992303609848, 0.061219844967126846, -0.031344782561063766, -0.016190126538276672, -0.026916012167930603, 0.06266205757856369, -0.038248948752880096, -0.012850986793637276, -0.033334881067276, 0.037238236516714096, -0.03610685095191002, -0.018914593383669853, -0.006137432996183634, -0.06888449937105179, -0.026704149320721626, 0.01620030403137207, -0.07201731950044632}}}, {{{0.026776563376188278, 0.013936799019575119, 0.005496810656040907, 0.007292138412594795, -0.10862650722265244, 0.018120942637324333, -0.026164798066020012, 0.0068792738020420074, -0.037008143961429596, -0.02911360375583172, -0.04122215881943703, -0.1122017428278923, -0.003410147037357092, -0.029486754909157753, -0.07423011213541031, -0.07909106463193893, -0.043491024523973465, 0.008616912178695202, 0.051292359828948975, 0.010972943156957626, 0.0028959992341697216, -0.029600968584418297, 0.04180927947163582, 0.04148264229297638, 0.08088318258523941, 0.03590348735451698, -0.020508376881480217, 0.008335917256772518, -0.028042089194059372, 0.04763657599687576, 0.008869596756994724, -0.027104899287223816}, {-0.04918792098760605, -0.054048217833042145, -0.05134646221995354, 0.011234150268137455, -0.02633441612124443, -0.08085907250642776, -0.030969008803367615, -0.005827134475111961, -0.027960872277617455, 0.013346930965781212, 0.039291542023420334, -0.06896647065877914, -0.0362822450697422, 0.08138086646795273, -0.06851460039615631, -0.04426838085055351, 0.005073768552392721, 0.06233442947268486, 0.00044911366421729326, 0.04394092783331871, -0.0634654238820076, -0.021838713437318802, -0.01952384039759636, -0.05802459642291069, 0.0929839238524437, -0.011468467302620411, -0.018927661702036858, -0.014652865938842297, 0.04777160659432411, -0.04676733538508415, -0.015651309862732887, -0.00953274592757225}, {-0.021583277732133865, 0.0035676604602485895, -0.009718083776533604, 0.03795287385582924, 0.009527849033474922, 0.007051828317344189, 0.01997356116771698, -0.046736329793930054, -0.10814739018678665, -0.002790000755339861, -0.006186258047819138, -0.005375138483941555, -0.08056630939245224, 0.018673615530133247, 0.025234172120690346, -0.08425047993659973, 0.0878792405128479, -0.013494648039340973, -0.05373755097389221, 0.03959820792078972, -0.02236631140112877, 0.07023418694734573, -0.0528048574924469, -0.014329847879707813, 0.008155714720487595, -0.02366265095770359, 0.0009838249534368515, -0.00619869539514184, -0.036658886820077896, 0.029063206166028976, 0.018299005925655365, -0.05956857651472092}, {0.014430775307118893, 0.020674342289566994, 0.08128319680690765, -0.03452780470252037, 0.03820665180683136, -0.017044952139258385, -0.016783319413661957, -0.03260388970375061, -0.059105854481458664, -0.06685139238834381, -0.09181232005357742, -0.07447294890880585, -0.02100774273276329, -0.03700843080878258, -0.05361884832382202, -0.02794821187853813, 0.01668774150311947, 0.006427839398384094, 0.06183883547782898, 0.025093909353017807, 0.01663469523191452, 0.009477545507252216, -0.05298813432455063, 0.035454023629426956, 0.019044488668441772, 0.021304737776517868, -0.004673975985497236, 0.08054273575544357, -0.01008294615894556, 0.02334512770175934, -0.046589937061071396, 0.0014732069103047252}, {0.002277329796925187, 0.015243617817759514, -0.0012562446063384414, -0.059111904352903366, -0.013621735386550426, -0.044395897537469864, 0.0700216144323349, -0.033122070133686066, 0.03195112198591232, -0.00022995768813416362, 0.04798586666584015, 0.006820065900683403, -0.07850278168916702, -0.020809395238757133, -0.05299345403909683, 0.018244901672005653, -0.07351580262184143, -0.02528711035847664, 0.03682127222418785, -0.05088245868682861, 0.007424007635563612, -0.043589185923337936, -0.023737318813800812, 0.02983301505446434, -0.022661535069346428, 0.053765859454870224, 0.033116746693849564, -0.09958462417125702, -0.00947161391377449, -0.017330624163150787, 0.011769227683544159, -0.08336008340120316}, {0.002220477443188429, -0.001959538785740733, -0.0760064572095871, 0.03777792677283287, 0.0002943136787507683, -0.049953363835811615, -0.05995377153158188, 0.03846846520900726, -0.003116811392828822, -0.00786564964801073, -0.06358298659324646, 0.005048304796218872, -0.020959068089723587, 0.0037312658969312906, -0.08678071945905685, -0.060077790170907974, -0.10122692584991455, 0.005458232946693897, 0.030738884583115578, -0.013056058436632156, 0.06449862569570541, -0.004802999086678028, -0.0524611696600914, 0.057388678193092346, -0.02502203918993473, -0.0004343139589764178, -0.012057377025485039, 0.042585551738739014, -0.0006623425288125873, 0.09715405851602554, -0.06590063124895096, 0.03428855538368225}, {-0.021067673340439796, 0.02047250233590603, 0.05268586054444313, 0.06315229088068008, -0.020275892689824104, -0.06619702279567719, -0.041012439876794815, -0.052958909422159195, -0.028328657150268555, 0.033477358520030975, -0.024083662778139114, 0.01838117279112339, 0.012298787012696266, -0.043995633721351624, -0.03400074318051338, -0.038917750120162964, 0.010958601720631123, -0.06973987817764282, -0.01967441476881504, -0.007462087087333202, 0.02581370621919632, -0.0619681179523468, 0.0688844546675682, 0.060543302446603775, -0.05701165273785591, -0.010526123456656933, -0.013825887814164162, -0.021100850775837898, -0.06839094310998917, 0.023679133504629135, 0.057117607444524765, -0.0024698986671864986}, {-0.05128311738371849, 0.06340853869915009, -0.07107533514499664, -0.0501537062227726, -0.03791799396276474, 0.01476043276488781, -0.07079378515481949, -0.0660787895321846, 0.00976447481662035, -0.06377299129962921, -0.023391835391521454, 0.051696740090847015, -0.0403025858104229, -0.041462745517492294, 1.0195057257078588e-05, -0.0369856096804142, 0.013642232865095139, -0.12435730546712875, -0.04783642292022705, 0.014179694466292858, 0.05759046971797943, 0.04493236914277077, 0.050366662442684174, 0.004885239992290735, -0.05779638886451721, 0.025375347584486008, -0.04235200583934784, -0.046958424150943756, -0.024616647511720657, 0.05190546065568924, 0.07637278735637665, -0.013862291350960732}, {-0.048226479440927505, 0.03031567856669426, 0.027556125074625015, 0.06461896747350693, 0.03417201340198517, -0.004581256303936243, -0.025325406342744827, -0.032030779868364334, 0.07859312742948532, -0.016622018069028854, -0.01569324918091297, 0.04440842568874359, 0.01774650253355503, 0.023071734234690666, 0.08437438309192657, 0.014352701604366302, 0.025874609127640724, -0.00797632522881031, -0.03121892735362053, 0.0421401672065258, -0.0022202031686902046, 0.024225257337093353, 0.045530837029218674, 0.0355050191283226, 0.029272740706801414, 0.052470266819000244, 0.06187156215310097, 0.02251628041267395, 0.019050290808081627, 0.03956464305520058, -0.034288614988327026, 0.03373581916093826}, {-0.044745538383722305, -0.024901775643229485, -0.004021729342639446, 0.02264712005853653, -0.010835313238203526, 0.07680433988571167, -0.04384034872055054, -0.054855648428201675, -0.015327448956668377, 0.08423258364200592, -0.03184272721409798, -0.005887614097446203, -0.03335271403193474, -0.017199600115418434, -0.06128256022930145, 0.03453265130519867, -0.04653218016028404, -0.029205014929175377, -0.012293186038732529, 0.03779832273721695, -0.01136659737676382, -0.05347737297415733, 0.012469911947846413, 0.030050544068217278, -0.07405495643615723, -0.0916951447725296, -0.02889925427734852, 0.06889267265796661, -0.08498363941907883, -0.03318660706281662, -0.017474591732025146, -0.007263435050845146}, {0.03599492087960243, -0.05392684042453766, -0.017555231228470802, -0.0691753700375557, -0.0032624260056763887, 0.011530190706253052, 0.04216734692454338, -0.027784423902630806, -0.015860125422477722, -0.05377640575170517, -0.00775483762845397, -0.025534793734550476, 0.038141265511512756, 0.044016025960445404, -0.04944291710853577, 0.07085917145013809, 0.034152816981077194, 0.011541327461600304, 0.08580577373504639, 0.029906291514635086, -0.016710205003619194, 0.020170994102954865, 0.005981299560517073, 0.01859159767627716, -0.04640553519129753, -0.007171581499278545, 0.043089576065540314, 0.04132705181837082, -0.07602519541978836, 0.06118607893586159, -0.016476409509778023, -0.048749133944511414}, {0.0389888696372509, 0.057322680950164795, -0.039805442094802856, 0.06510383635759354, -0.02101045660674572, -0.04429761320352554, -0.04983746260404587, -0.01760096102952957, 0.04164985567331314, -0.010802244767546654, -0.020642384886741638, 0.04381592199206352, -0.06920348852872849, -0.0383773110806942, -0.055835939943790436, 0.0553373321890831, 0.024109745398163795, -0.08681586384773254, 0.04675080627202988, 0.00601176219061017, 0.010617903433740139, 0.013519101776182652, -0.016536669805645943, 0.06477952748537064, 0.057098910212516785, -0.02345568686723709, 0.03107522800564766, 0.031346645206213, -0.0682799443602562, 0.01957925781607628, 0.003081283997744322, -0.040174923837184906}, {0.034800756722688675, -0.026264339685440063, -0.006465367041528225, -0.04177594557404518, -0.04944271221756935, 0.002104890299960971, -0.003123402362689376, -0.04859824851155281, 0.03551388904452324, 0.04851182922720909, 0.011992592364549637, -0.0469944104552269, -0.019620899111032486, -0.0001230172929354012, 0.0005854098126292229, -0.040015555918216705, 0.0030461123678833246, -0.057779621332883835, 0.004327081143856049, 0.003091230522841215, -0.06429490447044373, -6.101148028392345e-05, -0.0223530400544405, 0.022927455604076385, 0.017334867268800735, -0.05312809348106384, -0.06702235341072083, -0.029721755534410477, -0.007229187525808811, 0.04338855668902397, 0.03199245408177376, 0.06194550544023514}, {-0.02379019185900688, 0.08104841411113739, 0.0203835628926754, -0.03836043179035187, 0.009287375956773758, 0.009764562360942364, -0.031046397984027863, 0.012986100278794765, -0.053303759545087814, 0.01772161014378071, 0.0016577414935454726, -0.0169229656457901, -0.03440067917108536, -0.049754880368709564, 0.008421103470027447, 0.05857294425368309, 0.02962251380085945, -0.032084088772535324, -0.02796351909637451, 0.0645778626203537, 0.010856793262064457, 0.06517994403839111, -0.022527528926730156, -0.026477908715605736, 0.05466652661561966, 0.0856640413403511, 0.0037860474549233913, 0.05611675605177879, 0.07879190146923065, -0.05732046812772751, 0.05087432637810707, -0.05064475163817406}, {0.04069934040307999, 0.033021487295627594, 0.015340731479227543, -0.015049779787659645, -0.05515594407916069, -0.01500010211020708, -0.07251233607530594, -0.010856132954359055, 0.05103621631860733, 0.02813059650361538, 0.02509942278265953, -0.0012058177962899208, 0.04106973856687546, 0.005702310707420111, 0.004669057205319405, 0.04752450808882713, -0.008787458762526512, 0.013860131613910198, 0.033059798181056976, 0.03251110389828682, 0.01624499261379242, -0.04170061647891998, -0.0076535786502063274, 0.025593578815460205, -0.05594174563884735, -0.025993648916482925, -0.05417095124721527, 0.050220340490341187, -0.038881439715623856, 0.05721037834882736, -0.008299894630908966, 0.0558319017291069}, {0.021623939275741577, 0.0011943839490413666, -0.015388134866952896, 0.009577078744769096, -0.016822533681988716, -0.0636894628405571, -0.07270339876413345, -0.01271196361631155, -0.014904343523085117, -0.05593797564506531, -0.0122000053524971, 0.020804986357688904, 0.03072604537010193, -0.04752953723073006, 0.01846848614513874, -0.018542487174272537, -0.012640637345612049, 0.0027432520873844624, -0.06341291218996048, -0.009237055666744709, -0.051277510821819305, -0.027364224195480347, -0.037985336035490036, 0.015269269235432148, -0.05698726698756218, 0.05350814387202263, -0.030083924531936646, -0.0005931403720751405, -0.0165857020765543, 0.024983949959278107, -0.03734419122338295, -0.004937848076224327}, {0.029402343556284904, -0.028308240696787834, -0.05697019025683403, 0.058694563806056976, 0.011975541710853577, -0.04701945185661316, -0.08612988144159317, -0.060738399624824524, -0.05559175834059715, -0.07872321456670761, 0.029305344447493553, 0.05411519855260849, -0.012505624443292618, -0.13212372362613678, 0.04153600335121155, 0.05776746943593025, 0.02796030044555664, -0.027170957997441292, 0.052410438656806946, 0.033704135566949844, 0.010478461161255836, 0.023115849122405052, -0.026404384523630142, -0.0005197902792133391, -0.02930719405412674, -0.019602427259087563, 0.006714300252497196, 0.006835948675870895, -0.062139615416526794, -0.06753852963447571, -0.04067951813340187, -0.06938593089580536}, {-0.11106356233358383, 0.03071698546409607, 0.02457014098763466, -0.06357449293136597, -0.03268894553184509, 0.029536109417676926, 0.02379537746310234, -0.0468536801636219, -0.012537376023828983, 0.11470643430948257, 0.11198996752500534, -0.10590450465679169, -0.023239383473992348, 0.02310650423169136, 0.009848007000982761, -0.04958505555987358, -0.079024538397789, 0.07623667269945145, -0.013376370072364807, 0.09549318999052048, 0.02620866894721985, 0.027102163061499596, -0.04745153337717056, -0.01763126812875271, 0.07362618297338486, 0.007511555682867765, -0.0015539668966084719, -0.06189529597759247, 0.0739036500453949, -0.005051590036600828, 0.026413356885313988, -0.04065604507923126}, {0.008473566733300686, -0.03764623403549194, -0.024860214442014694, 0.03450144827365875, -0.024593867361545563, -0.04308973252773285, -0.042757946997880936, -0.11753595620393753, -0.016361761838197708, 0.024989528581500053, -0.0580221489071846, 0.014516128227114677, -0.024998892098665237, -0.037743840366601944, 0.011651823297142982, 0.03265465795993805, -0.0015499308938160539, -0.035999078303575516, 0.00520513579249382, -0.007430900353938341, -0.007622596807777882, 0.022160544991493225, 0.03150056302547455, 0.055392637848854065, 0.021189773455262184, 0.0058864401653409, -0.05656471103429794, -0.00650583254173398, 0.006153728347271681, 0.09331114590167999, 0.05002610757946968, 0.029044259339571}, {-0.07982572168111801, 0.08400379866361618, 0.07916698604822159, -0.0028976809699088335, -0.028872495517134666, -0.052885621786117554, 0.05155603215098381, 0.06672400236129761, -0.12136968225240707, 0.03108244575560093, 0.015895793214440346, -0.16016897559165955, -0.08753083646297455, 0.0016894463915377855, 0.025032933801412582, 0.002990673528984189, 0.015649044886231422, 0.07513302564620972, -0.036576397716999054, -0.004636040423065424, -0.006905455607920885, -0.005686204414814711, -0.09271103143692017, -0.017881348729133606, -0.07642874121665955, 0.07213857769966125, -0.029980259016156197, 0.02356121316552162, 0.026614997535943985, 0.0013622560072690248, 0.01574258878827095, -0.09200067073106766}, {0.012166262604296207, 0.01699000597000122, -0.027157220989465714, 0.017773697152733803, -0.08928228169679642, 0.07210716605186462, -0.07344740629196167, -0.049269452691078186, 0.0006534448475576937, 0.007450948469340801, -0.041101206094026566, 0.001457664417102933, 0.03427562862634659, 0.049002453684806824, -0.08650355041027069, -0.06859893351793289, -0.03800255432724953, -0.015079213306307793, 0.04777321219444275, 0.04498964920639992, 0.06980973482131958, -0.05195837467908859, 0.09911652654409409, 0.0607726089656353, -0.024081438779830933, -0.01476968452334404, -0.004889951087534428, 0.0592917874455452, -0.030054019764065742, -0.020608533173799515, -0.02900407463312149, -0.011577663943171501}, {0.009934676811099052, -0.028923172503709793, 0.041430652141571045, 0.032947786152362823, -0.01523823942989111, -0.04509781301021576, -0.059342700988054276, -0.06629706174135208, 0.06076813489198685, 0.049343548715114594, 0.03173963353037834, 0.036721453070640564, 0.01757867820560932, -0.022015664726495743, 0.008973151445388794, 0.008720038458704948, -0.01625801809132099, -0.022432807832956314, -0.004073938820511103, 0.004726924002170563, -0.05330563709139824, -0.032979100942611694, 0.01182781346142292, 0.010204709134995937, -0.035785023123025894, -0.01856585592031479, -0.04991638660430908, 0.046727679669857025, 0.053232837468385696, 0.01661890558898449, -0.05714653804898262, 0.05709360912442207}, {-0.0496138334274292, 0.018286244943737984, 0.022228840738534927, -0.052579108625650406, 0.014543911442160606, 0.014329250901937485, 0.05696568638086319, 0.030506625771522522, -0.07876847684383392, 0.01680142618715763, 0.0483412891626358, -0.01839008927345276, 0.009914307855069637, -0.04416971653699875, -0.08077946305274963, -0.0800628587603569, 0.0011196593986824155, 0.02153794839978218, -0.00908432062715292, 0.05005588009953499, -0.017919979989528656, 0.04383585602045059, 0.0015119914896786213, 0.06486009061336517, -0.03545866161584854, -0.016196463257074356, 0.02791276015341282, 0.009449368342757225, 0.007328576408326626, 0.006225280463695526, -0.03315569460391998, -0.05007554963231087}, {-0.07840073853731155, 0.05346285179257393, 0.058646585792303085, -0.04567680507898331, 0.009243406355381012, -0.06102778762578964, -0.03178443759679794, 0.03487088158726692, -0.04015633091330528, 0.03592154011130333, -0.02810797467827797, 0.030142322182655334, 0.02384966053068638, -0.07549343258142471, 0.019030343741178513, 0.018324684351682663, 0.028728574514389038, -0.00607687933370471, -0.017511777579784393, 0.02182387188076973, -0.05235253646969795, -0.07191222906112671, -0.017950933426618576, -0.060843005776405334, -0.0418039970099926, 0.05334187299013138, -0.03421849012374878, 0.03417551890015602, 0.03623557090759277, 0.016033248975872993, 0.033570222556591034, -0.015037627890706062}, {-0.001780782244168222, 0.09422361850738525, -0.0029210227075964212, -0.013487409800291061, -0.028893018141388893, 0.03912582993507385, -0.07642275094985962, 0.006079767365008593, -0.0885709673166275, -0.0432739220559597, -0.05046980082988739, -0.11278390884399414, -0.0005735083832405508, -0.0017252638936042786, -0.026314828544855118, 0.03723343834280968, 0.006408003158867359, 0.03671260178089142, -0.0402265228331089, 0.08344759792089462, 0.052034892141819, -0.006909635383635759, 0.009842580184340477, -0.027567783370614052, 0.06083539500832558, 0.05640660598874092, -0.042073946446180344, -0.015820804983377457, -0.022998765110969543, 0.023977259173989296, -0.03115517646074295, -0.01607346162199974}, {-0.04008060321211815, 0.027231402695178986, -0.0020600755233317614, 0.006613900884985924, -0.013385862112045288, -0.005116048268973827, -0.02280166931450367, -0.04412075877189636, 0.07034876942634583, 0.05495675280690193, -0.022971924394369125, -0.02874997816979885, 0.031406693160533905, 0.0154044134542346, -0.024300191551446915, 0.008654806762933731, -0.12977629899978638, 0.026245128363370895, 0.006714086979627609, -0.018412096425890923, 0.044994764029979706, 0.013443444855511189, 0.0801636204123497, 0.026341671124100685, -0.04950222000479698, -0.026652075350284576, -0.011217105202376842, -0.029834097251296043, -0.048900164663791656, 0.06778202205896378, 0.04290147125720978, 0.044003620743751526}, {0.02195807173848152, 0.04343300685286522, 0.028672069311141968, 0.06744256615638733, 0.05453787371516228, -0.023395080119371414, 0.022550730034708977, 0.015817593783140182, 0.02184509113430977, -0.06450210511684418, -0.06358383595943451, -0.028432141989469528, 0.016489272937178612, -0.008444590494036674, -0.04331396520137787, 0.010391748510301113, 0.009110044687986374, -0.05201719328761101, 0.06108729913830757, 0.031708043068647385, 0.0884522870182991, -0.009431148879230022, 0.03889624774456024, -0.03459734469652176, -0.020879900082945824, -0.003156350925564766, -0.034898579120635986, 0.026386959478259087, -0.05943328142166138, 0.08150969445705414, 0.06093496084213257, -0.04071703180670738}, {0.027396216988563538, 0.022114373743534088, -0.040170568972826004, 0.06978355348110199, 0.03732287511229515, -0.02080129086971283, -0.01646917313337326, -0.041564151644706726, 0.03261620178818703, -0.03487888723611832, 0.0035271840170025826, 0.030731970444321632, -0.0022812173701822758, 0.029207173734903336, -0.06700676679611206, -0.03016359731554985, -0.08755418658256531, 0.032490283250808716, -0.00011559478298295289, 0.030704887583851814, -0.02858925424516201, -0.012814220041036606, 0.05796653777360916, -0.00792818982154131, 0.0022543547675013542, -0.07674822211265564, 0.04640546068549156, 0.03077547438442707, 0.05371110886335373, 0.02984636463224888, -0.0008580550202168524, -0.010740671306848526}, {-0.06610143929719925, -0.010771160013973713, 0.0447113998234272, 0.013326248154044151, 0.015279176644980907, 0.02959061972796917, -0.00871165283024311, -0.07195253670215607, -0.0007620204705744982, 0.006513259373605251, -0.038508884608745575, 0.040338072925806046, -0.013303354382514954, 0.012317629531025887, -0.06550203263759613, 0.056525614112615585, -0.05235651880502701, -0.00476987287402153, -0.0033193002454936504, -0.017724981531500816, -0.03730154037475586, -0.05224751681089401, -0.03699346259236336, -0.012992458418011665, -0.021095415577292442, -0.08100040256977081, -0.05403865873813629, -0.04962268844246864, -0.004407605621963739, -0.004758316092193127, -0.03169769048690796, -0.04895453527569771}, {0.003513928735628724, -0.008605005219578743, 0.07194992899894714, -0.09267746657133102, 0.05828261002898216, -0.031218359246850014, 0.03944958746433258, 0.02007545344531536, -0.06148441508412361, 0.006863063666969538, 0.05561182275414467, -0.007557617034763098, -0.07966727763414383, -0.014682845212519169, 0.03806017339229584, -0.02180951088666916, -0.03988923132419586, 0.029910964891314507, -0.11331124603748322, 0.014299683272838593, 0.09226901829242706, 0.025451477617025375, -0.03990285471081734, 0.061152976006269455, -0.018578002229332924, 0.03978860750794411, 0.005894023459404707, 0.005374860018491745, -0.016343362629413605, -0.04564458504319191, 0.017210381105542183, -0.005159104708582163}, {0.02424982748925686, 0.028178630396723747, 0.006880329921841621, -0.048747386783361435, 0.013780396431684494, 0.057170066982507706, -0.004347065929323435, -0.008019577711820602, 0.04940810799598694, -0.04925014078617096, -0.07096300274133682, -0.02568327821791172, -0.05834251269698143, -0.02625175751745701, -0.02974657155573368, -0.05204710736870766, -0.01646397076547146, 0.001488822279497981, 0.035011667758226395, -0.008336402475833893, 0.0964832678437233, 0.035691894590854645, -0.018619025126099586, 0.037985946983098984, -0.057299353182315826, -0.06869064271450043, 0.0490807369351387, 0.06051725149154663, 0.014514830894768238, -0.01858745515346527, -0.026255393400788307, -0.018836652860045433}, {-0.04188178852200508, 0.02437536232173443, 0.06232742592692375, -0.049154236912727356, -0.003653823398053646, -0.026615625247359276, -0.05698808282613754, -0.04887024685740471, -0.03172491490840912, -0.005785726942121983, -0.03129269555211067, -0.062353115528821945, 0.024725599214434624, -0.014202727004885674, 0.03357752785086632, -0.034717608243227005, -0.007058833260089159, -0.07634895294904709, -0.04835432395339012, -0.018839364871382713, 0.02068725973367691, -0.035772655159235, 0.049000322818756104, -0.01857231929898262, -0.036267053335905075, 0.052878107875585556, 0.016249218955636024, -0.03068445809185505, -0.003848413936793804, 0.029718667268753052, -0.009833913296461105, 0.016910012811422348}}, {{0.02728341333568096, 0.016821112483739853, -0.06934241950511932, -0.06560216844081879, -0.0357123427093029, -0.11160562187433243, -0.011941702105104923, -0.05018460750579834, -0.012446376495063305, -0.005985957570374012, -0.0172718558460474, -0.0694916695356369, 0.03640817850828171, 0.000930980546399951, -0.04224451258778572, 0.013135772198438644, 0.03583642095327377, 0.03795371577143669, 0.026874516159296036, -0.046063169836997986, -0.02781134843826294, 0.009270529262721539, -0.012484774924814701, -0.010929943062365055, 0.022296274080872536, -0.02733364887535572, -0.033722810447216034, 0.03706030920147896, 0.007469420786947012, -0.007323008496314287, 0.03691907227039337, 0.004483634140342474}, {-0.06930075585842133, -0.09164080023765564, 0.04389561340212822, -0.018368471413850784, -0.004945921245962381, 0.0037026419304311275, -0.004407923202961683, -0.020395219326019287, 0.044574182480573654, 0.08187106251716614, -0.02842305600643158, -0.026163822039961815, -0.030961913987994194, -0.007824179716408253, 0.03949805721640587, -0.06944149732589722, 0.0733710303902626, 